{"learner":{"attributes":{"best_iteration":"842","best_score":"0.07416769313571628"},"feature_names":[],"feature_types":[],"gradient_booster":{"model":{"cats":{"enc":[],"feature_segments":[],"sorted_idx":[]},"gbtree_model_param":{"num_parallel_tree":"1","num_trees":"893"},"iteration_indptr":[0,1,2,3,4,5,6,7,8,9,10,11,12,13,14,15,16,17,18,19,20,21,22,23,24,25,26,27,28,29,30,31,32,33,34,35,36,37,38,39,40,41,42,43,44,45,46,47,48,49,50,51,52,53,54,55,56,57,58,59,60,61,62,63,64,65,66,67,68,69,70,71,72,73,74,75,76,77,78,79,80,81,82,83,84,85,86,87,88,89,90,91,92,93,94,95,96,97,98,99,100,101,102,103,104,105,106,107,108,109,110,111,112,113,114,115,116,117,118,119,120,121,122,123,124,125,126,127,128,129,130,131,132,133,134,135,136,137,138,139,140,141,142,143,144,145,146,147,148,149,150,151,152,153,154,155,156,157,158,159,160,161,162,163,164,165,166,167,168,169,170,171,172,173,174,175,176,177,178,179,180,181,182,183,184,185,186,187,188,189,190,191,192,193,194,195,196,197,198,199,200,201,202,203,204,205,206,207,208,209,210,211,212,213,214,215,216,217,218,219,220,221,222,223,224,225,226,227,228,229,230,231,232,233,234,235,236,237,238,239,240,241,242,243,244,245,246,247,248,249,250,251,252,253,254,255,256,257,258,259,260,261,262,263,264,265,266,267,268,269,270,271,272,273,274,275,276,277,278,279,280,281,282,283,284,285,286,287,288,289,290,291,292,293,294,295,296,297,298,299,300,301,302,303,304,305,306,307,308,309,310,311,312,313,314,315,316,317,318,319,320,321,322,323,324,325,326,327,328,329,330,331,332,333,334,335,336,337,338,339,340,341,342,343,344,345,346,347,348,349,350,351,352,353,354,355,356,357,358,359,360,361,362,363,364,365,366,367,368,369,370,371,372,373,374,375,376,377,378,379,380,381,382,383,384,385,386,387,388,389,390,391,392,393,394,395,396,397,398,399,400,401,402,403,404,405,406,407,408,409,410,411,412,413,414,415,416,417,418,419,420,421,422,423,424,425,426,427,428,429,430,431,432,433,434,435,436,437,438,439,440,441,442,443,444,445,446,447,448,449,450,451,452,453,454,455,456,457,458,459,460,461,462,463,464,465,466,467,468,469,470,471,472,473,474,475,476,477,478,479,480,481,482,483,484,485,486,487,488,489,490,491,492,493,494,495,496,497,498,499,500,501,502,503,504,505,506,507,508,509,510,511,512,513,514,515,516,517,518,519,520,521,522,523,524,525,526,527,528,529,530,531,532,533,534,535,536,537,538,539,540,541,542,543,544,545,546,547,548,549,550,551,552,553,554,555,556,557,558,559,560,561,562,563,564,565,566,567,568,569,570,571,572,573,574,575,576,577,578,579,580,581,582,583,584,585,586,587,588,589,590,591,592,593,594,595,596,597,598,599,600,601,602,603,604,605,606,607,608,609,610,611,612,613,614,615,616,617,618,619,620,621,622,623,624,625,626,627,628,629,630,631,632,633,634,635,636,637,638,639,640,641,642,643,644,645,646,647,648,649,650,651,652,653,654,655,656,657,658,659,660,661,662,663,664,665,666,667,668,669,670,671,672,673,674,675,676,677,678,679,680,681,682,683,684,685,686,687,688,689,690,691,692,693,694,695,696,697,698,699,700,701,702,703,704,705,706,707,708,709,710,711,712,713,714,715,716,717,718,719,720,721,722,723,724,725,726,727,728,729,730,731,732,733,734,735,736,737,738,739,740,741,742,743,744,745,746,747,748,749,750,751,752,753,754,755,756,757,758,759,760,761,762,763,764,765,766,767,768,769,770,771,772,773,774,775,776,777,778,779,780,781,782,783,784,785,786,787,788,789,790,791,792,793,794,795,796,797,798,799,800,801,802,803,804,805,806,807,808,809,810,811,812,813,814,815,816,817,818,819,820,821,822,823,824,825,826,827,828,829,830,831,832,833,834,835,836,837,838,839,840,841,842,843,844,845,846,847,848,849,850,851,852,853,854,855,856,857,858,859,860,861,862,863,864,865,866,867,868,869,870,871,872,873,874,875,876,877,878,879,880,881,882,883,884,885,886,887,888,889,890,891,892,893],"tree_info":[0,0,0,0,0,0,0,0,0,0,0,0,0,0,0,0,0,0,0,0,0,0,0,0,0,0,0,0,0,0,0,0,0,0,0,0,0,0,0,0,0,0,0,0,0,0,0,0,0,0,0,0,0,0,0,0,0,0,0,0,0,0,0,0,0,0,0,0,0,0,0,0,0,0,0,0,0,0,0,0,0,0,0,0,0,0,0,0,0,0,0,0,0,0,0,0,0,0,0,0,0,0,0,0,0,0,0,0,0,0,0,0,0,0,0,0,0,0,0,0,0,0,0,0,0,0,0,0,0,0,0,0,0,0,0,0,0,0,0,0,0,0,0,0,0,0,0,0,0,0,0,0,0,0,0,0,0,0,0,0,0,0,0,0,0,0,0,0,0,0,0,0,0,0,0,0,0,0,0,0,0,0,0,0,0,0,0,0,0,0,0,0,0,0,0,0,0,0,0,0,0,0,0,0,0,0,0,0,0,0,0,0,0,0,0,0,0,0,0,0,0,0,0,0,0,0,0,0,0,0,0,0,0,0,0,0,0,0,0,0,0,0,0,0,0,0,0,0,0,0,0,0,0,0,0,0,0,0,0,0,0,0,0,0,0,0,0,0,0,0,0,0,0,0,0,0,0,0,0,0,0,0,0,0,0,0,0,0,0,0,0,0,0,0,0,0,0,0,0,0,0,0,0,0,0,0,0,0,0,0,0,0,0,0,0,0,0,0,0,0,0,0,0,0,0,0,0,0,0,0,0,0,0,0,0,0,0,0,0,0,0,0,0,0,0,0,0,0,0,0,0,0,0,0,0,0,0,0,0,0,0,0,0,0,0,0,0,0,0,0,0,0,0,0,0,0,0,0,0,0,0,0,0,0,0,0,0,0,0,0,0,0,0,0,0,0,0,0,0,0,0,0,0,0,0,0,0,0,0,0,0,0,0,0,0,0,0,0,0,0,0,0,0,0,0,0,0,0,0,0,0,0,0,0,0,0,0,0,0,0,0,0,0,0,0,0,0,0,0,0,0,0,0,0,0,0,0,0,0,0,0,0,0,0,0,0,0,0,0,0,0,0,0,0,0,0,0,0,0,0,0,0,0,0,0,0,0,0,0,0,0,0,0,0,0,0,0,0,0,0,0,0,0,0,0,0,0,0,0,0,0,0,0,0,0,0,0,0,0,0,0,0,0,0,0,0,0,0,0,0,0,0,0,0,0,0,0,0,0,0,0,0,0,0,0,0,0,0,0,0,0,0,0,0,0,0,0,0,0,0,0,0,0,0,0,0,0,0,0,0,0,0,0,0,0,0,0,0,0,0,0,0,0,0,0,0,0,0,0,0,0,0,0,0,0,0,0,0,0,0,0,0,0,0,0,0,0,0,0,0,0,0,0,0,0,0,0,0,0,0,0,0,0,0,0,0,0,0,0,0,0,0,0,0,0,0,0,0,0,0,0,0,0,0,0,0,0,0,0,0,0,0,0,0,0,0,0,0,0,0,0,0,0,0,0,0,0,0,0,0,0,0,0,0,0,0,0,0,0,0,0,0,0,0,0,0,0,0,0,0,0,0,0,0,0,0,0,0,0,0,0,0,0,0,0,0,0,0,0,0,0,0,0,0,0,0,0,0,0,0,0,0,0,0,0,0,0,0,0,0,0,0,0,0,0,0,0,0,0,0,0,0,0,0,0,0,0,0,0,0,0,0,0,0,0,0,0,0,0,0,0,0,0,0,0,0,0,0,0,0,0,0,0,0,0,0,0,0,0,0,0,0,0,0,0,0,0,0,0,0,0,0,0,0,0,0,0,0,0,0,0,0,0,0,0,0,0,0,0,0,0,0,0,0,0,0,0,0,0,0,0,0,0,0,0,0,0,0,0,0,0,0,0,0,0,0,0,0,0,0,0,0,0,0,0,0,0,0,0,0,0,0,0,0,0,0,0,0,0,0,0,0,0,0,0,0,0,0,0,0,0,0,0,0,0,0,0,0,0,0,0,0,0,0,0,0,0,0,0,0,0,0,0],"trees":[{"base_weights":[-0E0,-4.1167107E-3,7.581323E-1,4.7450623E-1,1.0730626E-2,2.640307E-3,6.4339885E-3],"categories":[],"categories_nodes":[],"categories_segments":[],"categories_sizes":[],"default_left":[0,0,0,0,0,0,0],"id":0,"left_children":[1,-1,3,5,-1,-1,-1],"loss_changes":[3.9345233E2,0E0,3.6794006E1,7.181568E0,0E0,0E0,0E0],"parents":[2147483647,0,0,2,2,3,3],"right_children":[2,-1,4,6,-1,-1,-1],"split_conditions":[1.15779154E-1,-4.1167107E-3,1.4562035E0,6.5194887E-1,1.0730626E-2,2.640307E-3,6.4339885E-3],"split_indices":[25,0,25,25,0,0,0],"split_type":[0,0,0,0,0,0,0],"sum_hessian":[1.256E3,8.15E2,4.41E2,2.37E2,2.04E2,1.11E2,1.26E2],"tree_param":{"num_deleted":"0","num_feature":"27","num_nodes":"7","size_leaf_vector":"1"}},{"base_weights":[-8.0648373E-4,-4.076376E-3,7.53559E-1,3.8378394E-1,8.1952506E-1,2.4218713E-3,5.6096227E-3,4.9458686E-3,1.061695E-2],"categories":[],"categories_nodes":[],"categories_segments":[],"categories_sizes":[],"default_left":[0,0,0,0,0,0,0,0,0],"id":1,"left_children":[1,-1,3,5,7,-1,-1,-1,-1],"loss_changes":[3.9678253E2,0E0,9.048035E0,7.5134087E-1,2.6993927E1,0E0,0E0,0E0,0E0],"parents":[2147483647,0,0,2,2,3,3,4,4],"right_children":[2,-1,4,6,8,-1,-1,-1,-1],"split_conditions":[1.15779154E-1,-4.076376E-3,-4.6198997E-1,6.5194887E-1,1.4562035E0,2.4218713E-3,5.6096227E-3,4.9458686E-3,1.061695E-2],"split_indices":[25,0,26,25,25,0,0,0,0],"split_type":[0,0,0,0,0,0,0,0,0],"sum_hessian":[1.289E3,8.39E2,4.5E2,7.3E1,3.77E2,4.7E1,2.6E1,1.66E2,2.11E2],"tree_param":{"num_deleted":"0","num_feature":"27","num_nodes":"9","size_leaf_vector":"1"}},{"base_weights":[6.8313703E-3,-4.03521E-3,7.317685E-1,4.7176668E-1,1.0498365E-2,2.5879012E-3,6.3838838E-3],"categories":[],"categories_nodes":[],"categories_segments":[],"categories_sizes":[],"default_left":[0,0,0,0,0,0,0],"id":2,"left_children":[1,-1,3,5,-1,-1,-1],"loss_changes":[3.8436902E2,0E0,3.590161E1,8.040501E0,0E0,0E0,0E0],"parents":[2147483647,0,0,2,2,3,3],"right_children":[2,-1,4,6,-1,-1,-1],"split_conditions":[1.15779154E-1,-4.03521E-3,1.4562035E0,6.5194887E-1,1.0498365E-2,2.5879012E-3,6.3838838E-3],"split_indices":[25,0,25,25,0,0,0],"split_type":[0,0,0,0,0,0,0],"sum_hessian":[1.286E3,8.21E2,4.65E2,2.61E2,2.04E2,1.2E2,1.41E2],"tree_param":{"num_deleted":"0","num_feature":"27","num_nodes":"7","size_leaf_vector":"1"}},{"base_weights":[-0E0,-3.9956137E-3,7.40248E-1,3.7315387E-1,8.1409067E-1,2.4256036E-3,5.8067515E-3,5.1899266E-1,1.0484667E-2,2.3868557E-3,6.2903045E-3],"categories":[],"categories_nodes":[],"categories_segments":[],"categories_sizes":[],"default_left":[0,0,0,0,0,0,0,0,0,0,0],"id":3,"left_children":[1,-1,3,5,7,-1,-1,9,-1,-1,-1],"loss_changes":[3.8567847E2,0E0,1.0454834E1,1.0875711E0,2.3112396E1,0E0,0E0,4.1084366E0,0E0,0E0,0E0],"parents":[2147483647,0,0,2,2,3,3,4,4,7,7],"right_children":[2,-1,4,6,8,-1,-1,10,-1,-1,-1],"split_conditions":[1.15779154E-1,-3.9956137E-3,-4.1863766E-1,6.5194887E-1,1.4562035E0,2.4256036E-3,5.8067515E-3,6.5194887E-1,1.0484667E-2,2.3868557E-3,6.2903045E-3],"split_indices":[25,0,26,25,25,0,0,25,0,0,0],"split_type":[0,0,0,0,0,0,0,0,0,0,0],"sum_hessian":[1.298E3,8.43E2,4.55E2,8.1E1,3.74E2,5.6E1,2.5E1,1.71E2,2.03E2,5.3E1,1.18E2],"tree_param":{"num_deleted":"0","num_feature":"27","num_nodes":"11","size_leaf_vector":"1"}},{"base_weights":[7.6733544E-3,-3.9547873E-3,7.328418E-1,4.678603E-3,1.0380031E-2],"categories":[],"categories_nodes":[],"categories_segments":[],"categories_sizes":[],"default_left":[0,0,0,0,0],"id":4,"left_children":[1,-1,3,-1,-1],"loss_changes":[3.6986545E2,0E0,3.3870132E1,0E0,0E0],"parents":[2147483647,0,0,2,2],"right_children":[2,-1,4,-1,-1],"split_conditions":[1.15779154E-1,-3.9547873E-3,1.4562035E0,4.678603E-3,1.0380031E-2],"split_indices":[25,0,25,0,0],"split_type":[0,0,0,0,0],"sum_hessian":[1.259E3,8.09E2,4.5E2,2.46E2,2.04E2],"tree_param":{"num_deleted":"0","num_feature":"27","num_nodes":"5","size_leaf_vector":"1"}},{"base_weights":[1.6674548E-3,6.078858E-1,-3.9142254E-3,4.902717E-2,8.761895E-3,-1.2987144E-3,6.879647E-2,-3.5129492E-3,2.4819963E-3],"categories":[],"categories_nodes":[],"categories_segments":[],"categories_sizes":[],"default_left":[0,0,0,0,0,0,0,0,0],"id":5,"left_children":[1,3,-1,5,-1,-1,7,-1,-1],"loss_changes":[3.052375E2,7.4614044E1,0E0,5.5365914E-1,0E0,0E0,1.1984984E1,0E0,0E0],"parents":[2147483647,0,0,1,1,3,3,6,6],"right_children":[2,4,-1,6,-1,-1,8,-1,-1],"split_conditions":[1E0,6.5194887E-1,-3.9142254E-3,-1.1515734E0,8.761895E-3,-1.2987144E-3,1.15779154E-1,-3.5129492E-3,2.4819963E-3],"split_indices":[2,25,0,26,0,0,25,0,0],"split_type":[0,0,0,0,0,0,0,0,0],"sum_hessian":[1.275E3,5.02E2,7.73E2,1.65E2,3.37E2,1E1,1.55E2,4.4E1,1.11E2],"tree_param":{"num_deleted":"0","num_feature":"27","num_nodes":"9","size_leaf_vector":"1"}},{"base_weights":[7.0638745E-3,-3.8767282E-3,7.0546746E-1,4.4127858E-1,1.0161778E-2,2.471885E-3,6.050758E-3],"categories":[],"categories_nodes":[],"categories_segments":[],"categories_sizes":[],"default_left":[0,0,0,0,0,0,0],"id":6,"left_children":[1,-1,3,5,-1,-1,-1],"loss_changes":[3.5043292E2,0E0,3.514012E1,6.864731E0,0E0,0E0,0E0],"parents":[2147483647,0,0,2,2,3,3],"right_children":[2,-1,4,6,-1,-1,-1],"split_conditions":[1.15779154E-1,-3.8767282E-3,1.4562035E0,6.5194887E-1,1.0161778E-2,2.471885E-3,6.050758E-3],"split_indices":[25,0,25,25,0,0,0],"split_type":[0,0,0,0,0,0,0],"sum_hessian":[1.265E3,8.08E2,4.57E2,2.52E2,2.05E2,1.21E2,1.31E2],"tree_param":{"num_deleted":"0","num_feature":"27","num_nodes":"7","size_leaf_vector":"1"}},{"base_weights":[-7.4770385E-3,-3.8385845E-3,6.878742E-1,4.40145E-1,9.980408E-3,2.4470596E-3,6.0521136E-3],"categories":[],"categories_nodes":[],"categories_segments":[],"categories_sizes":[],"default_left":[0,0,0,0,0,0,0],"id":7,"left_children":[1,-1,3,5,-1,-1,-1],"loss_changes":[3.3312967E2,0E0,3.177147E1,6.9901123E0,0E0,0E0,0E0],"parents":[2147483647,0,0,2,2,3,3],"right_children":[2,-1,4,6,-1,-1,-1],"split_conditions":[1.15779154E-1,-3.8385845E-3,1.4562035E0,6.5194887E-1,9.980408E-3,2.4470596E-3,6.0521136E-3],"split_indices":[25,0,25,25,0,0,0],"split_type":[0,0,0,0,0,0,0],"sum_hessian":[1.269E3,8.25E2,4.44E2,2.52E2,1.92E2,1.21E2,1.31E2],"tree_param":{"num_deleted":"0","num_feature":"27","num_nodes":"7","size_leaf_vector":"1"}},{"base_weights":[8.768846E-3,6.037546E-1,-3.1082278E-1,4.8377633E-2,8.5234463E-1,-3.7986238E-3,6.4262146E-1,-3.410989E-3,2.3922904E-3,5.987973E-3,9.947944E-3,1.4152756E-3,7.47325E-3],"categories":[],"categories_nodes":[],"categories_segments":[],"categories_sizes":[],"default_left":[0,0,0,0,0,0,0,0,0,0,0,0,0],"id":8,"left_children":[1,3,5,7,9,-1,11,-1,-1,-1,-1,-1,-1],"loss_changes":[2.453932E2,6.133081E1,5.547631E1,1.0768794E1,8.131775E0,0E0,1.8110771E0,0E0,0E0,0E0,0E0,0E0,0E0],"parents":[2147483647,0,0,1,1,2,2,3,3,4,4,6,6],"right_children":[2,4,6,8,10,-1,12,-1,-1,-1,-1,-1,-1],"split_conditions":[1E0,6.5194887E-1,1.15779154E-1,1.15779154E-1,1.4562035E0,-3.7986238E-3,6.5194887E-1,-3.410989E-3,2.3922904E-3,5.987973E-3,9.947944E-3,1.4152756E-3,7.47325E-3],"split_indices":[18,25,25,25,25,0,25,0,0,0,0,0,0],"split_type":[0,0,0,0,0,0,0,0,0,0,0,0,0],"sum_hessian":[1.284E3,4.49E2,8.35E2,1.41E2,3.08E2,7.81E2,5.4E1,4.4E1,9.7E1,1.18E2,1.9E2,1.2E1,4.2E1],"tree_param":{"num_deleted":"0","num_feature":"27","num_nodes":"13","size_leaf_vector":"1"}},{"base_weights":[4.838919E-3,-3.762291E-3,6.8907815E-1,4.3491727E-1,9.763436E-3,2.392314E-3,5.8744084E-3],"categories":[],"categories_nodes":[],"categories_segments":[],"categories_sizes":[],"default_left":[0,0,0,0,0,0,0],"id":9,"left_children":[1,-1,3,5,-1,-1,-1],"loss_changes":[3.309296E2,0E0,3.0710953E1,6.209053E0,0E0,0E0,0E0],"parents":[2147483647,0,0,2,2,3,3],"right_children":[2,-1,4,6,-1,-1,-1],"split_conditions":[1.15779154E-1,-3.762291E-3,1.4562035E0,6.5194887E-1,9.763436E-3,2.392314E-3,5.8744084E-3],"split_indices":[25,0,25,25,0,0,0],"split_type":[0,0,0,0,0,0,0],"sum_hessian":[1.263E3,8.11E2,4.52E2,2.45E2,2.07E2,1.13E2,1.32E2],"tree_param":{"num_deleted":"0","num_feature":"27","num_nodes":"7","size_leaf_vector":"1"}},{"base_weights":[2.3310997E-4,6.343777E-3,-1.9360064E-1,-3.7230991E-3,4.7936112E-1,3.067367E-1,5.318537E-1,3.7788316E-3,-0E0,-0E0,5.460577E-3],"categories":[],"categories_nodes":[],"categories_segments":[],"categories_sizes":[],"default_left":[0,0,0,0,0,0,0,0,0,0,0],"id":10,"left_children":[1,-1,3,-1,5,7,9,-1,-1,-1,-1],"loss_changes":[1.586368E2,0E0,1.1873955E2,0E0,6.247597E-1,1.2786818E0,8.133621E-1,0E0,0E0,0E0,0E0],"parents":[2147483647,0,0,2,2,4,4,5,5,6,6],"right_children":[2,-1,4,-1,6,8,10,-1,-1,-1,-1],"split_conditions":[-8.050149E-1,6.343777E-3,1E0,-3.7230991E-3,2.7090967E-1,5.453914E-1,-2.4673559E-1,3.7788316E-3,-0E0,-0E0,5.460577E-3],"split_indices":[21,0,0,0,26,22,21,0,0,0,0],"split_type":[0,0,0,0,0,0,0,0,0,0,0],"sum_hessian":[1.282E3,3E2,9.82E2,7.78E2,2.04E2,5.6E1,1.48E2,4.5E1,1.1E1,5E0,1.43E2],"tree_param":{"num_deleted":"0","num_feature":"27","num_nodes":"11","size_leaf_vector":"1"}},{"base_weights":[-4.533526E-3,5.709618E-1,-3.6865445E-3,6.482244E-2,8.3238405E-1,-3.4264105E-3,2.3278205E-3,5.865063E-3,9.699434E-3],"categories":[],"categories_nodes":[],"categories_segments":[],"categories_sizes":[],"default_left":[0,0,0,0,0,0,0,0,0],"id":11,"left_children":[1,3,-1,5,7,-1,-1,-1,-1],"loss_changes":[2.72634E2,6.5589035E1,0E0,1.2100309E1,8.199799E0,0E0,0E0,0E0,0E0],"parents":[2147483647,0,0,1,1,3,3,4,4],"right_children":[2,4,-1,6,8,-1,-1,-1,-1],"split_conditions":[1E0,6.5194887E-1,-3.6865445E-3,1.15779154E-1,1.4562035E0,-3.4264105E-3,2.3278205E-3,5.865063E-3,9.699434E-3],"split_indices":[2,25,0,25,25,0,0,0,0],"split_type":[0,0,0,0,0,0,0,0,0],"sum_hessian":[1.297E3,5.01E2,7.96E2,1.73E2,3.28E2,4.8E1,1.25E2,1.25E2,2.03E2],"tree_param":{"num_deleted":"0","num_feature":"27","num_nodes":"9","size_leaf_vector":"1"}},{"base_weights":[-0E0,-3.6570025E-3,6.727187E-1,4.274902E-1,9.593868E-3,2.2959702E-3,5.8299284E-3],"categories":[],"categories_nodes":[],"categories_segments":[],"categories_sizes":[],"default_left":[0,0,0,0,0,0,0],"id":12,"left_children":[1,-1,3,5,-1,-1,-1],"loss_changes":[3.201675E2,0E0,2.9819977E1,6.6537094E0,0E0,0E0,0E0],"parents":[2147483647,0,0,2,2,3,3],"right_children":[2,-1,4,6,-1,-1,-1],"split_conditions":[1.15779154E-1,-3.6570025E-3,1.4562035E0,6.5194887E-1,9.593868E-3,2.2959702E-3,5.8299284E-3],"split_indices":[25,0,25,25,0,0,0],"split_type":[0,0,0,0,0,0,0],"sum_hessian":[1.296E3,8.4E2,4.56E2,2.51E2,2.05E2,1.16E2,1.35E2],"tree_param":{"num_deleted":"0","num_feature":"27","num_nodes":"7","size_leaf_vector":"1"}},{"base_weights":[-6.8391045E-3,5.5994314E-1,-2.938551E-1,7.241474E-2,8.0426466E-1,-3.6145444E-3,5.950757E-1,-3.2676272E-3,2.2613106E-3,5.6169336E-3,9.439864E-3,1.5952941E-3,7.3313243E-3],"categories":[],"categories_nodes":[],"categories_segments":[],"categories_sizes":[],"default_left":[0,0,0,0,0,0,0,0,0,0,0,0,0],"id":13,"left_children":[1,3,5,7,9,-1,11,-1,-1,-1,-1,-1,-1],"loss_changes":[2.0959007E2,5.049437E1,5.1832275E1,9.196071E0,6.8789673E0,0E0,2.452816E0,0E0,0E0,0E0,0E0,0E0,0E0],"parents":[2147483647,0,0,1,1,2,2,3,3,4,4,6,6],"right_children":[2,4,6,8,10,-1,12,-1,-1,-1,-1,-1,-1],"split_conditions":[1E0,6.5194887E-1,1.15779154E-1,1.15779154E-1,1.4562035E0,-3.6145444E-3,6.5194887E-1,-3.2676272E-3,2.2613106E-3,5.6169336E-3,9.439864E-3,1.5952941E-3,7.3313243E-3],"split_indices":[18,25,25,25,25,0,25,0,0,0,0,0,0],"split_type":[0,0,0,0,0,0,0,0,0,0,0,0,0],"sum_hessian":[1.285E3,4.3E2,8.55E2,1.46E2,2.84E2,7.97E2,5.8E1,3.8E1,1.08E2,1.11E2,1.73E2,1.7E1,4.1E1],"tree_param":{"num_deleted":"0","num_feature":"27","num_nodes":"13","size_leaf_vector":"1"}},{"base_weights":[-7.2328597E-3,5.5188274E-1,-3.0022398E-1,5.8629666E-3,4.1598895E-1,4.2569944E-1,-3.5771567E-3,-0E0,4.2358967E-3,4.610749E-1,1.7429527E-5,4.852334E-3,-0E0],"categories":[],"categories_nodes":[],"categories_segments":[],"categories_sizes":[],"default_left":[0,0,0,0,0,0,0,0,0,0,0,0,0],"id":14,"left_children":[1,3,5,-1,7,9,-1,-1,-1,11,-1,-1,-1],"loss_changes":[2.1254988E2,4.7143555E-1,3.593316E1,0E0,4.8743248E-1,4.725256E-1,0E0,0E0,0E0,5.624523E-1,0E0,0E0,0E0],"parents":[2147483647,0,0,1,1,2,2,4,4,5,5,9,9],"right_children":[2,4,6,-1,8,10,-1,-1,-1,12,-1,-1,-1],"split_conditions":[1E0,2.9685217E-1,1E0,5.8629666E-3,3.0419797E-1,1E0,-3.5771567E-3,-0E0,4.2358967E-3,1E0,1.7429527E-5,4.852334E-3,-0E0],"split_indices":[18,21,2,0,21,3,0,0,0,5,0,0,0],"split_type":[0,0,0,0,0,0,0,0,0,0,0,0,0],"sum_hessian":[1.294E3,4.43E2,8.51E2,3.41E2,1.02E2,6E1,7.91E2,1E0,1.01E2,5.3E1,7E0,5E1,3E0],"tree_param":{"num_deleted":"0","num_feature":"27","num_nodes":"13","size_leaf_vector":"1"}},{"base_weights":[-0E0,-1.945086E-1,5.9997857E-1,4.573805E-3,-2.9626334E-1,1.9562002E-1,7.974628E-3,-3.5412242E-3,3.9276153E-1,2.625122E-1,1.8290756E-2,4.1341386E-3,-0E0,-0E0,3.02689E-3,-1.8874452E-3,1.6532014E-1,-0E0,2.1055918E-3],"categories":[],"categories_nodes":[],"categories_segments":[],"categories_sizes":[],"default_left":[0,0,0,0,0,0,0,0,0,0,0,0,0,0,0,0,0,0,0],"id":15,"left_children":[1,3,5,-1,7,9,-1,-1,11,13,15,-1,-1,-1,-1,-1,17,-1,-1],"loss_changes":[1.5051639E2,6.495163E1,2.381099E1,0E0,3.4095818E1,9.9421406E-1,0E0,0E0,4.0689087E-1,9.587798E-1,1.165654E0,0E0,0E0,0E0,0E0,0E0,3.0060714E-1,0E0,0E0],"parents":[2147483647,0,0,1,1,2,2,4,4,5,5,8,8,9,9,10,10,16,16],"right_children":[2,4,6,-1,8,10,-1,-1,12,14,16,-1,-1,-1,-1,-1,18,-1,-1],"split_conditions":[1E0,1E0,-4.1863766E-1,4.573805E-3,1E0,3.7203974E-1,7.974628E-3,-3.5412242E-3,1E0,-1.1515734E0,-8.9106476E-1,4.1341386E-3,-0E0,-0E0,3.02689E-3,-1.8874452E-3,1E0,-0E0,2.1055918E-3],"split_indices":[1,18,26,0,0,24,0,0,3,26,26,0,0,0,0,0,16,0,0],"split_type":[0,0,0,0,0,0,0,0,0,0,0,0,0,0,0,0,0,0,0],"sum_hessian":[1.287E3,9.74E2,3.13E2,1.29E2,8.45E2,1.06E2,2.07E2,7.82E2,6.3E1,7.2E1,3.4E1,5.9E1,4E0,8E0,6.4E1,1.1E1,2.3E1,3E0,2E1],"tree_param":{"num_deleted":"0","num_feature":"27","num_nodes":"19","size_leaf_vector":"1"}},{"base_weights":[-4.841211E-3,-3.5218666E-3,6.386084E-1,3.9274746E-1,9.318851E-3,2.1715497E-3,5.452568E-3],"categories":[],"categories_nodes":[],"categories_segments":[],"categories_sizes":[],"default_left":[0,0,0,0,0,0,0],"id":16,"left_children":[1,-1,3,5,-1,-1,-1],"loss_changes":[2.9138373E2,0E0,3.0676437E1,5.756962E0,0E0,0E0,0E0],"parents":[2147483647,0,0,2,2,3,3],"right_children":[2,-1,4,6,-1,-1,-1],"split_conditions":[1.15779154E-1,-3.5218666E-3,1.4562035E0,6.5194887E-1,9.318851E-3,2.1715497E-3,5.452568E-3],"split_indices":[25,0,25,25,0,0,0],"split_type":[0,0,0,0,0,0,0],"sum_hessian":[1.3E3,8.46E2,4.54E2,2.52E2,2.02E2,1.23E2,1.29E2],"tree_param":{"num_deleted":"0","num_feature":"27","num_nodes":"7","size_leaf_vector":"1"}},{"base_weights":[-9.778428E-4,5.437422E-1,-3.471325E-3,1.0877925E-1,6.221634E-1,-4.4183512E-4,1.6868295E-1,7.5553536E-1,4.6821964E-1,2.3702495E-3,-0E0,5.837727E-3,8.840764E-3,-0E0,4.783564E-3],"categories":[],"categories_nodes":[],"categories_segments":[],"categories_sizes":[],"default_left":[0,0,0,0,0,0,0,0,0,0,0,0,0,0,0],"id":17,"left_children":[1,3,-1,5,7,-1,9,11,13,-1,-1,-1,-1,-1,-1],"loss_changes":[2.4662549E2,1.6410858E1,0E0,8.990823E-1,6.6691895E0,0E0,5.524061E-1,2.132309E0,6.276512E-1,0E0,0E0,0E0,0E0,0E0,0E0],"parents":[2147483647,0,0,1,1,3,3,4,4,6,6,7,7,8,8],"right_children":[2,4,-1,6,8,-1,10,12,14,-1,-1,-1,-1,-1,-1],"split_conditions":[1E0,-5.579943E-1,-3.471325E-3,-1.042187E0,1E0,-4.4183512E-4,1E0,2.953554E-4,-2.4673559E-1,2.3702495E-3,-0E0,5.837727E-3,8.840764E-3,-0E0,4.783564E-3],"split_indices":[2,26,0,26,0,0,17,26,21,0,0,0,0,0,0],"split_type":[0,0,0,0,0,0,0,0,0,0,0,0,0,0,0],"sum_hessian":[1.304E3,5.05E2,7.99E2,8E1,4.25E2,1.8E1,6.2E1,2.19E2,2.06E2,4E1,2.2E1,1.03E2,1.16E2,6E0,2E2],"tree_param":{"num_deleted":"0","num_feature":"27","num_nodes":"15","size_leaf_vector":"1"}},{"base_weights":[-2.4680032E-3,-3.4554792E-3,6.453067E-1,4.0363005E-1,9.155672E-3,2.0996607E-3,5.4597813E-3],"categories":[],"categories_nodes":[],"categories_segments":[],"categories_sizes":[],"default_left":[0,0,0,0,0,0,0],"id":18,"left_children":[1,-1,3,5,-1,-1,-1],"loss_changes":[2.8372287E2,0E0,2.659378E1,5.559925E0,0E0,0E0,0E0],"parents":[2147483647,0,0,2,2,3,3],"right_children":[2,-1,4,6,-1,-1,-1],"split_conditions":[1.15779154E-1,-3.4554792E-3,1.4562035E0,6.5194887E-1,9.155672E-3,2.0996607E-3,5.4597813E-3],"split_indices":[25,0,25,25,0,0,0],"split_type":[0,0,0,0,0,0,0],"sum_hessian":[1.273E3,8.34E2,4.39E2,2.37E2,2.02E2,1.06E2,1.31E2],"tree_param":{"num_deleted":"0","num_feature":"27","num_nodes":"7","size_leaf_vector":"1"}},{"base_weights":[-2.6494556E-3,5.4992396E-1,-1.8921718E-1,1.862162E-2,7.8746337E-1,-3.4121817E-3,5.563203E-1,-3.1580245E-3,2.005436E-3,5.332953E-3,9.067554E-3,1.9072467E-3,6.9230455E-1,5.0991303E-3,8.311342E-3],"categories":[],"categories_nodes":[],"categories_segments":[],"categories_sizes":[],"default_left":[0,0,0,0,0,0,0,0,0,0,0,0,0,0,0],"id":19,"left_children":[1,3,5,7,9,-1,11,-1,-1,-1,-1,-1,13,-1,-1],"loss_changes":[1.319092E2,3.9858444E1,1.0910565E2,6.3399177E0,4.0669556E0,0E0,6.8656006E0,0E0,0E0,0E0,0E0,0E0,5.2405167E-1,0E0,0E0],"parents":[2147483647,0,0,1,1,2,2,3,3,4,4,6,6,12,12],"right_children":[2,4,6,8,10,-1,12,-1,-1,-1,-1,-1,14,-1,-1],"split_conditions":[-3.2455125E-1,6.5194887E-1,1.15779154E-1,1.15779154E-1,1.4562035E0,-3.4121817E-3,6.5194887E-1,-3.1580245E-3,2.005436E-3,5.332953E-3,9.067554E-3,1.9072467E-3,1.4562035E0,5.0991303E-3,8.311342E-3],"split_indices":[22,25,25,25,25,0,25,0,0,0,0,0,25,0,0],"split_type":[0,0,0,0,0,0,0,0,0,0,0,0,0,0,0],"sum_hessian":[1.278E3,3.2E2,9.58E2,1.01E2,2.19E2,7.98E2,1.6E2,3.3E1,6.8E1,7.7E1,1.42E2,4.7E1,1.13E2,5.7E1,5.6E1],"tree_param":{"num_deleted":"0","num_feature":"27","num_nodes":"15","size_leaf_vector":"1"}},{"base_weights":[8.013237E-3,-3.3878624E-3,6.223098E-1,3.7973952E-3,8.981996E-3],"categories":[],"categories_nodes":[],"categories_segments":[],"categories_sizes":[],"default_left":[0,0,0,0,0],"id":20,"left_children":[1,-1,3,-1,-1],"loss_changes":[2.7509668E2,0E0,2.9088776E1,0E0,0E0],"parents":[2147483647,0,0,2,2],"right_children":[2,-1,4,-1,-1],"split_conditions":[1.15779154E-1,-3.3878624E-3,1.4562035E0,3.7973952E-3,8.981996E-3],"split_indices":[25,0,25,0,0],"split_type":[0,0,0,0,0],"sum_hessian":[1.285E3,8.21E2,4.64E2,2.52E2,2.12E2],"tree_param":{"num_deleted":"0","num_feature":"27","num_nodes":"5","size_leaf_vector":"1"}},{"base_weights":[1.219913E-2,-3.3540253E-3,6.1912525E-1,3.900919E-1,8.873792E-3,2.0349363E-3,5.3577838E-3],"categories":[],"categories_nodes":[],"categories_segments":[],"categories_sizes":[],"default_left":[0,0,0,0,0,0,0],"id":21,"left_children":[1,-1,3,5,-1,-1,-1],"loss_changes":[2.6820547E2,0E0,2.6334152E1,5.961071E0,0E0,0E0,0E0],"parents":[2147483647,0,0,2,2,3,3],"right_children":[2,-1,4,6,-1,-1,-1],"split_conditions":[1.15779154E-1,-3.3540253E-3,1.4562035E0,6.5194887E-1,8.873792E-3,2.0349363E-3,5.3577838E-3],"split_indices":[25,0,25,25,0,0,0],"split_type":[0,0,0,0,0,0,0],"sum_hessian":[1.265E3,8.04E2,4.61E2,2.54E2,2.07E2,1.17E2,1.37E2],"tree_param":{"num_deleted":"0","num_feature":"27","num_nodes":"7","size_leaf_vector":"1"}},{"base_weights":[-8.017235E-4,-3.3199065E-3,6.1631745E-1,3.8519453E-3,8.774191E-3],"categories":[],"categories_nodes":[],"categories_segments":[],"categories_sizes":[],"default_left":[0,0,0,0,0],"id":22,"left_children":[1,-1,3,-1,-1],"loss_changes":[2.5519502E2,0E0,2.41734E1,0E0,0E0],"parents":[2147483647,0,0,2,2],"right_children":[2,-1,4,-1,-1],"split_conditions":[1.15779154E-1,-3.3199065E-3,1.4562035E0,3.8519453E-3,8.774191E-3],"split_indices":[25,0,25,0,0],"split_type":[0,0,0,0,0],"sum_hessian":[1.245E3,8.12E2,4.33E2,2.35E2,1.98E2],"tree_param":{"num_deleted":"0","num_feature":"27","num_nodes":"5","size_leaf_vector":"1"}},{"base_weights":[-4.346108E-3,-3.2901955E-3,5.973582E-1,2.4839428E-3,6.5053594E-1,4.1112504E-3,8.593938E-3],"categories":[],"categories_nodes":[],"categories_segments":[],"categories_sizes":[],"default_left":[0,0,0,0,0,0,0],"id":23,"left_children":[1,-1,3,-1,5,-1,-1],"loss_changes":[2.5311322E2,0E0,7.1127167E0,0E0,1.7322296E1,0E0,0E0],"parents":[2147483647,0,0,2,2,4,4],"right_children":[2,-1,4,-1,6,-1,-1],"split_conditions":[1.15779154E-1,-3.2901955E-3,-5.973427E-1,2.4839428E-3,1.4562035E0,4.1112504E-3,8.593938E-3],"split_indices":[25,0,26,0,25,0,0],"split_type":[0,0,0,0,0,0,0],"sum_hessian":[1.292E3,8.41E2,4.51E2,6.4E1,3.87E2,1.86E2,2.01E2],"tree_param":{"num_deleted":"0","num_feature":"27","num_nodes":"7","size_leaf_vector":"1"}},{"base_weights":[-6.77946E-3,4.9847895E-1,-3.235167E-3,2.581983E-2,7.405432E-1,-3.2340365E-3,1.9442857E-3,5.2353973E-3,8.554043E-3],"categories":[],"categories_nodes":[],"categories_segments":[],"categories_sizes":[],"default_left":[0,0,0,0,0,0,0,0,0],"id":24,"left_children":[1,3,-1,5,7,-1,-1,-1,-1],"loss_changes":[2.0819257E2,5.6449966E1,0E0,1.0244271E1,5.71434E0,0E0,0E0,0E0,0E0],"parents":[2147483647,0,0,1,1,3,3,4,4],"right_children":[2,4,-1,6,8,-1,-1,-1,-1],"split_conditions":[1E0,6.5194887E-1,-3.235167E-3,1.15779154E-1,1.4562035E0,-3.2340365E-3,1.9442857E-3,5.2353973E-3,8.554043E-3],"split_indices":[2,25,0,25,25,0,0,0,0],"split_type":[0,0,0,0,0,0,0,0,0],"sum_hessian":[1.297E3,4.98E2,7.99E2,1.71E2,3.27E2,5.3E1,1.18E2,1.21E2,2.06E2],"tree_param":{"num_deleted":"0","num_feature":"27","num_nodes":"9","size_leaf_vector":"1"}},{"base_weights":[8.2503655E-4,-1.7220996E-1,5.515166E-1,-3.2119337E-3,5.221817E-1,3.479314E-2,7.4577737E-1,2.249539E-5,5.318133E-3,-6.71547E-4,8.2301936E-4,5.7512294E-3,8.292131E-3],"categories":[],"categories_nodes":[],"categories_segments":[],"categories_sizes":[],"default_left":[0,0,0,0,0,0,0,0,0,0,0,0,0],"id":25,"left_children":[1,3,5,-1,7,9,11,-1,-1,-1,-1,-1,-1],"loss_changes":[1.2158603E2,1.0020548E2,2.9820374E1,0E0,3.1677628E-1,4.5276383E-1,5.4304504E-1,0E0,0E0,0E0,0E0,0E0,0E0],"parents":[2147483647,0,0,1,1,2,2,4,4,5,5,6,6],"right_children":[2,4,6,-1,8,10,12,-1,-1,-1,-1,-1,-1],"split_conditions":[1E0,1.15779154E-1,6.5194887E-1,-3.2119337E-3,-2.6142716E-1,-9.7959554E-1,-1.3631345E-1,2.249539E-5,5.318133E-3,-6.71547E-4,8.2301936E-4,5.7512294E-3,8.292131E-3],"split_indices":[1,25,25,0,21,26,26,0,0,0,0,0,0],"split_type":[0,0,0,0,0,0,0,0,0,0,0,0,0],"sum_hessian":[1.267E3,9.64E2,3.03E2,7.96E2,1.68E2,8.5E1,2.18E2,5E0,1.63E2,2E1,6.5E1,8.2E1,1.36E2],"tree_param":{"num_deleted":"0","num_feature":"27","num_nodes":"13","size_leaf_vector":"1"}},{"base_weights":[2.8454713E-3,-3.192414E-3,5.819489E-1,3.6211884E-1,8.463263E-3,1.9042551E-3,5.1018363E-3],"categories":[],"categories_nodes":[],"categories_segments":[],"categories_sizes":[],"default_left":[0,0,0,0,0,0,0],"id":26,"left_children":[1,-1,3,5,-1,-1,-1],"loss_changes":[2.3583763E2,0E0,2.4323822E1,5.5009193E0,0E0,0E0,0E0],"parents":[2147483647,0,0,2,2,3,3],"right_children":[2,-1,4,6,-1,-1,-1],"split_conditions":[1.15779154E-1,-3.192414E-3,1.4562035E0,6.5194887E-1,8.463263E-3,1.9042551E-3,5.1018363E-3],"split_indices":[25,0,25,25,0,0,0],"split_type":[0,0,0,0,0,0,0],"sum_hessian":[1.258E3,8.08E2,4.5E2,2.51E2,1.99E2,1.22E2,1.29E2],"tree_param":{"num_deleted":"0","num_feature":"27","num_nodes":"7","size_leaf_vector":"1"}},{"base_weights":[-0E0,4.7516394E-3,-3.1383203E-3],"categories":[],"categories_nodes":[],"categories_segments":[],"categories_sizes":[],"default_left":[0,0,0],"id":27,"left_children":[1,-1,-1],"loss_changes":[1.9209207E2,0E0,0E0],"parents":[2147483647,0,0],"right_children":[2,-1,-1],"split_conditions":[1E0,4.7516394E-3,-3.1383203E-3],"split_indices":[2,0,0],"split_type":[0,0,0],"sum_hessian":[1.283E3,5.1E2,7.73E2],"tree_param":{"num_deleted":"0","num_feature":"27","num_nodes":"3","size_leaf_vector":"1"}},{"base_weights":[-9.0606743E-4,-3.1329985E-3,5.8526127E-3],"categories":[],"categories_nodes":[],"categories_segments":[],"categories_sizes":[],"default_left":[0,0,0],"id":28,"left_children":[1,-1,-1],"loss_changes":[2.375951E2,0E0,0E0],"parents":[2147483647,0,0],"right_children":[2,-1,-1],"split_conditions":[1.15779154E-1,-3.1329985E-3,5.8526127E-3],"split_indices":[25,0,0],"split_type":[0,0,0],"sum_hessian":[1.294E3,8.46E2,4.48E2],"tree_param":{"num_deleted":"0","num_feature":"27","num_nodes":"3","size_leaf_vector":"1"}},{"base_weights":[8.681774E-3,-3.102072E-3,5.737051E-1,3.4572306E-1,8.23935E-3,1.78301E-3,4.958969E-3],"categories":[],"categories_nodes":[],"categories_segments":[],"categories_sizes":[],"default_left":[0,0,0,0,0,0,0],"id":29,"left_children":[1,-1,3,5,-1,-1,-1],"loss_changes":[2.3268982E2,0E0,2.4731049E1,5.402931E0,0E0,0E0,0E0],"parents":[2147483647,0,0,2,2,3,3],"right_children":[2,-1,4,6,-1,-1,-1],"split_conditions":[1.15779154E-1,-3.102072E-3,1.4562035E0,6.5194887E-1,8.23935E-3,1.78301E-3,4.958969E-3],"split_indices":[25,0,25,25,0,0,0],"split_type":[0,0,0,0,0,0,0],"sum_hessian":[1.285E3,8.21E2,4.64E2,2.48E2,2.16E2,1.23E2,1.25E2],"tree_param":{"num_deleted":"0","num_feature":"27","num_nodes":"7","size_leaf_vector":"1"}},{"base_weights":[-1.3568378E-3,4.7448525E-1,-3.0450055E-3,1.2962742E-2,6.962424E-1,-3.1302157E-3,1.751456E-3,4.8999325E-3,8.113145E-3],"categories":[],"categories_nodes":[],"categories_segments":[],"categories_sizes":[],"default_left":[0,0,0,0,0,0,0,0,0],"id":30,"left_children":[1,3,-1,5,7,-1,-1,-1,-1],"loss_changes":[1.8360324E2,4.9878296E1,0E0,8.696146E0,5.596237E0,0E0,0E0,0E0,0E0],"parents":[2147483647,0,0,1,1,3,3,4,4],"right_children":[2,4,-1,6,8,-1,-1,-1,-1],"split_conditions":[1E0,6.5194887E-1,-3.0450055E-3,1.15779154E-1,1.4562035E0,-3.1302157E-3,1.751456E-3,4.8999325E-3,8.113145E-3],"split_indices":[2,25,0,25,25,0,0,0,0],"split_type":[0,0,0,0,0,0,0,0,0],"sum_hessian":[1.269E3,4.92E2,7.77E2,1.62E2,3.3E2,5.1E1,1.11E2,1.26E2,2.04E2],"tree_param":{"num_deleted":"0","num_feature":"27","num_nodes":"9","size_leaf_vector":"1"}},{"base_weights":[-4.5354515E-3,4.786553E-3,-2.4545087E-1,-2.4910648E-3,-0E0],"categories":[],"categories_nodes":[],"categories_segments":[],"categories_sizes":[],"default_left":[0,0,0,0,0],"id":31,"left_children":[1,-1,3,-1,-1],"loss_changes":[1.4877187E2,0E0,8.02021E-1,0E0,0E0],"parents":[2147483647,0,0,2,2],"right_children":[2,-1,4,-1,-1],"split_conditions":[1E0,4.786553E-3,1.3693361E0,-2.4910648E-3,-0E0],"split_indices":[18,0,21,0,0],"split_type":[0,0,0,0,0],"sum_hessian":[1.275E3,4.22E2,8.53E2,8.41E2,1.2E1],"tree_param":{"num_deleted":"0","num_feature":"27","num_nodes":"5","size_leaf_vector":"1"}},{"base_weights":[-6.8768654E-3,-3.0210842E-3,5.4804897E-3],"categories":[],"categories_nodes":[],"categories_segments":[],"categories_sizes":[],"default_left":[0,0,0],"id":32,"left_children":[1,-1,-1],"loss_changes":[2.1519699E2,0E0,0E0],"parents":[2147483647,0,0],"right_children":[2,-1,-1],"split_conditions":[1.15779154E-1,-3.0210842E-3,5.4804897E-3],"split_indices":[25,0,0],"split_type":[0,0,0],"sum_hessian":[1.31E3,8.57E2,4.53E2],"tree_param":{"num_deleted":"0","num_feature":"27","num_nodes":"3","size_leaf_vector":"1"}},{"base_weights":[-5.183269E-3,4.6822158E-1,-2.4650338E-1,1.1371413E-1,5.776249E-1,-2.9602642E-3,3.5602796E-1,-0E0,1.8761134E-3,6.7516523E-3,3.9395133E-1,1.404185E-1,4.665422E-1,7.0524786E-4,-1.7865537E-3,-0E0,4.0227878E-1,-0E0,2.4902883E-3,4.9628234E-3,-0E0,-0E0,4.1450374E-3],"categories":[],"categories_nodes":[],"categories_segments":[],"categories_sizes":[],"default_left":[0,0,0,0,0,0,0,0,0,0,0,0,0,0,0,0,0,0,0,0,0,0,0],"id":33,"left_children":[1,3,5,7,9,-1,11,13,-1,-1,15,17,19,-1,-1,-1,21,-1,-1,-1,-1,-1,-1],"loss_changes":[1.4692506E2,1.5957451E1,2.5701069E1,9.8579395E-1,4.1511993E0,0E0,7.661629E-1,6.145065E-1,0E0,0E0,4.9521446E-1,4.613089E-1,6.0983753E-1,0E0,0E0,0E0,5.2594566E-1,0E0,0E0,0E0,0E0,0E0,0E0],"parents":[2147483647,0,0,1,1,2,2,3,3,4,4,6,6,7,7,10,10,11,11,12,12,16,16],"right_children":[2,4,6,8,10,-1,12,14,-1,-1,16,18,20,-1,-1,-1,22,-1,-1,-1,-1,-1,-1],"split_conditions":[1E0,-4.6198997E-1,1E0,-8.9106476E-1,-1.9726749E-1,-2.9602642E-3,-8.063219E-2,3.7203974E-1,1.8761134E-3,6.7516523E-3,-2.4673559E-1,5.980292E-1,2.1827276E0,7.0524786E-4,-1.7865537E-3,-0E0,-1.870011E-1,-0E0,2.4902883E-3,4.9628234E-3,-0E0,-0E0,4.1450374E-3],"split_indices":[18,26,0,26,22,0,24,24,0,0,21,21,24,0,0,0,26,0,0,0,0,0,0],"split_type":[0,0,0,0,0,0,0,0,0,0,0,0,0,0,0,0,0,0,0,0,0,0,0],"sum_hessian":[1.283E3,4.31E2,8.52E2,1.05E2,3.26E2,7.9E2,6.2E1,4E1,6.5E1,2.05E2,1.21E2,2.6E1,3.6E1,2.8E1,1.2E1,2E0,1.19E2,1.2E1,1.4E1,3.4E1,2E0,4E0,1.15E2],"tree_param":{"num_deleted":"0","num_feature":"27","num_nodes":"23","size_leaf_vector":"1"}},{"base_weights":[6.0406467E-4,-2.9602787E-3,5.407304E-1,3.3576357E-1,7.953042E-3,1.6295521E-3,4.733409E-3],"categories":[],"categories_nodes":[],"categories_segments":[],"categories_sizes":[],"default_left":[0,0,0,0,0,0,0],"id":34,"left_children":[1,-1,3,5,-1,-1,-1],"loss_changes":[2.069265E2,0E0,2.2125504E1,5.36413E0,0E0,0E0,0E0],"parents":[2147483647,0,0,2,2,3,3],"right_children":[2,-1,4,6,-1,-1,-1],"split_conditions":[1.15779154E-1,-2.9602787E-3,1.4562035E0,6.5194887E-1,7.953042E-3,1.6295521E-3,4.733409E-3],"split_indices":[25,0,25,25,0,0,0],"split_type":[0,0,0,0,0,0,0],"sum_hessian":[1.285E3,8.29E2,4.56E2,2.58E2,1.98E2,1.2E2,1.38E2],"tree_param":{"num_deleted":"0","num_feature":"27","num_nodes":"7","size_leaf_vector":"1"}},{"base_weights":[5.5653914E-3,4.5163393E-1,-2.900329E-3,8.403888E-3,6.778157E-1,-3.1057715E-3,1.6091359E-3,4.5730383E-3,7.943294E-3],"categories":[],"categories_nodes":[],"categories_segments":[],"categories_sizes":[],"default_left":[0,0,0,0,0,0,0,0,0],"id":35,"left_children":[1,3,-1,5,7,-1,-1,-1,-1],"loss_changes":[1.6761794E2,5.017668E1,0E0,8.512947E0,6.434433E0,0E0,0E0,0E0,0E0],"parents":[2147483647,0,0,1,1,3,3,4,4],"right_children":[2,4,-1,6,8,-1,-1,-1,-1],"split_conditions":[1E0,6.5194887E-1,-2.900329E-3,1.15779154E-1,1.4562035E0,-3.1057715E-3,1.6091359E-3,4.5730383E-3,7.943294E-3],"split_indices":[2,25,0,25,25,0,0,0,0],"split_type":[0,0,0,0,0,0,0,0,0],"sum_hessian":[1.265E3,5.05E2,7.6E2,1.73E2,3.32E2,5.3E1,1.2E2,1.22E2,2.1E2],"tree_param":{"num_deleted":"0","num_feature":"27","num_nodes":"9","size_leaf_vector":"1"}},{"base_weights":[-3.902448E-4,4.50971E-1,-2.8722237E-3,1.7896542E-2,6.5955365E-1,-3.0398609E-3,1.5922248E-3,4.5412243E-3,7.7754543E-3],"categories":[],"categories_nodes":[],"categories_segments":[],"categories_sizes":[],"default_left":[0,0,0,0,0,0,0,0,0],"id":36,"left_children":[1,3,-1,5,7,-1,-1,-1,-1],"loss_changes":[1.6671667E2,4.441378E1,0E0,7.5503864E0,6.0178375E0,0E0,0E0,0E0,0E0],"parents":[2147483647,0,0,1,1,3,3,4,4],"right_children":[2,4,-1,6,8,-1,-1,-1,-1],"split_conditions":[1E0,6.5194887E-1,-2.8722237E-3,1.15779154E-1,1.4562035E0,-3.0398609E-3,1.5922248E-3,4.5412243E-3,7.7754543E-3],"split_indices":[2,25,0,25,25,0,0,0,0],"split_type":[0,0,0,0,0,0,0,0,0],"sum_hessian":[1.284E3,4.97E2,7.87E2,1.64E2,3.33E2,4.7E1,1.17E2,1.29E2,2.04E2],"tree_param":{"num_deleted":"0","num_feature":"27","num_nodes":"9","size_leaf_vector":"1"}},{"base_weights":[-3.956053E-3,-1.5655257E-1,4.784837E-1,-2.8574173E-3,4.5607765E-3,3.040312E-4,6.627033E-3],"categories":[],"categories_nodes":[],"categories_segments":[],"categories_sizes":[],"default_left":[0,0,0,0,0,0,0],"id":37,"left_children":[1,3,5,-1,-1,-1,-1],"loss_changes":[9.406036E1,7.7361595E1,2.455664E1,0E0,0E0,0E0,0E0],"parents":[2147483647,0,0,1,1,2,2],"right_children":[2,4,6,-1,-1,-1,-1],"split_conditions":[1E0,1.15779154E-1,6.5194887E-1,-2.8574173E-3,4.5607765E-3,3.040312E-4,6.627033E-3],"split_indices":[1,25,25,0,0,0,0],"split_type":[0,0,0,0,0,0,0],"sum_hessian":[1.277E3,9.73E2,3.04E2,8.06E2,1.67E2,9.1E1,2.13E2],"tree_param":{"num_deleted":"0","num_feature":"27","num_nodes":"7","size_leaf_vector":"1"}},{"base_weights":[1.985262E-3,-2.8464654E-3,5.256277E-1,3.1335314E-3,7.609763E-3],"categories":[],"categories_nodes":[],"categories_segments":[],"categories_sizes":[],"default_left":[0,0,0,0,0],"id":38,"left_children":[1,-1,3,-1,-1],"loss_changes":[1.9340894E2,0E0,2.1135597E1,0E0,0E0],"parents":[2147483647,0,0,2,2],"right_children":[2,-1,4,-1,-1],"split_conditions":[1.15779154E-1,-2.8464654E-3,1.4562035E0,3.1335314E-3,7.609763E-3],"split_indices":[25,0,25,0,0],"split_type":[0,0,0,0,0],"sum_hessian":[1.282E3,8.28E2,4.54E2,2.44E2,2.1E2],"tree_param":{"num_deleted":"0","num_feature":"27","num_nodes":"5","size_leaf_vector":"1"}},{"base_weights":[7.28397E-3,-2.8188792E-3,5.229866E-1,3.1800347E-3,7.6345024E-3],"categories":[],"categories_nodes":[],"categories_segments":[],"categories_sizes":[],"default_left":[0,0,0,0,0],"id":39,"left_children":[1,-1,3,-1,-1],"loss_changes":[1.8962775E2,0E0,2.0862236E1,0E0,0E0],"parents":[2147483647,0,0,2,2],"right_children":[2,-1,4,-1,-1],"split_conditions":[1.15779154E-1,-2.8188792E-3,1.4562035E0,3.1800347E-3,7.6345024E-3],"split_indices":[25,0,25,0,0],"split_type":[0,0,0,0,0],"sum_hessian":[1.265E3,8.1E2,4.55E2,2.51E2,2.04E2],"tree_param":{"num_deleted":"0","num_feature":"27","num_nodes":"5","size_leaf_vector":"1"}},{"base_weights":[-1.8117344E-3,-1.4578874E-1,4.6126446E-1,-2.7722195E-3,4.5374265E-1,1.1013987E-4,6.474894E-3,-0E0,4.621615E-3],"categories":[],"categories_nodes":[],"categories_segments":[],"categories_sizes":[],"default_left":[0,0,0,0,0,0,0,0,0],"id":40,"left_children":[1,3,5,-1,7,-1,-1,-1,-1],"loss_changes":[8.602663E1,7.81089E1,2.4939194E1,0E0,3.007126E-1,0E0,0E0,0E0,0E0],"parents":[2147483647,0,0,1,1,2,2,4,4],"right_children":[2,4,6,-1,8,-1,-1,-1,-1],"split_conditions":[1E0,1.15779154E-1,6.5194887E-1,-2.7722195E-3,-1.9109958E-1,1.1013987E-4,6.474894E-3,-0E0,4.621615E-3],"split_indices":[1,25,25,0,26,0,0,0,0],"split_type":[0,0,0,0,0,0,0,0,0],"sum_hessian":[1.29E3,9.87E2,3.03E2,8.12E2,1.75E2,9.1E1,2.12E2,5E0,1.7E2],"tree_param":{"num_deleted":"0","num_feature":"27","num_nodes":"9","size_leaf_vector":"1"}},{"base_weights":[6.8749497E-3,4.4459486E-1,-2.2663917E-1,7.941185E-2,5.254641E-1,3.2403845E-1,-2.7305891E-3,1.2178119E-1,-3.049579E-4,3.5031822E-3,6.0796845E-3,3.47902E-1,-0E0,1.735197E-1,-0E0,3.780455E-1,-0E0,-0E0,1.961468E-3,4.020955E-3,-0E0],"categories":[],"categories_nodes":[],"categories_segments":[],"categories_sizes":[],"default_left":[0,0,0,0,0,0,0,0,0,0,0,0,0,0,0,0,0,0,0,0,0],"id":41,"left_children":[1,3,5,7,9,11,-1,13,-1,-1,-1,15,-1,17,-1,19,-1,-1,-1,-1,-1],"loss_changes":[1.3155902E2,1.2535934E1,2.1553112E1,5.0337577E-1,3.77639E0,4.2907143E-1,0E0,3.693416E-1,0E0,0E0,0E0,4.445033E-1,0E0,3.120016E-1,0E0,3.5706663E-1,0E0,0E0,0E0,0E0,0E0],"parents":[2147483647,0,0,1,1,2,2,3,3,4,4,5,5,7,7,11,11,13,13,15,15],"right_children":[2,4,6,8,10,12,-1,14,-1,-1,-1,16,-1,18,-1,20,-1,-1,-1,-1,-1],"split_conditions":[1E0,-5.579943E-1,1E0,1E0,1E0,1E0,-2.7305891E-3,1E0,-3.049579E-4,3.5031822E-3,6.0796845E-3,1E0,-0E0,-1.2978357E0,-0E0,1E0,-0E0,-0E0,1.961468E-3,4.020955E-3,-0E0],"split_indices":[18,26,2,14,1,5,0,17,0,0,0,3,0,26,0,11,0,0,0,0,0],"split_type":[0,0,0,0,0,0,0,0,0,0,0,0,0,0,0,0,0,0,0,0,0],"sum_hessian":[1.28E3,4.46E2,8.34E2,8.4E1,3.62E2,6.2E1,7.72E2,6.7E1,1.7E1,1.24E2,2.38E2,5.7E1,5E0,4.4E1,2.3E1,5.1E1,6E0,2E0,4.2E1,4.7E1,4E0],"tree_param":{"num_deleted":"0","num_feature":"27","num_nodes":"21","size_leaf_vector":"1"}},{"base_weights":[-4.8622684E-4,4.2427704E-1,-2.2244139E-1,1.1946771E-1,5.2301806E-1,-2.703608E-3,3.44717E-1,-2.6329663E-3,2.4063627E-1,-0E0,6.398333E-1,-0E0,5.6595793E-3,1.4412792E-3,3.827239E-3,-2.4546485E-3,1.1453282E-3,4.345402E-3,7.3502087E-3,-1.6308682E-3,8.287379E-4],"categories":[],"categories_nodes":[],"categories_segments":[],"categories_sizes":[],"default_left":[0,0,0,0,0,0,0,0,0,0,0,0,0,0,0,0,0,0,0,0,0],"id":42,"left_children":[1,3,5,7,9,-1,11,-1,13,15,17,19,-1,-1,-1,-1,-1,-1,-1,-1,-1],"loss_changes":[1.21229E2,1.2459106E1,2.3191902E1,5.3997536E0,1.9786285E1,0E0,5.1891375E0,0E0,5.625267E-1,1.7849095E0,3.278801E0,4.329283E-1,0E0,0E0,0E0,0E0,0E0,0E0,0E0,0E0,0E0],"parents":[2147483647,0,0,1,1,2,2,3,3,4,4,6,6,8,8,9,9,10,10,11,11],"right_children":[2,4,6,8,10,-1,12,-1,14,16,18,20,-1,-1,-1,-1,-1,-1,-1,-1,-1],"split_conditions":[1E0,-4.6198997E-1,1E0,1.15779154E-1,6.5194887E-1,-2.703608E-3,6.5194887E-1,-2.6329663E-3,6.5194887E-1,1.15779154E-1,1.4562035E0,1.15779154E-1,5.6595793E-3,1.4412792E-3,3.827239E-3,-2.4546485E-3,1.1453282E-3,4.345402E-3,7.3502087E-3,-1.6308682E-3,8.287379E-4],"split_indices":[18,26,0,25,25,0,25,0,25,25,25,25,0,0,0,0,0,0,0,0,0],"split_type":[0,0,0,0,0,0,0,0,0,0,0,0,0,0,0,0,0,0,0,0,0],"sum_hessian":[1.283E3,4.38E2,8.45E2,1.11E2,3.27E2,7.82E2,6.3E1,2.4E1,8.7E1,6.1E1,2.66E2,2.5E1,3.8E1,5.9E1,2.8E1,1.7E1,4.4E1,9.2E1,1.74E2,9E0,1.6E1],"tree_param":{"num_deleted":"0","num_feature":"27","num_nodes":"21","size_leaf_vector":"1"}},{"base_weights":[6.740824E-5,-2.2277753E-1,6.202061E-3,-0E0,-2.6766085E-3,-2.9385572E-3,1.411561E-3],"categories":[],"categories_nodes":[],"categories_segments":[],"categories_sizes":[],"default_left":[0,0,0,0,0,0,0],"id":43,"left_children":[1,3,-1,5,-1,-1,-1],"loss_changes":[1.7673389E2,9.460522E0,0E0,6.6288786E0,0E0,0E0,0E0],"parents":[2147483647,0,0,1,1,3,3],"right_children":[2,4,-1,6,-1,-1,-1],"split_conditions":[6.5194887E-1,1E0,6.202061E-3,1.15779154E-1,-2.6766085E-3,-2.9385572E-3,1.411561E-3],"split_indices":[25,2,0,25,0,0,0],"split_type":[0,0,0,0,0,0,0],"sum_hessian":[1.271E3,9.35E2,3.36E2,1.56E2,7.79E2,4.9E1,1.07E2],"tree_param":{"num_deleted":"0","num_feature":"27","num_nodes":"7","size_leaf_vector":"1"}},{"base_weights":[8.934698E-3,4.2399728E-1,-2.649268E-3,-0E0,6.171359E-3],"categories":[],"categories_nodes":[],"categories_segments":[],"categories_sizes":[],"default_left":[0,0,0,0,0],"id":44,"left_children":[1,3,-1,-1,-1],"loss_changes":[1.4315216E2,4.06678E1,0E0,0E0,0E0],"parents":[2147483647,0,0,1,1],"right_children":[2,4,-1,-1,-1],"split_conditions":[1E0,6.5194887E-1,-2.649268E-3,-0E0,6.171359E-3],"split_indices":[2,25,0,0,0],"split_type":[0,0,0,0,0],"sum_hessian":[1.253E3,4.99E2,7.54E2,1.58E2,3.41E2],"tree_param":{"num_deleted":"0","num_feature":"27","num_nodes":"5","size_leaf_vector":"1"}},{"base_weights":[-3.1150656E-3,4.0119785E-1,-2.201369E-1,-0E0,5.9903574E-1,-2.6308345E-3,4.4274104E-1,-2.9116694E-3,1.4046119E-3,4.035979E-3,7.091745E-3,7.3480426E-4,5.5502127E-3],"categories":[],"categories_nodes":[],"categories_segments":[],"categories_sizes":[],"default_left":[0,0,0,0,0,0,0,0,0,0,0,0,0],"id":45,"left_children":[1,3,5,7,9,-1,11,-1,-1,-1,-1,-1,-1],"loss_changes":[1.1037874E2,3.438098E1,2.3498272E1,6.0689516E0,4.4678116E0,0E0,1.3218422E0,0E0,0E0,0E0,0E0,0E0,0E0],"parents":[2147483647,0,0,1,1,2,2,3,3,4,4,6,6],"right_children":[2,4,6,8,10,-1,12,-1,-1,-1,-1,-1,-1],"split_conditions":[1E0,6.5194887E-1,1.15779154E-1,1.15779154E-1,1.4562035E0,-2.6308345E-3,6.5194887E-1,-2.9116694E-3,1.4046119E-3,4.035979E-3,7.091745E-3,7.3480426E-4,5.5502127E-3],"split_indices":[18,25,25,25,25,0,25,0,0,0,0,0,0],"split_type":[0,0,0,0,0,0,0,0,0,0,0,0,0],"sum_hessian":[1.255E3,4.36E2,8.19E2,1.46E2,2.9E2,7.72E2,4.7E1,4.5E1,1.01E2,1.12E2,1.78E2,1.4E1,3.3E1],"tree_param":{"num_deleted":"0","num_feature":"27","num_nodes":"13","size_leaf_vector":"1"}},{"base_weights":[-1.8347506E-3,-2.1397929E-1,6.0582435E-1,-2.6303604E-3,1.4035195E-3,4.1204584E-3,7.158292E-3],"categories":[],"categories_nodes":[],"categories_segments":[],"categories_sizes":[],"default_left":[0,0,0,0,0,0,0],"id":46,"left_children":[1,3,5,-1,-1,-1,-1],"loss_changes":[1.6435895E2,1.670213E1,5.1585464E0,0E0,0E0,0E0,0E0],"parents":[2147483647,0,0,1,1,2,2],"right_children":[2,4,6,-1,-1,-1,-1],"split_conditions":[6.5194887E-1,1.15779154E-1,1.4562035E0,-2.6303604E-3,1.4035195E-3,4.1204584E-3,7.158292E-3],"split_indices":[25,25,25,0,0,0,0],"split_type":[0,0,0,0,0,0,0],"sum_hessian":[1.273E3,9.46E2,3.27E2,8.34E2,1.12E2,1.26E2,2.01E2],"tree_param":{"num_deleted":"0","num_feature":"27","num_nodes":"7","size_leaf_vector":"1"}},{"base_weights":[4.444723E-3,-2.1069969E-1,5.969925E-3,1.1167772E-2,-2.5716105E-3,-2.8492035E-3,1.3947199E-3],"categories":[],"categories_nodes":[],"categories_segments":[],"categories_sizes":[],"default_left":[0,0,0,0,0,0,0],"id":47,"left_children":[1,3,-1,5,-1,-1,-1],"loss_changes":[1.6802264E2,1.0185188E1,0E0,6.241136E0,0E0,0E0,0E0],"parents":[2147483647,0,0,1,1,3,3],"right_children":[2,4,-1,6,-1,-1,-1],"split_conditions":[6.5194887E-1,1E0,5.969925E-3,1.15779154E-1,-2.5716105E-3,-2.8492035E-3,1.3947199E-3],"split_indices":[25,2,0,25,0,0,0],"split_type":[0,0,0,0,0,0,0],"sum_hessian":[1.31E3,9.61E2,3.49E2,1.63E2,7.98E2,4.6E1,1.17E2],"tree_param":{"num_deleted":"0","num_feature":"27","num_nodes":"7","size_leaf_vector":"1"}},{"base_weights":[-0E0,3.9883077E-1,-2.5458406E-3,1.2500472E-2,5.8641446E-1,-2.8254734E-3,1.3860263E-3,3.8941293E-3,6.9435663E-3],"categories":[],"categories_nodes":[],"categories_segments":[],"categories_sizes":[],"default_left":[0,0,0,0,0,0,0,0,0],"id":48,"left_children":[1,3,-1,5,7,-1,-1,-1,-1],"loss_changes":[1.3244385E2,3.6233376E1,0E0,6.297611E0,5.4809113E0,0E0,0E0,0E0,0E0],"parents":[2147483647,0,0,1,1,3,3,4,4],"right_children":[2,4,-1,6,8,-1,-1,-1,-1],"split_conditions":[1E0,6.5194887E-1,-2.5458406E-3,1.15779154E-1,1.4562035E0,-2.8254734E-3,1.3860263E-3,3.8941293E-3,6.9435663E-3],"split_indices":[2,25,0,25,25,0,0,0,0],"split_type":[0,0,0,0,0,0,0,0,0],"sum_hessian":[1.299E3,5.06E2,7.93E2,1.68E2,3.38E2,4.7E1,1.21E2,1.27E2,2.11E2],"tree_param":{"num_deleted":"0","num_feature":"27","num_nodes":"9","size_leaf_vector":"1"}},{"base_weights":[1.0913803E-3,3.960378E-1,-2.0540477E-1,6.0689813E-3,5.769376E-1,-2.5273103E-3,4.217455E-1,-2.7782153E-3,1.3490053E-3,3.8997154E-3,6.837839E-3,7.619802E-4,5.238223E-3],"categories":[],"categories_nodes":[],"categories_segments":[],"categories_sizes":[],"default_left":[0,0,0,0,0,0,0,0,0,0,0,0,0],"id":49,"left_children":[1,3,5,7,9,-1,11,-1,-1,-1,-1,-1,-1],"loss_changes":[1.0490663E2,3.0624535E1,2.5073746E1,5.2357254E0,4.262581E0,0E0,1.3636284E0,0E0,0E0,0E0,0E0,0E0,0E0],"parents":[2147483647,0,0,1,1,2,2,3,3,4,4,6,6],"right_children":[2,4,6,8,10,-1,12,-1,-1,-1,-1,-1,-1],"split_conditions":[1E0,6.5194887E-1,1.15779154E-1,1.15779154E-1,1.4562035E0,-2.5273103E-3,6.5194887E-1,-2.7782153E-3,1.3490053E-3,3.8997154E-3,6.837839E-3,7.619802E-4,5.238223E-3],"split_indices":[18,25,25,25,25,0,25,0,0,0,0,0,0],"split_type":[0,0,0,0,0,0,0,0,0,0,0,0,0],"sum_hessian":[1.279E3,4.4E2,8.39E2,1.42E2,2.98E2,7.83E2,5.6E1,4.1E1,1.01E2,1.16E2,1.82E2,1.6E1,4E1],"tree_param":{"num_deleted":"0","num_feature":"27","num_nodes":"13","size_leaf_vector":"1"}},{"base_weights":[-0E0,-2.53445E-3,4.610166E-1,2.7540864E-3,6.88655E-3],"categories":[],"categories_nodes":[],"categories_segments":[],"categories_sizes":[],"default_left":[0,0,0,0,0],"id":50,"left_children":[1,-1,3,-1,-1],"loss_changes":[1.500927E2,0E0,1.780735E1,0E0,0E0],"parents":[2147483647,0,0,2,2],"right_children":[2,-1,4,-1,-1],"split_conditions":[1.15779154E-1,-2.53445E-3,1.4562035E0,2.7540864E-3,6.88655E-3],"split_indices":[25,0,25,0,0],"split_type":[0,0,0,0,0],"sum_hessian":[1.28E3,8.27E2,4.53E2,2.55E2,1.98E2],"tree_param":{"num_deleted":"0","num_feature":"27","num_nodes":"5","size_leaf_vector":"1"}},{"base_weights":[-1.1121798E-2,-2.5062205E-3,4.5769555E-3],"categories":[],"categories_nodes":[],"categories_segments":[],"categories_sizes":[],"default_left":[0,0,0],"id":51,"left_children":[1,-1,-1],"loss_changes":[1.4520401E2,0E0,0E0],"parents":[2147483647,0,0],"right_children":[2,-1,-1],"split_conditions":[1.15779154E-1,-2.5062205E-3,4.5769555E-3],"split_indices":[25,0,0],"split_type":[0,0,0],"sum_hessian":[1.29E3,8.56E2,4.34E2],"tree_param":{"num_deleted":"0","num_feature":"27","num_nodes":"3","size_leaf_vector":"1"}},{"base_weights":[3.7243364E-3,-2.0204507E-1,5.7654413E-3,-0E0,-2.444414E-3,-2.741036E-3,1.2722394E-3],"categories":[],"categories_nodes":[],"categories_segments":[],"categories_sizes":[],"default_left":[0,0,0,0,0,0,0],"id":52,"left_children":[1,3,-1,5,-1,-1,-1],"loss_changes":[1.5077164E2,8.006786E0,0E0,5.8728933E0,0E0,0E0,0E0],"parents":[2147483647,0,0,1,1,3,3],"right_children":[2,4,-1,6,-1,-1,-1],"split_conditions":[6.5194887E-1,1E0,5.7654413E-3,1.15779154E-1,-2.444414E-3,-2.741036E-3,1.2722394E-3],"split_indices":[25,2,0,25,0,0,0],"split_type":[0,0,0,0,0,0,0],"sum_hessian":[1.271E3,9.35E2,3.36E2,1.63E2,7.72E2,5.1E1,1.12E2],"tree_param":{"num_deleted":"0","num_feature":"27","num_nodes":"7","size_leaf_vector":"1"}},{"base_weights":[-0E0,-1.9832572E-1,5.6278473E-3,-2.211847E-1,2.1255824E-5,-2.4203493E-3,-0E0,-2.3497087E-3,1.0555692E-3],"categories":[],"categories_nodes":[],"categories_segments":[],"categories_sizes":[],"default_left":[0,0,0,0,0,0,0,0,0],"id":53,"left_children":[1,3,-1,5,-1,-1,7,-1,-1],"loss_changes":[1.4372656E2,4.5846977E0,0E0,3.8491058E0,0E0,0E0,2.070353E0,0E0,0E0],"parents":[2147483647,0,0,1,1,3,3,6,6],"right_children":[2,4,-1,6,-1,-1,8,-1,-1],"split_conditions":[6.5194887E-1,1E0,5.6278473E-3,1E0,2.1255824E-5,-2.4203493E-3,1.15779154E-1,-2.3497087E-3,1.0555692E-3],"split_indices":[25,1,0,0,0,0,25,0,0],"split_type":[0,0,0,0,0,0,0,0,0],"sum_hessian":[1.283E3,9.5E2,3.33E2,8.57E2,9.3E1,7.81E2,7.6E1,2.4E1,5.2E1],"tree_param":{"num_deleted":"0","num_feature":"27","num_nodes":"9","size_leaf_vector":"1"}},{"base_weights":[2.5701495E-3,3.8110567E-3,-2.396326E-3],"categories":[],"categories_nodes":[],"categories_segments":[],"categories_sizes":[],"default_left":[0,0,0],"id":54,"left_children":[1,-1,-1],"loss_changes":[1.18777534E2,0E0,0E0],"parents":[2147483647,0,0],"right_children":[2,-1,-1],"split_conditions":[1E0,3.8110567E-3,-2.396326E-3],"split_indices":[2,0,0],"split_type":[0,0,0],"sum_hessian":[1.289E3,5.04E2,7.85E2],"tree_param":{"num_deleted":"0","num_feature":"27","num_nodes":"3","size_leaf_vector":"1"}},{"base_weights":[5.6569176E-3,3.813559E-1,-2.3722753E-3,8.840026E-2,4.536585E-1,-1.4370737E-2,1.5319623E-3,5.534316E-3,3.2668456E-1,-1.6905698E-3,5.3214363E-4,-0E0,3.3453855E-1,-0E0,5.0804433E-3],"categories":[],"categories_nodes":[],"categories_segments":[],"categories_sizes":[],"default_left":[0,0,0,0,0,0,0,0,0,0,0,0,0,0,0],"id":55,"left_children":[1,3,-1,5,7,9,-1,-1,11,-1,-1,-1,13,-1,-1],"loss_changes":[1.17947784E2,1.01284485E1,0E0,8.5352844E-1,3.792328E0,5.3037643E-1,0E0,0E0,4.1934204E-1,0E0,0E0,0E0,1.0307446E1,0E0,0E0],"parents":[2147483647,0,0,1,1,3,3,4,4,5,5,8,8,12,12],"right_children":[2,4,-1,6,8,10,-1,-1,12,-1,-1,-1,14,-1,-1],"split_conditions":[1E0,-4.6198997E-1,-2.3722753E-3,-8.9106476E-1,-5.4290307E-1,1E0,1.5319623E-3,5.534316E-3,-2.4673559E-1,-1.6905698E-3,5.3214363E-4,-0E0,6.5194887E-1,-0E0,5.0804433E-3],"split_indices":[2,26,0,26,20,15,0,0,21,0,0,0,25,0,0],"split_type":[0,0,0,0,0,0,0,0,0,0,0,0,0,0,0],"sum_hessian":[1.286E3,5.06E2,7.8E2,1.04E2,4.02E2,3.5E1,6.9E1,2.16E2,1.86E2,1.4E1,2.1E1,5E0,1.81E2,6.4E1,1.17E2],"tree_param":{"num_deleted":"0","num_feature":"27","num_nodes":"15","size_leaf_vector":"1"}},{"base_weights":[2.7670187E-3,3.6493602E-1,-2.3487401E-3,-0E0,5.4054415E-1,-2.7461397E-3,1.2256787E-3,3.6356773E-3,6.4885346E-3],"categories":[],"categories_nodes":[],"categories_segments":[],"categories_sizes":[],"default_left":[0,0,0,0,0,0,0,0,0],"id":56,"left_children":[1,3,-1,5,7,-1,-1,-1,-1],"loss_changes":[1.1218739E2,3.290773E1,0E0,5.784454E0,5.077942E0,0E0,0E0,0E0,0E0],"parents":[2147483647,0,0,1,1,3,3,4,4],"right_children":[2,4,-1,6,8,-1,-1,-1,-1],"split_conditions":[1E0,6.5194887E-1,-2.3487401E-3,1.15779154E-1,1.4562035E0,-2.7461397E-3,1.2256787E-3,3.6356773E-3,6.4885346E-3],"split_indices":[2,25,0,25,25,0,0,0,0],"split_type":[0,0,0,0,0,0,0,0,0],"sum_hessian":[1.297E3,5.15E2,7.82E2,1.69E2,3.46E2,5E1,1.19E2,1.39E2,2.07E2],"tree_param":{"num_deleted":"0","num_feature":"27","num_nodes":"9","size_leaf_vector":"1"}},{"base_weights":[-1.620966E-3,-1.9160397E-1,5.412549E-3,1.0350653E-3,-2.3249886E-3,-2.69143E-3,1.1975499E-3],"categories":[],"categories_nodes":[],"categories_segments":[],"categories_sizes":[],"default_left":[0,0,0,0,0,0,0],"id":57,"left_children":[1,3,-1,5,-1,-1,-1],"loss_changes":[1.2929523E2,7.578251E0,0E0,5.1113863E0,0E0,0E0,0E0],"parents":[2147483647,0,0,1,1,3,3],"right_children":[2,4,-1,6,-1,-1,-1],"split_conditions":[6.5194887E-1,1E0,5.412549E-3,1.15779154E-1,-2.3249886E-3,-2.69143E-3,1.1975499E-3],"split_indices":[25,2,0,25,0,0,0],"split_type":[0,0,0,0,0,0,0],"sum_hessian":[1.252E3,9.3E2,3.22E2,1.59E2,7.71E2,4.5E1,1.14E2],"tree_param":{"num_deleted":"0","num_feature":"27","num_nodes":"7","size_leaf_vector":"1"}},{"base_weights":[7.7344076E-4,3.6363274E-1,-2.3021044E-3,4.0948135E-1,2.840839E-1,6.529662E-3,5.5588615E-1,-7.467164E-3,4.8367893E-3,-2.3179748E-3,1.139736E-3,3.360127E-3,6.494705E-3,-2.3777548E-3,9.918904E-4],"categories":[],"categories_nodes":[],"categories_segments":[],"categories_sizes":[],"default_left":[0,0,0,0,0,0,0,0,0,0,0,0,0,0,0],"id":58,"left_children":[1,3,-1,5,7,9,11,13,-1,-1,-1,-1,-1,-1,-1],"loss_changes":[1.07834984E2,8.446884E-1,0E0,1.73922E1,1.2094578E1,2.1376054E0,3.02668E0,2.199499E0,0E0,0E0,0E0,0E0,0E0,0E0,0E0],"parents":[2147483647,0,0,1,1,3,3,4,4,5,5,6,6,7,7],"right_children":[2,4,-1,6,8,10,12,14,-1,-1,-1,-1,-1,-1,-1],"split_conditions":[1E0,-2.5692132E-1,-2.3021044E-3,6.5194887E-1,6.5194887E-1,1.15779154E-1,1.4562035E0,1.15779154E-1,4.8367893E-3,-2.3179748E-3,1.139736E-3,3.360127E-3,6.494705E-3,-2.3777548E-3,9.918904E-4],"split_indices":[2,22,0,25,25,25,25,25,0,0,0,0,0,0,0],"split_type":[0,0,0,0,0,0,0,0,0,0,0,0,0,0,0],"sum_hessian":[1.28E3,4.99E2,7.81E2,3.02E2,1.97E2,8.3E1,2.19E2,7.9E1,1.18E2,2.2E1,6.1E1,7.2E1,1.47E2,2.7E1,5.2E1],"tree_param":{"num_deleted":"0","num_feature":"27","num_nodes":"15","size_leaf_vector":"1"}},{"base_weights":[-3.590745E-4,-1.8811296E-1,5.295789E-1,-2.3239173E-3,1.1859861E-3,3.5286392E-3,6.394153E-3],"categories":[],"categories_nodes":[],"categories_segments":[],"categories_sizes":[],"default_left":[0,0,0,0,0,0,0],"id":59,"left_children":[1,3,5,-1,-1,-1,-1],"loss_changes":[1.3159308E2,1.349868E1,5.1497116E0,0E0,0E0,0E0,0E0],"parents":[2147483647,0,0,1,1,2,2],"right_children":[2,4,6,-1,-1,-1,-1],"split_conditions":[6.5194887E-1,1.15779154E-1,1.4562035E0,-2.3239173E-3,1.1859861E-3,3.5286392E-3,6.394153E-3],"split_indices":[25,25,25,0,0,0,0],"split_type":[0,0,0,0,0,0,0],"sum_hessian":[1.321E3,9.78E2,3.43E2,8.58E2,1.2E2,1.39E2,2.04E2],"tree_param":{"num_deleted":"0","num_feature":"27","num_nodes":"7","size_leaf_vector":"1"}},{"base_weights":[4.3038134E-3,-1.8603636E-1,5.2275527E-1,-2.2974974E-3,1.1691876E-3,3.3574675E-3,6.2865308E-3],"categories":[],"categories_nodes":[],"categories_segments":[],"categories_sizes":[],"default_left":[0,0,0,0,0,0,0],"id":60,"left_children":[1,3,5,-1,-1,-1,-1],"loss_changes":[1.2861993E2,1.2754398E1,5.4491653E0,0E0,0E0,0E0,0E0],"parents":[2147483647,0,0,1,1,2,2],"right_children":[2,4,6,-1,-1,-1,-1],"split_conditions":[6.5194887E-1,1.15779154E-1,1.4562035E0,-2.2974974E-3,1.1691876E-3,3.3574675E-3,6.2865308E-3],"split_indices":[25,25,25,0,0,0,0],"split_type":[0,0,0,0,0,0,0],"sum_hessian":[1.295E3,9.47E2,3.48E2,8.31E2,1.16E2,1.33E2,2.15E2],"tree_param":{"num_deleted":"0","num_feature":"27","num_nodes":"7","size_leaf_vector":"1"}},{"base_weights":[-1.9650527E-4,-1.8334562E-1,5.162472E-1,-2.2756478E-3,1.1517981E-3,3.4637782E-3,6.1860117E-3],"categories":[],"categories_nodes":[],"categories_segments":[],"categories_sizes":[],"default_left":[0,0,0,0,0,0,0],"id":61,"left_children":[1,3,5,-1,-1,-1,-1],"loss_changes":[1.213997E2,1.2738235E1,4.3326187E0,0E0,0E0,0E0,0E0],"parents":[2147483647,0,0,1,1,2,2],"right_children":[2,4,6,-1,-1,-1,-1],"split_conditions":[6.5194887E-1,1.15779154E-1,1.4562035E0,-2.2756478E-3,1.1517981E-3,3.4637782E-3,6.1860117E-3],"split_indices":[25,25,25,0,0,0,0],"split_type":[0,0,0,0,0,0,0],"sum_hessian":[1.282E3,9.49E2,3.33E2,8.3E2,1.19E2,1.33E2,2E2],"tree_param":{"num_deleted":"0","num_feature":"27","num_nodes":"7","size_leaf_vector":"1"}},{"base_weights":[-0E0,3.4488234E-1,-2.2102033E-3,9.653102E-2,4.054874E-1,-7.931085E-5,1.6381161E-3,5.1759807E-3,2.8034243E-1,-0E0,2.9033417E-1,-0E0,2.9747793E-3],"categories":[],"categories_nodes":[],"categories_segments":[],"categories_sizes":[],"default_left":[0,0,0,0,0,0,0,0,0,0,0,0,0],"id":62,"left_children":[1,3,-1,5,7,-1,-1,-1,9,-1,11,-1,-1],"loss_changes":[9.729561E1,6.918274E0,0E0,8.935828E-1,4.416252E0,0E0,0E0,0E0,3.6750793E-1,0E0,3.490839E-1,0E0,0E0],"parents":[2147483647,0,0,1,1,3,3,4,4,8,8,10,10],"right_children":[2,4,-1,6,8,-1,-1,-1,10,-1,12,-1,-1],"split_conditions":[1E0,-4.1863766E-1,-2.2102033E-3,-8.9106476E-1,-2.5692132E-1,-7.931085E-5,1.6381161E-3,5.1759807E-3,-1.1025134E-2,-0E0,-2.4673559E-1,-0E0,2.9747793E-3],"split_indices":[2,26,0,26,22,0,0,0,22,0,21,0,0],"split_type":[0,0,0,0,0,0,0,0,0,0,0,0,0],"sum_hessian":[1.27E3,4.97E2,7.73E2,1.02E2,3.95E2,3.5E1,6.7E1,2E2,1.95E2,9E0,1.86E2,5E0,1.81E2],"tree_param":{"num_deleted":"0","num_feature":"27","num_nodes":"13","size_leaf_vector":"1"}},{"base_weights":[4.913403E-3,3.354584E-1,-2.18754E-3,-0E0,5.0811183E-1,-2.6421598E-3,1.1314404E-3,3.3179957E-3,6.1280928E-3],"categories":[],"categories_nodes":[],"categories_segments":[],"categories_sizes":[],"default_left":[0,0,0,0,0,0,0,0,0],"id":63,"left_children":[1,3,-1,5,7,-1,-1,-1,-1],"loss_changes":[9.349162E1,3.0091015E1,0E0,5.4298506E0,4.814041E0,0E0,0E0,0E0,0E0],"parents":[2147483647,0,0,1,1,3,3,4,4],"right_children":[2,4,-1,6,8,-1,-1,-1,-1],"split_conditions":[1E0,6.5194887E-1,-2.18754E-3,1.15779154E-1,1.4562035E0,-2.6421598E-3,1.1314404E-3,3.3179957E-3,6.1280928E-3],"split_indices":[2,25,0,25,25,0,0,0,0],"split_type":[0,0,0,0,0,0,0,0,0],"sum_hessian":[1.258E3,5.09E2,7.49E2,1.72E2,3.37E2,5.3E1,1.19E2,1.33E2,2.04E2],"tree_param":{"num_deleted":"0","num_feature":"27","num_nodes":"9","size_leaf_vector":"1"}},{"base_weights":[3.4243944E-3,3.390338E-1,-2.166136E-3,3.7782106E-3,2.658652E-1,-0E0,2.7704737E-1,4.6459594E-4,2.9505587E-1,3.017627E-3,-0E0],"categories":[],"categories_nodes":[],"categories_segments":[],"categories_sizes":[],"default_left":[0,0,0,0,0,0,0,0,0,0,0],"id":64,"left_children":[1,3,-1,-1,5,-1,7,-1,9,-1,-1],"loss_changes":[9.4054565E1,5.3980255E-1,0E0,0E0,7.081232E-1,0E0,3.9866257E-1,0E0,3.1022167E-1,0E0,0E0],"parents":[2147483647,0,0,1,1,4,4,6,6,8,8],"right_children":[2,4,-1,-1,6,-1,8,-1,10,-1,-1],"split_conditions":[1E0,-7.31198E-2,-2.166136E-3,3.7782106E-3,-1.1025134E-2,-0E0,-3.8257755E-2,4.6459594E-4,1.3460364E0,3.017627E-3,-0E0],"split_indices":[2,22,0,0,22,0,26,0,22,0,0],"split_type":[0,0,0,0,0,0,0,0,0,0,0],"sum_hessian":[1.267E3,5.03E2,7.64E2,3.13E2,1.9E2,6E0,1.84E2,1.8E1,1.66E2,1.62E2,4E0],"tree_param":{"num_deleted":"0","num_feature":"27","num_nodes":"11","size_leaf_vector":"1"}},{"base_weights":[6.9807004E-3,-1.7721453E-1,5.1016384E-1,-2.1904497E-3,1.0842748E-3,3.2722924E-3,6.081712E-3],"categories":[],"categories_nodes":[],"categories_segments":[],"categories_sizes":[],"default_left":[0,0,0,0,0,0,0],"id":65,"left_children":[1,3,5,-1,-1,-1,-1],"loss_changes":[1.1933343E2,1.138369E1,4.7615204E0,0E0,0E0,0E0,0E0],"parents":[2147483647,0,0,1,1,2,2],"right_children":[2,4,6,-1,-1,-1,-1],"split_conditions":[6.5194887E-1,1.15779154E-1,1.4562035E0,-2.1904497E-3,1.0842748E-3,3.2722924E-3,6.081712E-3],"split_indices":[25,25,25,0,0,0,0],"split_type":[0,0,0,0,0,0,0],"sum_hessian":[1.279E3,9.36E2,3.43E2,8.2E2,1.16E2,1.27E2,2.16E2],"tree_param":{"num_deleted":"0","num_feature":"27","num_nodes":"7","size_leaf_vector":"1"}},{"base_weights":[-0E0,-1.7493658E-1,4.966803E-1,-2.169664E-3,1.0816022E-3,3.2243761E-3,5.9714024E-3],"categories":[],"categories_nodes":[],"categories_segments":[],"categories_sizes":[],"default_left":[0,0,0,0,0,0,0],"id":66,"left_children":[1,3,5,-1,-1,-1,-1],"loss_changes":[1.12591095E2,1.1572201E1,4.506813E0,0E0,0E0,0E0,0E0],"parents":[2147483647,0,0,1,1,2,2],"right_children":[2,4,6,-1,-1,-1,-1],"split_conditions":[6.5194887E-1,1.15779154E-1,1.4562035E0,-2.169664E-3,1.0816022E-3,3.2243761E-3,5.9714024E-3],"split_indices":[25,25,25,0,0,0,0],"split_type":[0,0,0,0,0,0,0],"sum_hessian":[1.291E3,9.56E2,3.35E2,8.36E2,1.2E2,1.3E2,2.05E2],"tree_param":{"num_deleted":"0","num_feature":"27","num_nodes":"7","size_leaf_vector":"1"}},{"base_weights":[1.4949314E-3,3.6474396E-3,-1.1501634E-1,-1.4364493E-1,2.722968E-3,-2.1013024E-3,2.6533875E-1,-0E0,2.9134399E-3],"categories":[],"categories_nodes":[],"categories_segments":[],"categories_sizes":[],"default_left":[0,0,0,0,0,0,0,0,0],"id":67,"left_children":[1,-1,3,5,-1,-1,7,-1,-1],"loss_changes":[5.3998512E1,0E0,1.0608291E1,2.448847E1,0E0,0E0,7.8376865E-1,0E0,0E0],"parents":[2147483647,0,0,2,2,3,3,6,6],"right_children":[2,-1,4,6,-1,-1,8,-1,-1],"split_conditions":[-6.1086047E-1,3.6474396E-3,1E0,1E0,2.722968E-3,-2.1013024E-3,-9.8597604E-1,-0E0,2.9134399E-3],"split_indices":[20,0,17,0,0,0,24,0,0],"split_type":[0,0,0,0,0,0,0,0,0],"sum_hessian":[1.265E3,3.08E2,9.57E2,8.95E2,6.2E1,7.73E2,1.22E2,1.2E1,1.1E2],"tree_param":{"num_deleted":"0","num_feature":"27","num_nodes":"9","size_leaf_vector":"1"}},{"base_weights":[7.86952E-3,3.545993E-1,-1.1007787E-1,3.616399E-3,-0E0,-2.080031E-3,2.863748E-1,-0E0,2.9641204E-3],"categories":[],"categories_nodes":[],"categories_segments":[],"categories_sizes":[],"default_left":[0,0,0,0,0,0,0,0,0],"id":68,"left_children":[1,3,5,-1,-1,-1,7,-1,-1],"loss_changes":[5.250479E1,1.1233253E0,3.7010365E1,0E0,0E0,0E0,4.8177242E-1,0E0,0E0],"parents":[2147483647,0,0,1,1,2,2,6,6],"right_children":[2,4,6,-1,-1,-1,8,-1,-1],"split_conditions":[-2.5692132E-1,1E0,1E0,3.616399E-3,-0E0,-2.080031E-3,-2.1735246E-1,-0E0,2.9641204E-3],"split_indices":[22,2,0,0,0,0,21,0,0],"split_type":[0,0,0,0,0,0,0,0,0],"sum_hessian":[1.273E3,3.24E2,9.49E2,3.2E2,4E0,7.64E2,1.85E2,7E0,1.78E2],"tree_param":{"num_deleted":"0","num_feature":"27","num_nodes":"9","size_leaf_vector":"1"}},{"base_weights":[1.1791768E-4,-1.7094097E-1,4.8568255E-1,-2.1105392E-3,1.0010427E-3,3.9295643E-3,6.7437887E-3],"categories":[],"categories_nodes":[],"categories_segments":[],"categories_sizes":[],"default_left":[0,0,0,0,0,0,0],"id":69,"left_children":[1,3,5,-1,-1,-1,-1],"loss_changes":[1.0679775E2,1.0454525E1,4.1404343E0,0E0,0E0,0E0,0E0],"parents":[2147483647,0,0,1,1,2,2],"right_children":[2,4,6,-1,-1,-1,-1],"split_conditions":[6.5194887E-1,1.15779154E-1,1.9923732E0,-2.1105392E-3,1.0010427E-3,3.9295643E-3,6.7437887E-3],"split_indices":[25,25,25,0,0,0,0],"split_type":[0,0,0,0,0,0,0],"sum_hessian":[1.277E3,9.44E2,3.33E2,8.26E2,1.18E2,2.32E2,1.01E2],"tree_param":{"num_deleted":"0","num_feature":"27","num_nodes":"7","size_leaf_vector":"1"}},{"base_weights":[-0E0,-1.7151845E-1,4.808452E-1,-2.1012786E-3,9.847964E-4,3.181446E-3,5.7562552E-3],"categories":[],"categories_nodes":[],"categories_segments":[],"categories_sizes":[],"default_left":[0,0,0,0,0,0,0],"id":70,"left_children":[1,3,5,-1,-1,-1,-1],"loss_changes":[1.0393255E2,9.832077E0,3.7603912E0,0E0,0E0,0E0,0E0],"parents":[2147483647,0,0,1,1,2,2],"right_children":[2,4,6,-1,-1,-1,-1],"split_conditions":[6.5194887E-1,1.15779154E-1,1.4562035E0,-2.1012786E-3,9.847964E-4,3.181446E-3,5.7562552E-3],"split_indices":[25,25,25,0,0,0,0],"split_type":[0,0,0,0,0,0,0],"sum_hessian":[1.254E3,9.25E2,3.29E2,8.13E2,1.12E2,1.29E2,2E2],"tree_param":{"num_deleted":"0","num_feature":"27","num_nodes":"7","size_leaf_vector":"1"}},{"base_weights":[3.2884022E-3,3.1638607E-1,-2.018187E-3,-8.697129E-5,4.736824E-3],"categories":[],"categories_nodes":[],"categories_segments":[],"categories_sizes":[],"default_left":[0,0,0,0,0],"id":71,"left_children":[1,3,-1,-1,-1],"loss_changes":[8.295559E1,2.6681667E1,0E0,0E0,0E0],"parents":[2147483647,0,0,1,1],"right_children":[2,4,-1,-1,-1],"split_conditions":[1E0,6.5194887E-1,-2.018187E-3,-8.697129E-5,4.736824E-3],"split_indices":[2,25,0,0,0],"split_type":[0,0,0,0,0],"sum_hessian":[1.285E3,5.1E2,7.75E2,1.65E2,3.45E2],"tree_param":{"num_deleted":"0","num_feature":"27","num_nodes":"5","size_leaf_vector":"1"}},{"base_weights":[7.579256E-4,-1.6606745E-1,4.7214827E-1,-2.054623E-3,9.872266E-4,3.0376178E-3,5.6997584E-3],"categories":[],"categories_nodes":[],"categories_segments":[],"categories_sizes":[],"default_left":[0,0,0,0,0,0,0],"id":72,"left_children":[1,3,5,-1,-1,-1,-1],"loss_changes":[1.01672295E2,1.0072468E1,4.269478E0,0E0,0E0,0E0,0E0],"parents":[2147483647,0,0,1,1,2,2],"right_children":[2,4,6,-1,-1,-1,-1],"split_conditions":[6.5194887E-1,1.15779154E-1,1.4562035E0,-2.054623E-3,9.872266E-4,3.0376178E-3,5.6997584E-3],"split_indices":[25,25,25,0,0,0,0],"split_type":[0,0,0,0,0,0,0],"sum_hessian":[1.284E3,9.48E2,3.36E2,8.29E2,1.19E2,1.31E2,2.05E2],"tree_param":{"num_deleted":"0","num_feature":"27","num_nodes":"7","size_leaf_vector":"1"}},{"base_weights":[2.8565913E-3,-1.6759053E-1,4.711869E-3,-7.607892E-3,-1.926982E-1,-2.553809E-3,9.344367E-4,-1.9897483E-3,4.5451953E-4],"categories":[],"categories_nodes":[],"categories_segments":[],"categories_sizes":[],"default_left":[0,0,0,0,0,0,0,0,0],"id":73,"left_children":[1,3,-1,5,7,-1,-1,-1,-1],"loss_changes":[1.0199921E2,3.541689E0,0E0,3.5891876E0,1.3727074E0,0E0,0E0,0E0,0E0],"parents":[2147483647,0,0,1,1,3,3,4,4],"right_children":[2,4,-1,6,8,-1,-1,-1,-1],"split_conditions":[6.5194887E-1,1E0,4.711869E-3,1.15779154E-1,1.15779154E-1,-2.553809E-3,9.344367E-4,-1.9897483E-3,4.5451953E-4],"split_indices":[25,18,0,25,25,0,0,0,0],"split_type":[0,0,0,0,0,0,0,0,0],"sum_hessian":[1.269E3,9.3E2,3.39E2,1.32E2,7.98E2,4E1,9.2E1,7.82E2,1.6E1],"tree_param":{"num_deleted":"0","num_feature":"27","num_nodes":"9","size_leaf_vector":"1"}},{"base_weights":[8.765532E-4,-1.6174017E-1,4.7394317E-1,-2.009944E-3,9.677387E-4,3.0464756E-3,5.679825E-3],"categories":[],"categories_nodes":[],"categories_segments":[],"categories_sizes":[],"default_left":[0,0,0,0,0,0,0],"id":74,"left_children":[1,3,5,-1,-1,-1,-1],"loss_changes":[9.8626205E1,9.788155E0,3.9246368E0,0E0,0E0,0E0,0E0],"parents":[2147483647,0,0,1,1,2,2],"right_children":[2,4,6,-1,-1,-1,-1],"split_conditions":[6.5194887E-1,1.15779154E-1,1.4562035E0,-2.009944E-3,9.677387E-4,3.0464756E-3,5.679825E-3],"split_indices":[25,25,25,0,0,0,0],"split_type":[0,0,0,0,0,0,0],"sum_hessian":[1.273E3,9.47E2,3.26E2,8.26E2,1.21E2,1.24E2,2.02E2],"tree_param":{"num_deleted":"0","num_feature":"27","num_nodes":"7","size_leaf_vector":"1"}},{"base_weights":[-1.7123292E-4,3.034797E-1,-1.9379611E-3,-1.4453428E-2,4.5498484E-1,-2.5579093E-3,9.367048E-4,2.8987275E-3,5.52504E-3],"categories":[],"categories_nodes":[],"categories_segments":[],"categories_sizes":[],"default_left":[0,0,0,0,0,0,0,0,0],"id":75,"left_children":[1,3,-1,5,7,-1,-1,-1,-1],"loss_changes":[7.561752E1,2.451714E1,0E0,4.4362593E0,4.23983E0,0E0,0E0,0E0,0E0],"parents":[2147483647,0,0,1,1,3,3,4,4],"right_children":[2,4,-1,6,8,-1,-1,-1,-1],"split_conditions":[1E0,6.5194887E-1,-1.9379611E-3,1.15779154E-1,1.4562035E0,-2.5579093E-3,9.367048E-4,2.8987275E-3,5.52504E-3],"split_indices":[2,25,0,25,25,0,0,0,0],"split_type":[0,0,0,0,0,0,0,0,0],"sum_hessian":[1.283E3,4.97E2,7.86E2,1.59E2,3.38E2,5.1E1,1.08E2,1.33E2,2.05E2],"tree_param":{"num_deleted":"0","num_feature":"27","num_nodes":"9","size_leaf_vector":"1"}},{"base_weights":[4.814384E-3,-1.5855953E-1,4.6016794E-1,-1.9719638E-3,9.508221E-4,2.9934244E-3,5.4711583E-3],"categories":[],"categories_nodes":[],"categories_segments":[],"categories_sizes":[],"default_left":[0,0,0,0,0,0,0],"id":76,"left_children":[1,3,5,-1,-1,-1,-1],"loss_changes":[9.775272E1,9.581409E0,3.603363E0,0E0,0E0,0E0,0E0],"parents":[2147483647,0,0,1,1,2,2],"right_children":[2,4,6,-1,-1,-1,-1],"split_conditions":[6.5194887E-1,1.15779154E-1,1.4562035E0,-1.9719638E-3,9.508221E-4,2.9934244E-3,5.4711583E-3],"split_indices":[25,25,25,0,0,0,0],"split_type":[0,0,0,0,0,0,0],"sum_hessian":[1.305E3,9.6E2,3.45E2,8.37E2,1.23E2,1.29E2,2.16E2],"tree_param":{"num_deleted":"0","num_feature":"27","num_nodes":"7","size_leaf_vector":"1"}},{"base_weights":[-2.309486E-4,2.99591E-1,-1.8992446E-3,-0E0,4.528479E-3],"categories":[],"categories_nodes":[],"categories_segments":[],"categories_sizes":[],"default_left":[0,0,0,0,0],"id":77,"left_children":[1,3,-1,-1,-1],"loss_changes":[7.394071E1,2.3494553E1,0E0,0E0,0E0],"parents":[2147483647,0,0,1,1],"right_children":[2,4,-1,-1,-1],"split_conditions":[1E0,6.5194887E-1,-1.8992446E-3,-0E0,4.528479E-3],"split_indices":[2,25,0,0,0],"split_type":[0,0,0,0,0],"sum_hessian":[1.297E3,5E2,7.97E2,1.68E2,3.32E2],"tree_param":{"num_deleted":"0","num_feature":"27","num_nodes":"5","size_leaf_vector":"1"}},{"base_weights":[9.8892115E-3,3.030823E-1,-1.8794357E-3,7.523296E-2,3.5944146E-1,-0E0,1.157935E-3,4.516883E-3,2.4972963E-3],"categories":[],"categories_nodes":[],"categories_segments":[],"categories_sizes":[],"default_left":[0,0,0,0,0,0,0,0,0],"id":78,"left_children":[1,3,-1,5,7,-1,-1,-1,-1],"loss_changes":[7.447265E1,6.1559906E0,0E0,4.4617695E-1,3.1811943E0,0E0,0E0,0E0,0E0],"parents":[2147483647,0,0,1,1,3,3,4,4],"right_children":[2,4,-1,6,8,-1,-1,-1,-1],"split_conditions":[1E0,-4.1863766E-1,-1.8794357E-3,-9.227982E-1,-1.9726749E-1,-0E0,1.157935E-3,4.516883E-3,2.4972963E-3],"split_indices":[2,26,0,26,22,0,0,0,0],"split_type":[0,0,0,0,0,0,0,0,0],"sum_hessian":[1.277E3,5.16E2,7.61E2,1.07E2,4.09E2,3E1,7.7E1,2.13E2,1.96E2],"tree_param":{"num_deleted":"0","num_feature":"27","num_nodes":"9","size_leaf_vector":"1"}},{"base_weights":[-2.657508E-3,2.8479317E-1,-1.8608853E-3,-1.2004631E-2,4.3611953E-1,-2.526015E-3,9.194248E-4,2.8803989E-3,5.290109E-3],"categories":[],"categories_nodes":[],"categories_segments":[],"categories_sizes":[],"default_left":[0,0,0,0,0,0,0,0,0],"id":79,"left_children":[1,3,-1,5,7,-1,-1,-1,-1],"loss_changes":[6.644391E1,2.242228E1,0E0,4.3577685E0,3.293129E0,0E0,0E0,0E0,0E0],"parents":[2147483647,0,0,1,1,3,3,4,4],"right_children":[2,4,-1,6,8,-1,-1,-1,-1],"split_conditions":[1E0,6.5194887E-1,-1.8608853E-3,1.15779154E-1,1.4562035E0,-2.526015E-3,9.194248E-4,2.8803989E-3,5.290109E-3],"split_indices":[2,25,0,25,25,0,0,0,0],"split_type":[0,0,0,0,0,0,0,0,0],"sum_hessian":[1.257E3,4.87E2,7.7E2,1.63E2,3.24E2,5.1E1,1.12E2,1.33E2,1.91E2],"tree_param":{"num_deleted":"0","num_feature":"27","num_nodes":"9","size_leaf_vector":"1"}},{"base_weights":[3.2155018E-3,3.0002972E-1,-1.5091106E-1,7.285488E-2,3.7277767E-1,2.3490596E-3,-1.8428193E-3,-1.880139E-2,1.320698E-3,4.475374E-1,2.3864773E-3,2.501547E-4,-1.4693128E-3,3.2900954E-3,5.218051E-3],"categories":[],"categories_nodes":[],"categories_segments":[],"categories_sizes":[],"default_left":[0,0,0,0,0,0,0,0,0,0,0,0,0,0,0],"id":80,"left_children":[1,3,5,7,9,-1,-1,11,-1,13,-1,-1,-1,-1,-1],"loss_changes":[5.9481747E1,6.8490295E0,1.1020702E1,7.409156E-1,2.3909836E0,0E0,0E0,3.5848182E-1,0E0,5.377655E-1,0E0,0E0,0E0,0E0,0E0],"parents":[2147483647,0,0,1,1,2,2,3,3,4,4,7,7,9,9],"right_children":[2,4,6,8,10,-1,-1,12,-1,14,-1,-1,-1,-1,-1],"split_conditions":[1E0,-4.1863766E-1,1E0,-8.9106476E-1,-5.4290307E-1,2.3490596E-3,-1.8428193E-3,3.7203974E-1,1.320698E-3,2.8603561E-3,2.3864773E-3,2.501547E-4,-1.4693128E-3,3.2900954E-3,5.218051E-3],"split_indices":[18,26,2,26,20,0,0,24,0,26,0,0,0,0,0],"split_type":[0,0,0,0,0,0,0,0,0,0,0,0,0,0,0],"sum_hessian":[1.292E3,4.43E2,8.49E2,1.12E2,3.31E2,6.4E1,7.85E2,3.8E1,7.4E1,2.04E2,1.27E2,2.4E1,1.4E1,8.9E1,1.15E2],"tree_param":{"num_deleted":"0","num_feature":"27","num_nodes":"15","size_leaf_vector":"1"}},{"base_weights":[-3.8902212E-3,2.8404835E-1,-1.824516E-3,-4.2135934E-3,4.3193653E-1,-2.4943012E-3,8.9081394E-4,2.6852163E-3,5.2501624E-3],"categories":[],"categories_nodes":[],"categories_segments":[],"categories_sizes":[],"default_left":[0,0,0,0,0,0,0,0,0],"id":81,"left_children":[1,3,-1,5,7,-1,-1,-1,-1],"loss_changes":[6.607016E1,2.1342548E1,0E0,4.024997E0,3.820282E0,0E0,0E0,0E0,0E0],"parents":[2147483647,0,0,1,1,3,3,4,4],"right_children":[2,4,-1,6,8,-1,-1,-1,-1],"split_conditions":[1E0,6.5194887E-1,-1.824516E-3,1.15779154E-1,1.4562035E0,-2.4943012E-3,8.9081394E-4,2.6852163E-3,5.2501624E-3],"split_indices":[2,25,0,25,25,0,0,0,0],"split_type":[0,0,0,0,0,0,0,0,0],"sum_hessian":[1.282E3,4.88E2,7.94E2,1.64E2,3.24E2,4.7E1,1.17E2,1.25E2,1.99E2],"tree_param":{"num_deleted":"0","num_feature":"27","num_nodes":"9","size_leaf_vector":"1"}},{"base_weights":[5.6966185E-3,2.9098403E-3,-1.5232441E-1,-1.8053737E-3,1.9550249E-1,-0E0,4.3670186E-3,-1.5379424E-3,6.587961E-4],"categories":[],"categories_nodes":[],"categories_segments":[],"categories_sizes":[],"default_left":[0,0,0,0,0,0,0,0,0],"id":82,"left_children":[1,-1,3,-1,5,7,-1,-1,-1],"loss_changes":[5.7209835E1,0E0,8.046518E0,0E0,3.16103E0,4.3627638E-1,0E0,0E0,0E0],"parents":[2147483647,0,0,2,2,4,4,5,5],"right_children":[2,-1,4,-1,6,8,-1,-1,-1],"split_conditions":[1E0,2.9098403E-3,1E0,-1.8053737E-3,9.2003375E-1,1.15779154E-1,4.3670186E-3,-1.5379424E-3,6.587961E-4],"split_indices":[18,0,0,0,25,25,0,0,0],"split_type":[0,0,0,0,0,0,0,0,0],"sum_hessian":[1.261E3,4.51E2,8.1E2,7.53E2,5.7E1,3.1E1,2.6E1,1.2E1,1.9E1],"tree_param":{"num_deleted":"0","num_feature":"27","num_nodes":"9","size_leaf_vector":"1"}},{"base_weights":[-1.4340521E-3,2.7277392E-1,-1.7879624E-3,-2.1474343E-4,4.250427E-3],"categories":[],"categories_nodes":[],"categories_segments":[],"categories_sizes":[],"default_left":[0,0,0,0,0],"id":83,"left_children":[1,3,-1,-1,-1],"loss_changes":[6.240122E1,2.2940815E1,0E0,0E0,0E0],"parents":[2147483647,0,0,1,1],"right_children":[2,4,-1,-1,-1],"split_conditions":[1E0,6.5194887E-1,-1.7879624E-3,-2.1474343E-4,4.250427E-3],"split_indices":[2,25,0,0,0],"split_type":[0,0,0,0,0],"sum_hessian":[1.28E3,5E2,7.8E2,1.69E2,3.31E2],"tree_param":{"num_deleted":"0","num_feature":"27","num_nodes":"5","size_leaf_vector":"1"}},{"base_weights":[2.916194E-3,2.801577E-3,-1.7700314E-3],"categories":[],"categories_nodes":[],"categories_segments":[],"categories_sizes":[],"default_left":[0,0,0],"id":84,"left_children":[1,-1,-1],"loss_changes":[6.414977E1,0E0,0E0],"parents":[2147483647,0,0],"right_children":[2,-1,-1],"split_conditions":[1E0,2.801577E-3,-1.7700314E-3],"split_indices":[2,0,0],"split_type":[0,0,0],"sum_hessian":[1.279E3,5.05E2,7.74E2],"tree_param":{"num_deleted":"0","num_feature":"27","num_nodes":"3","size_leaf_vector":"1"}},{"base_weights":[1.0760153E-3,-1.4954515E-1,4.2366266E-1,-1.819177E-3,8.2338013E-4,2.7441697E-3,5.119175E-3],"categories":[],"categories_nodes":[],"categories_segments":[],"categories_sizes":[],"default_left":[0,0,0,0,0,0,0],"id":85,"left_children":[1,3,5,-1,-1,-1,-1],"loss_changes":[8.257346E1,7.279606E0,3.360588E0,0E0,0E0,0E0,0E0],"parents":[2147483647,0,0,1,1,2,2],"right_children":[2,4,6,-1,-1,-1,-1],"split_conditions":[6.5194887E-1,1.15779154E-1,1.4562035E0,-1.819177E-3,8.2338013E-4,2.7441697E-3,5.119175E-3],"split_indices":[25,25,25,0,0,0,0],"split_type":[0,0,0,0,0,0,0],"sum_hessian":[1.288E3,9.49E2,3.39E2,8.37E2,1.12E2,1.34E2,2.05E2],"tree_param":{"num_deleted":"0","num_feature":"27","num_nodes":"7","size_leaf_vector":"1"}},{"base_weights":[3.4128597E-3,-1.4579667E-1,4.1342098E-1,-1.797232E-3,8.097682E-4,2.6682483E-3,5.018956E-3],"categories":[],"categories_nodes":[],"categories_segments":[],"categories_sizes":[],"default_left":[0,0,0,0,0,0,0],"id":86,"left_children":[1,3,5,-1,-1,-1,-1],"loss_changes":[7.838855E1,7.3248367E0,3.3387184E0,0E0,0E0,0E0,0E0],"parents":[2147483647,0,0,1,1,2,2],"right_children":[2,4,6,-1,-1,-1,-1],"split_conditions":[6.5194887E-1,1.15779154E-1,1.4562035E0,-1.797232E-3,8.097682E-4,2.6682483E-3,5.018956E-3],"split_indices":[25,25,25,0,0,0,0],"split_type":[0,0,0,0,0,0,0],"sum_hessian":[1.272E3,9.32E2,3.4E2,8.15E2,1.17E2,1.36E2,2.04E2],"tree_param":{"num_deleted":"0","num_feature":"27","num_nodes":"7","size_leaf_vector":"1"}},{"base_weights":[2.3303335E-3,2.770829E-1,-1.3965996E-1,5.7490993E-2,3.419374E-1,-1.630462E-1,-1.0271102E-1,-2.1126952E-3,1.4554904E-3,-1.5482552E-2,4.2707038E-1,-1.7115048E-3,1.5603423E-3,-1.7056968E-3,2.9696628E-1,-2.0919011E-3,4.9242424E-4,3.2754785E-3,5.7929927E-3,1.7538943E-4,3.6788979E-3],"categories":[],"categories_nodes":[],"categories_segments":[],"categories_sizes":[],"default_left":[0,0,0,0,0,0,0,0,0,0,0,0,0,0,0,0,0,0,0,0,0],"id":87,"left_children":[1,3,5,7,9,11,13,-1,-1,15,17,-1,-1,-1,19,-1,-1,-1,-1,-1,-1],"loss_changes":[5.007224E1,5.7963333E0,4.195137E-1,2.53164E0,1.0606361E1,1.3606148E0,9.479227E0,0E0,0E0,9.9438304E-1,2.7472153E0,0E0,0E0,0E0,5.794296E-1,0E0,0E0,0E0,0E0,0E0,0E0],"parents":[2147483647,0,0,1,1,2,2,3,3,4,4,5,5,6,6,9,9,10,10,14,14],"right_children":[2,4,6,8,10,12,14,-1,-1,16,18,-1,-1,-1,20,-1,-1,-1,-1,-1,-1],"split_conditions":[1E0,-4.1863766E-1,2.3369794E-1,1.15779154E-1,6.5194887E-1,1.15779154E-1,1.15779154E-1,-2.1126952E-3,1.4554904E-3,1.15779154E-1,1.9923732E0,-1.7115048E-3,1.5603423E-3,-1.7056968E-3,6.5194887E-1,-2.0919011E-3,4.9242424E-4,3.2754785E-3,5.7929927E-3,1.7538943E-4,3.6788979E-3],"split_indices":[18,26,26,25,25,25,25,0,0,25,25,0,0,0,25,0,0,0,0,0,0],"split_type":[0,0,0,0,0,0,0,0,0,0,0,0,0,0,0,0,0,0,0,0,0],"sum_hessian":[1.275E3,4.36E2,8.39E2,1.04E2,3.32E2,4.92E2,3.47E2,2.2E1,8.2E1,6.2E1,2.7E2,4.84E2,8E0,3E2,4.7E1,1.8E1,4.4E1,1.72E2,9.8E1,1.3E1,3.4E1],"tree_param":{"num_deleted":"0","num_feature":"27","num_nodes":"21","size_leaf_vector":"1"}},{"base_weights":[-0E0,-1.446191E-1,4.0928984E-1,-1.7658448E-3,7.9955027E-4,3.2561992E-3,5.784687E-3],"categories":[],"categories_nodes":[],"categories_segments":[],"categories_sizes":[],"default_left":[0,0,0,0,0,0,0],"id":88,"left_children":[1,3,5,-1,-1,-1,-1],"loss_changes":[7.7295815E1,7.0843964E0,3.444847E0,0E0,0E0,0E0,0E0],"parents":[2147483647,0,0,1,1,2,2],"right_children":[2,4,6,-1,-1,-1,-1],"split_conditions":[6.5194887E-1,1.15779154E-1,1.9923732E0,-1.7658448E-3,7.9955027E-4,3.2561992E-3,5.784687E-3],"split_indices":[25,25,25,0,0,0,0],"split_type":[0,0,0,0,0,0,0],"sum_hessian":[1.304E3,9.66E2,3.38E2,8.5E2,1.16E2,2.35E2,1.03E2],"tree_param":{"num_deleted":"0","num_feature":"27","num_nodes":"7","size_leaf_vector":"1"}},{"base_weights":[4.111885E-3,2.7066284E-1,-1.6817948E-3,-1.0377236E-2,4.070348E-1,-2.4308923E-3,8.0575503E-4,3.178483E-3,5.7811122E-3],"categories":[],"categories_nodes":[],"categories_segments":[],"categories_sizes":[],"default_left":[0,0,0,0,0,0,0,0,0],"id":89,"left_children":[1,3,-1,5,7,-1,-1,-1,-1],"loss_changes":[5.9435833E1,1.9934307E1,0E0,3.7355862E0,3.9162025E0,0E0,0E0,0E0,0E0],"parents":[2147483647,0,0,1,1,3,3,4,4],"right_children":[2,4,-1,6,8,-1,-1,-1,-1],"split_conditions":[1E0,6.5194887E-1,-1.6817948E-3,1.15779154E-1,1.9923732E0,-2.4308923E-3,8.0575503E-4,3.178483E-3,5.7811122E-3],"split_indices":[2,25,0,25,25,0,0,0,0],"split_type":[0,0,0,0,0,0,0,0,0],"sum_hessian":[1.287E3,5.07E2,7.8E2,1.64E2,3.43E2,4.8E1,1.16E2,2.34E2,1.09E2],"tree_param":{"num_deleted":"0","num_feature":"27","num_nodes":"9","size_leaf_vector":"1"}},{"base_weights":[6.5518585E-3,-8.586612E-2,2.8809518E-1,-1.6646143E-3,2.1846008E-3,4.2157783E-4,3.987445E-3],"categories":[],"categories_nodes":[],"categories_segments":[],"categories_sizes":[],"default_left":[0,0,0,0,0,0,0],"id":90,"left_children":[1,3,5,-1,-1,-1,-1],"loss_changes":[3.313992E1,2.3352081E1,8.102716E0,0E0,0E0,0E0,0E0],"parents":[2147483647,0,0,1,1,2,2],"right_children":[2,4,6,-1,-1,-1,-1],"split_conditions":[1E0,1E0,-4.1863766E-1,-1.6646143E-3,2.1846008E-3,4.2157783E-4,3.987445E-3],"split_indices":[1,0,26,0,0,0,0],"split_type":[0,0,0,0,0,0,0],"sum_hessian":[1.261E3,9.48E2,3.13E2,7.53E2,1.95E2,1.01E2,2.12E2],"tree_param":{"num_deleted":"0","num_feature":"27","num_nodes":"7","size_leaf_vector":"1"}},{"base_weights":[-1.9054156E-3,2.603831E-1,-1.6487215E-3,3.1828806E-2,3.0148163E-1,-5.5925094E-4,7.1268727E-4,3.6291823E-1,2.119787E-1,2.742613E-3,4.2931008E-1,-0E0,2.2410392E-3,4.3790434E-3,-0E0],"categories":[],"categories_nodes":[],"categories_segments":[],"categories_sizes":[],"default_left":[0,0,0,0,0,0,0,0,0,0,0,0,0,0,0],"id":91,"left_children":[1,3,-1,5,7,-1,-1,9,11,-1,13,-1,-1,-1,-1],"loss_changes":[5.4318447E1,4.203125E0,0E0,3.0391896E-1,1.4735184E0,0E0,0E0,3.6470032E-1,5.4205513E-1,0E0,3.3026886E-1,0E0,0E0,0E0,0E0],"parents":[2147483647,0,0,1,1,3,3,4,4,7,7,8,8,10,10],"right_children":[2,4,-1,6,8,-1,-1,10,12,-1,14,-1,-1,-1,-1],"split_conditions":[1E0,-5.579943E-1,-1.6487215E-3,-1.0973468E0,9.117032E-2,-5.5925094E-4,7.1268727E-4,2.8603561E-3,-1.4905989E-1,2.742613E-3,1.2173171E0,-0E0,2.2410392E-3,4.3790434E-3,-0E0],"split_indices":[2,26,0,26,21,0,0,26,26,0,20,0,0,0,0],"split_type":[0,0,0,0,0,0,0,0,0,0,0,0,0,0,0],"sum_hessian":[1.268E3,4.83E2,7.85E2,7.8E1,4.05E2,1.6E1,6.2E1,2.29E2,1.76E2,1.1E2,1.19E2,8E0,1.68E2,1.16E2,3E0],"tree_param":{"num_deleted":"0","num_feature":"27","num_nodes":"15","size_leaf_vector":"1"}},{"base_weights":[2.914259E-3,-1.3765024E-1,3.95084E-3,-0E0,-1.5186559E-1,-2.125436E-3,7.382561E-4,-1.6607083E-3,5.426767E-4],"categories":[],"categories_nodes":[],"categories_segments":[],"categories_sizes":[],"default_left":[0,0,0,0,0,0,0,0,0],"id":92,"left_children":[1,3,-1,5,7,-1,-1,-1,-1],"loss_changes":[7.142214E1,1.7587414E0,0E0,1.6265473E0,2.639389E0,0E0,0E0,0E0,0E0],"parents":[2147483647,0,0,1,1,3,3,4,4],"right_children":[2,4,-1,6,8,-1,-1,-1,-1],"split_conditions":[6.5194887E-1,-4.5241746E-1,3.95084E-3,1.15779154E-1,1.15779154E-1,-2.125436E-3,7.382561E-4,-1.6607083E-3,5.426767E-4],"split_indices":[25,21,0,25,25,0,0,0,0],"split_type":[0,0,0,0,0,0,0,0,0],"sum_hessian":[1.286E3,9.46E2,3.4E2,9.3E1,8.53E2,2.5E1,6.8E1,8.03E2,5E1],"tree_param":{"num_deleted":"0","num_feature":"27","num_nodes":"9","size_leaf_vector":"1"}},{"base_weights":[-1.6054302E-3,2.598092E-1,-1.3263626E-1,3.6936544E-2,3.2056734E-1,2.02066E-3,-1.6156512E-3,-2.2433163E-4,9.2602626E-4,3.837819E-3,2.0455157E-3],"categories":[],"categories_nodes":[],"categories_segments":[],"categories_sizes":[],"default_left":[0,0,0,0,0,0,0,0,0,0,0],"id":93,"left_children":[1,3,5,7,9,-1,-1,-1,-1,-1,-1],"loss_changes":[4.378618E1,5.374729E0,8.33422E0,3.975886E-1,1.6392593E0,0E0,0E0,0E0,0E0,0E0,0E0],"parents":[2147483647,0,0,1,1,2,2,3,3,4,4],"right_children":[2,4,6,8,10,-1,-1,-1,-1,-1,-1],"split_conditions":[1E0,-5.220915E-1,1E0,-8.9106476E-1,-5.4290307E-1,2.02066E-3,-1.6156512E-3,-2.2433163E-4,9.2602626E-4,3.837819E-3,2.0455157E-3],"split_indices":[18,26,2,26,20,0,0,0,0,0,0],"split_type":[0,0,0,0,0,0,0,0,0,0,0],"sum_hessian":[1.277E3,4.23E2,8.54E2,9.5E1,3.28E2,6.4E1,7.9E2,3.8E1,5.7E1,2.03E2,1.25E2],"tree_param":{"num_deleted":"0","num_feature":"27","num_nodes":"11","size_leaf_vector":"1"}},{"base_weights":[9.915733E-4,-1.3784148E-1,3.8360548E-3,-1.4912067E-1,-1.5488896E-2,-1.6302599E-3,5.4134126E-4,-2.249312E-3,7.1338494E-4],"categories":[],"categories_nodes":[],"categories_segments":[],"categories_sizes":[],"default_left":[0,0,0,0,0,0,0,0,0],"id":94,"left_children":[1,3,-1,5,7,-1,-1,-1,-1],"loss_changes":[6.919421E1,1.1413422E0,0E0,2.568657E0,1.8394806E0,0E0,0E0,0E0,0E0],"parents":[2147483647,0,0,1,1,3,3,4,4],"right_children":[2,4,-1,6,8,-1,-1,-1,-1],"split_conditions":[6.5194887E-1,1E0,3.8360548E-3,1.15779154E-1,1.15779154E-1,-1.6302599E-3,5.4134126E-4,-2.249312E-3,7.1338494E-4],"split_indices":[25,1,0,25,25,0,0,0,0],"split_type":[0,0,0,0,0,0,0,0,0],"sum_hessian":[1.293E3,9.48E2,3.45E2,8.6E2,8.8E1,8.1E2,5E1,2.8E1,6E1],"tree_param":{"num_deleted":"0","num_feature":"27","num_nodes":"9","size_leaf_vector":"1"}},{"base_weights":[2.3986432E-3,-1.3413252E-1,3.799326E-1,-1.657221E-3,7.361398E-4,2.4001023E-3,4.6669478E-3],"categories":[],"categories_nodes":[],"categories_segments":[],"categories_sizes":[],"default_left":[0,0,0,0,0,0,0],"id":95,"left_children":[1,3,5,-1,-1,-1,-1],"loss_changes":[6.575823E1,6.235691E0,3.1347885E0,0E0,0E0,0E0,0E0],"parents":[2147483647,0,0,1,1,2,2],"right_children":[2,4,6,-1,-1,-1,-1],"split_conditions":[6.5194887E-1,1.15779154E-1,1.4562035E0,-1.657221E-3,7.361398E-4,2.4001023E-3,4.6669478E-3],"split_indices":[25,25,25,0,0,0,0],"split_type":[0,0,0,0,0,0,0],"sum_hessian":[1.266E3,9.29E2,3.37E2,8.11E2,1.18E2,1.37E2,2E2],"tree_param":{"num_deleted":"0","num_feature":"27","num_nodes":"7","size_leaf_vector":"1"}},{"base_weights":[1.448698E-3,2.514077E-3,-1.5666706E-3],"categories":[],"categories_nodes":[],"categories_segments":[],"categories_sizes":[],"default_left":[0,0,0],"id":96,"left_children":[1,-1,-1],"loss_changes":[5.0999325E1,0E0,0E0],"parents":[2147483647,0,0],"right_children":[2,-1,-1],"split_conditions":[1E0,2.514077E-3,-1.5666706E-3],"split_indices":[2,0,0],"split_type":[0,0,0],"sum_hessian":[1.283E3,4.99E2,7.84E2],"tree_param":{"num_deleted":"0","num_feature":"27","num_nodes":"3","size_leaf_vector":"1"}},{"base_weights":[-1.1759324E-3,-1.3400173E-1,3.77975E-1,-1.6265145E-3,6.9269654E-4,2.9510336E-3,5.4455977E-3],"categories":[],"categories_nodes":[],"categories_segments":[],"categories_sizes":[],"default_left":[0,0,0,0,0,0,0],"id":97,"left_children":[1,3,5,-1,-1,-1,-1],"loss_changes":[6.35138E1,5.592888E0,3.2659645E0,0E0,0E0,0E0,0E0],"parents":[2147483647,0,0,1,1,2,2],"right_children":[2,4,6,-1,-1,-1,-1],"split_conditions":[6.5194887E-1,1.15779154E-1,1.9923732E0,-1.6265145E-3,6.9269654E-4,2.9510336E-3,5.4455977E-3],"split_indices":[25,25,25,0,0,0,0],"split_type":[0,0,0,0,0,0,0],"sum_hessian":[1.261E3,9.37E2,3.24E2,8.26E2,1.11E2,2.25E2,9.9E1],"tree_param":{"num_deleted":"0","num_feature":"27","num_nodes":"7","size_leaf_vector":"1"}},{"base_weights":[2.0794603E-3,2.6142722E-1,-8.315786E-2,4.702946E-2,3.6815494E-1,1.9708734E-3,-1.5347298E-3,-6.7269325E-4,8.6028886E-4,2.7221306E-3,4.3391814E-3],"categories":[],"categories_nodes":[],"categories_segments":[],"categories_sizes":[],"default_left":[0,0,0,0,0,0,0,0,0,0,0],"id":98,"left_children":[1,3,5,7,9,-1,-1,-1,-1,-1,-1],"loss_changes":[2.85616E1,6.875269E0,1.9018229E1,5.3470594E-1,3.2671356E-1,0E0,0E0,0E0,0E0,0E0,0E0],"parents":[2147483647,0,0,1,1,2,2,3,3,4,4],"right_children":[2,4,6,8,10,-1,-1,-1,-1,-1,-1],"split_conditions":[-8.050149E-1,-4.2730927E-1,1E0,-1.042187E0,2.8603561E-3,1.9708734E-3,-1.5347298E-3,-6.7269325E-4,8.6028886E-4,2.7221306E-3,4.3391814E-3],"split_indices":[21,26,2,26,26,0,0,0,0,0,0],"split_type":[0,0,0,0,0,0,0,0,0,0,0],"sum_hessian":[1.279E3,3.18E2,9.61E2,1.1E2,2.08E2,1.89E2,7.72E2,2.1E1,8.9E1,9.6E1,1.12E2],"tree_param":{"num_deleted":"0","num_feature":"27","num_nodes":"11","size_leaf_vector":"1"}},{"base_weights":[2.0142954E-3,2.4704936E-1,-1.2633377E-3,5.0409332E-2,3.0571711E-3,-2.0347968E-4,1.0225157E-3],"categories":[],"categories_nodes":[],"categories_segments":[],"categories_sizes":[],"default_left":[0,0,0,0,0,0,0],"id":99,"left_children":[1,3,-1,5,-1,-1,-1],"loss_changes":[4.1916874E1,4.906334E0,0E0,4.9977952E-1,0E0,0E0,0E0],"parents":[2147483647,0,0,1,1,3,3],"right_children":[2,4,-1,6,-1,-1,-1],"split_conditions":[1E0,-4.1863766E-1,-1.2633377E-3,-8.9106476E-1,3.0571711E-3,-2.0347968E-4,1.0225157E-3],"split_indices":[18,26,0,26,0,0,0],"split_type":[0,0,0,0,0,0,0],"sum_hessian":[1.324E3,4.57E2,8.67E2,1.1E2,3.47E2,3.9E1,7.1E1],"tree_param":{"num_deleted":"0","num_feature":"27","num_nodes":"7","size_leaf_vector":"1"}},{"base_weights":[3.369591E-4,-1.2903614E-1,3.7681577E-1,-1.5848529E-3,6.646304E-4,2.9066354E-3,5.3300634E-3],"categories":[],"categories_nodes":[],"categories_segments":[],"categories_sizes":[],"default_left":[0,0,0,0,0,0,0],"id":100,"left_children":[1,3,5,-1,-1,-1,-1],"loss_changes":[6.395532E1,5.711561E0,3.3170166E0,0E0,0E0,0E0,0E0],"parents":[2147483647,0,0,1,1,2,2],"right_children":[2,4,6,-1,-1,-1,-1],"split_conditions":[6.5194887E-1,1.15779154E-1,1.9923732E0,-1.5848529E-3,6.646304E-4,2.9066354E-3,5.3300634E-3],"split_indices":[25,25,25,0,0,0,0],"split_type":[0,0,0,0,0,0,0],"sum_hessian":[1.303E3,9.69E2,3.34E2,8.47E2,1.22E2,2.24E2,1.1E2],"tree_param":{"num_deleted":"0","num_feature":"27","num_nodes":"7","size_leaf_vector":"1"}},{"base_weights":[-0E0,-1.2907457E-1,3.666691E-1,-1.5718546E-3,6.5488246E-4,2.1634877E-3,4.5525692E-3],"categories":[],"categories_nodes":[],"categories_segments":[],"categories_sizes":[],"default_left":[0,0,0,0,0,0,0],"id":101,"left_children":[1,3,5,-1,-1,-1,-1],"loss_changes":[6.0036797E1,5.239464E0,3.4832802E0,0E0,0E0,0E0,0E0],"parents":[2147483647,0,0,1,1,2,2],"right_children":[2,4,6,-1,-1,-1,-1],"split_conditions":[6.5194887E-1,1.15779154E-1,1.4562035E0,-1.5718546E-3,6.5488246E-4,2.1634877E-3,4.5525692E-3],"split_indices":[25,25,25,0,0,0,0],"split_type":[0,0,0,0,0,0,0],"sum_hessian":[1.262E3,9.34E2,3.28E2,8.21E2,1.13E2,1.29E2,1.99E2],"tree_param":{"num_deleted":"0","num_feature":"27","num_nodes":"7","size_leaf_vector":"1"}},{"base_weights":[2.8283983E-3,-1.2530798E-1,3.6670128E-1,-1.5461743E-3,6.492558E-4,2.8347268E-3,5.2515483E-3],"categories":[],"categories_nodes":[],"categories_segments":[],"categories_sizes":[],"default_left":[0,0,0,0,0,0,0],"id":102,"left_children":[1,3,5,-1,-1,-1,-1],"loss_changes":[6.047966E1,5.431163E0,3.2832985E0,0E0,0E0,0E0,0E0],"parents":[2147483647,0,0,1,1,2,2],"right_children":[2,4,6,-1,-1,-1,-1],"split_conditions":[6.5194887E-1,1.15779154E-1,1.9923732E0,-1.5461743E-3,6.492558E-4,2.8347268E-3,5.2515483E-3],"split_indices":[25,25,25,0,0,0,0],"split_type":[0,0,0,0,0,0,0],"sum_hessian":[1.287E3,9.51E2,3.36E2,8.29E2,1.22E2,2.29E2,1.07E2],"tree_param":{"num_deleted":"0","num_feature":"27","num_nodes":"7","size_leaf_vector":"1"}},{"base_weights":[3.4593875E-3,2.3481447E-1,-1.4601784E-3,4.0131668E-4,2.8014445E-1,3.516862E-1,1.9140055E-3,2.5326612E-3,4.274794E-3],"categories":[],"categories_nodes":[],"categories_segments":[],"categories_sizes":[],"default_left":[0,0,0,0,0,0,0,0,0],"id":103,"left_children":[1,3,-1,-1,5,7,-1,-1,-1],"loss_changes":[4.4837578E1,4.156763E0,0E0,0E0,1.888504E0,6.710472E-1,0E0,0E0,0E0],"parents":[2147483647,0,0,1,1,4,4,5,5],"right_children":[2,4,-1,-1,6,8,-1,-1,-1],"split_conditions":[1E0,-4.8360094E-1,-1.4601784E-3,4.0131668E-4,-2.5692132E-1,2.8603561E-3,1.9140055E-3,2.5326612E-3,4.274794E-3],"split_indices":[2,26,0,0,22,26,0,0,0],"split_type":[0,0,0,0,0,0,0,0,0],"sum_hessian":[1.289E3,5.08E2,7.81E2,1.01E2,4.07E2,2.15E2,1.92E2,1.04E2,1.11E2],"tree_param":{"num_deleted":"0","num_feature":"27","num_nodes":"9","size_leaf_vector":"1"}},{"base_weights":[4.5779278E-3,2.3249121E-1,-1.14117295E-1,-1.8554384E-2,3.517009E-1,-1.4587281E-3,2.5660685E-1,-2.3719831E-3,6.066619E-4,2.686455E-3,4.988878E-3,6.1794475E-4,3.581818E-3],"categories":[],"categories_nodes":[],"categories_segments":[],"categories_sizes":[],"default_left":[0,0,0,0,0,0,0,0,0,0,0,0,0],"id":104,"left_children":[1,3,5,7,9,-1,11,-1,-1,-1,-1,-1,-1],"loss_changes":[3.4689804E1,1.3532335E1,9.842351E0,2.6634424E0,2.5831451E0,0E0,8.0101967E-1,0E0,0E0,0E0,0E0,0E0,0E0],"parents":[2147483647,0,0,1,1,2,2,3,3,4,4,6,6],"right_children":[2,4,6,8,10,-1,12,-1,-1,-1,-1,-1,-1],"split_conditions":[1E0,6.5194887E-1,1.15779154E-1,1.15779154E-1,1.9923732E0,-1.4587281E-3,9.2003375E-1,-2.3719831E-3,6.066619E-4,2.686455E-3,4.988878E-3,6.1794475E-4,3.581818E-3],"split_indices":[18,25,25,25,25,0,25,0,0,0,0,0,0],"split_type":[0,0,0,0,0,0,0,0,0,0,0,0,0],"sum_hessian":[1.273E3,4.38E2,8.35E2,1.39E2,2.99E2,7.73E2,6.2E1,3.9E1,1E2,2E2,9.9E1,2.6E1,3.6E1],"tree_param":{"num_deleted":"0","num_feature":"27","num_nodes":"13","size_leaf_vector":"1"}},{"base_weights":[2.8217354E-4,2.185905E-3,-1.4309618E-3],"categories":[],"categories_nodes":[],"categories_segments":[],"categories_sizes":[],"default_left":[0,0,0],"id":105,"left_children":[1,-1,-1],"loss_changes":[4.0797634E1,0E0,0E0],"parents":[2147483647,0,0],"right_children":[2,-1,-1],"split_conditions":[1E0,2.185905E-3,-1.4309618E-3],"split_indices":[2,0,0],"split_type":[0,0,0],"sum_hessian":[1.296E3,5.16E2,7.8E2],"tree_param":{"num_deleted":"0","num_feature":"27","num_nodes":"3","size_leaf_vector":"1"}},{"base_weights":[6.450107E-3,2.342636E-3,-1.1291081E-3],"categories":[],"categories_nodes":[],"categories_segments":[],"categories_sizes":[],"default_left":[0,0,0],"id":106,"left_children":[1,-1,-1],"loss_changes":[3.4734955E1,0E0,0E0],"parents":[2147483647,0,0],"right_children":[2,-1,-1],"split_conditions":[1E0,2.342636E-3,-1.1291081E-3],"split_indices":[18,0,0],"split_type":[0,0,0],"sum_hessian":[1.268E3,4.38E2,8.3E2],"tree_param":{"num_deleted":"0","num_feature":"27","num_nodes":"3","size_leaf_vector":"1"}},{"base_weights":[3.0843718E-3,2.2512475E-1,-1.405213E-3,-2.8089454E-2,3.502182E-1,-2.4265226E-3,5.877928E-4,2.159868E-3,4.3276395E-3],"categories":[],"categories_nodes":[],"categories_segments":[],"categories_sizes":[],"default_left":[0,0,0,0,0,0,0,0,0],"id":107,"left_children":[1,3,-1,5,7,-1,-1,-1,-1],"loss_changes":[4.057952E1,1.6231958E1,0E0,3.304252E0,2.868229E0,0E0,0E0,0E0,0E0],"parents":[2147483647,0,0,1,1,3,3,4,4],"right_children":[2,4,-1,6,8,-1,-1,-1,-1],"split_conditions":[1E0,6.5194887E-1,-1.405213E-3,1.15779154E-1,1.4562035E0,-2.4265226E-3,5.877928E-4,2.159868E-3,4.3276395E-3],"split_indices":[2,25,0,25,25,0,0,0,0],"split_type":[0,0,0,0,0,0,0,0,0],"sum_hessian":[1.265E3,4.99E2,7.66E2,1.63E2,3.36E2,4.9E1,1.14E2,1.36E2,2E2],"tree_param":{"num_deleted":"0","num_feature":"27","num_nodes":"9","size_leaf_vector":"1"}},{"base_weights":[-0E0,2.1556576E-1,-1.3912172E-3,2.6399258E-4,2.595545E-1,3.3221117E-3,1.7911403E-3],"categories":[],"categories_nodes":[],"categories_segments":[],"categories_sizes":[],"default_left":[0,0,0,0,0,0,0],"id":108,"left_children":[1,3,-1,-1,5,-1,-1],"loss_changes":[3.8228516E1,3.8616772E0,0E0,0E0,1.6864967E0,0E0,0E0],"parents":[2147483647,0,0,1,1,4,4],"right_children":[2,4,-1,-1,6,-1,-1],"split_conditions":[1E0,-4.2730927E-1,-1.3912172E-3,2.6399258E-4,1E0,3.3221117E-3,1.7911403E-3],"split_indices":[2,26,0,0,0,0,0],"split_type":[0,0,0,0,0,0,0],"sum_hessian":[1.269E3,4.98E2,7.71E2,9.9E1,3.99E2,1.99E2,2E2],"tree_param":{"num_deleted":"0","num_feature":"27","num_nodes":"7","size_leaf_vector":"1"}},{"base_weights":[-4.565394E-3,-1.21159874E-1,3.3552483E-1,-1.4633802E-3,5.604396E-4,2.6279348E-3,4.978531E-3],"categories":[],"categories_nodes":[],"categories_segments":[],"categories_sizes":[],"default_left":[0,0,0,0,0,0,0],"id":109,"left_children":[1,3,5,-1,-1,-1,-1],"loss_changes":[4.9591854E1,4.293606E0,2.672596E0,0E0,0E0,0E0,0E0],"parents":[2147483647,0,0,1,1,2,2],"right_children":[2,4,6,-1,-1,-1,-1],"split_conditions":[6.5194887E-1,1.15779154E-1,1.9923732E0,-1.4633802E-3,5.604396E-4,2.6279348E-3,4.978531E-3],"split_indices":[25,25,25,0,0,0,0],"split_type":[0,0,0,0,0,0,0],"sum_hessian":[1.251E3,9.35E2,3.16E2,8.24E2,1.11E2,2.27E2,8.9E1],"tree_param":{"num_deleted":"0","num_feature":"27","num_nodes":"7","size_leaf_vector":"1"}},{"base_weights":[-6.0022343E-4,2.1229228E-1,-1.3633495E-3,-2.4677247E-2,3.334118E-1,-2.3871255E-3,5.6561246E-4,2.5225782E-3,4.90365E-3],"categories":[],"categories_nodes":[],"categories_segments":[],"categories_sizes":[],"default_left":[0,0,0,0,0,0,0,0,0],"id":110,"left_children":[1,3,-1,5,7,-1,-1,-1,-1],"loss_changes":[3.7432346E1,1.4751875E1,0E0,3.1631565E0,3.2215195E0,0E0,0E0,0E0,0E0],"parents":[2147483647,0,0,1,1,3,3,4,4],"right_children":[2,4,-1,6,8,-1,-1,-1,-1],"split_conditions":[1E0,6.5194887E-1,-1.3633495E-3,1.15779154E-1,1.9923732E0,-2.3871255E-3,5.6561246E-4,2.5225782E-3,4.90365E-3],"split_indices":[2,25,0,25,25,0,0,0,0],"split_type":[0,0,0,0,0,0,0,0,0],"sum_hessian":[1.293E3,5E2,7.93E2,1.67E2,3.33E2,4.8E1,1.19E2,2.28E2,1.05E2],"tree_param":{"num_deleted":"0","num_feature":"27","num_nodes":"9","size_leaf_vector":"1"}},{"base_weights":[4.698547E-3,2.3900294E-3,-7.107785E-2,-1.3492146E-3,1.8585306E-3],"categories":[],"categories_nodes":[],"categories_segments":[],"categories_sizes":[],"default_left":[0,0,0,0,0],"id":111,"left_children":[1,-1,3,-1,-1],"loss_changes":[2.285657E1,0E0,1.5800028E1,0E0,0E0],"parents":[2147483647,0,0,2,2],"right_children":[2,-1,4,-1,-1],"split_conditions":[-8.050149E-1,2.3900294E-3,1E0,-1.3492146E-3,1.8585306E-3],"split_indices":[21,0,0,0,0],"split_type":[0,0,0,0,0],"sum_hessian":[1.273E3,3.13E2,9.6E2,7.73E2,1.87E2],"tree_param":{"num_deleted":"0","num_feature":"27","num_nodes":"5","size_leaf_vector":"1"}},{"base_weights":[1.8177497E-3,2.1475004E-3,-1.07539535E-1,-1.3360548E-3,1.8573119E-1,-0E0,3.4009945E-3],"categories":[],"categories_nodes":[],"categories_segments":[],"categories_sizes":[],"default_left":[0,0,0,0,0,0,0],"id":112,"left_children":[1,-1,3,-1,5,-1,-1],"loss_changes":[3.0261713E1,0E0,6.526741E0,0E0,2.1247187E0,0E0,0E0],"parents":[2147483647,0,0,2,2,4,4],"right_children":[2,-1,4,-1,6,-1,-1],"split_conditions":[1E0,2.1475004E-3,1E0,-1.3360548E-3,9.2003375E-1,-0E0,3.4009945E-3],"split_indices":[18,0,0,0,25,0,0],"split_type":[0,0,0,0,0,0,0],"sum_hessian":[1.29E3,4.4E2,8.5E2,7.85E2,6.5E1,2.9E1,3.6E1],"tree_param":{"num_deleted":"0","num_feature":"27","num_nodes":"7","size_leaf_vector":"1"}},{"base_weights":[1.5294382E-3,2.1206078E-3,-1.06178805E-1,-1.322914E-3,1.825138E-3],"categories":[],"categories_nodes":[],"categories_segments":[],"categories_sizes":[],"default_left":[0,0,0,0,0],"id":113,"left_children":[1,-1,3,-1,-1],"loss_changes":[2.981099E1,0E0,6.5196486E0,0E0,0E0],"parents":[2147483647,0,0,2,2],"right_children":[2,-1,4,-1,-1],"split_conditions":[1E0,2.1206078E-3,1E0,-1.322914E-3,1.825138E-3],"split_indices":[18,0,0,0,0],"split_type":[0,0,0,0,0],"sum_hessian":[1.305E3,4.44E2,8.61E2,7.94E2,6.7E1],"tree_param":{"num_deleted":"0","num_feature":"27","num_nodes":"5","size_leaf_vector":"1"}},{"base_weights":[4.7032204E-3,-1.1535205E-1,3.324084E-1,-1.393782E-3,5.0641125E-4,2.5133004E-3,4.81284E-3],"categories":[],"categories_nodes":[],"categories_segments":[],"categories_sizes":[],"default_left":[0,0,0,0,0,0,0],"id":114,"left_children":[1,3,5,-1,-1,-1,-1],"loss_changes":[5.132077E1,3.8891687E0,3.1957245E0,0E0,0E0,0E0,0E0],"parents":[2147483647,0,0,1,1,2,2],"right_children":[2,4,6,-1,-1,-1,-1],"split_conditions":[6.5194887E-1,1.15779154E-1,1.9923732E0,-1.393782E-3,5.0641125E-4,2.5133004E-3,4.81284E-3],"split_indices":[25,25,25,0,0,0,0],"split_type":[0,0,0,0,0,0,0],"sum_hessian":[1.294E3,9.46E2,3.48E2,8.32E2,1.14E2,2.34E2,1.14E2],"tree_param":{"num_deleted":"0","num_feature":"27","num_nodes":"7","size_leaf_vector":"1"}},{"base_weights":[4.0761093E-3,2.1666361E-1,-1.2959215E-3,2.5143306E-4,2.5789484E-1,3.2364833E-1,1.7908409E-3,1.8613581E-3,3.658572E-3],"categories":[],"categories_nodes":[],"categories_segments":[],"categories_sizes":[],"default_left":[0,0,0,0,0,0,0,0,0],"id":115,"left_children":[1,3,-1,-1,5,7,-1,-1,-1],"loss_changes":[3.745353E1,3.7319736E0,0E0,0E0,1.5055218E0,5.3437996E-1,0E0,0E0,0E0],"parents":[2147483647,0,0,1,1,4,4,5,5],"right_children":[2,4,-1,-1,6,8,-1,-1,-1],"split_conditions":[1E0,-4.8360094E-1,-1.2959215E-3,2.5143306E-4,-8.050149E-1,-1.3631345E-1,1.7908409E-3,1.8613581E-3,3.658572E-3],"split_indices":[2,26,0,0,21,26,0,0,0],"split_type":[0,0,0,0,0,0,0,0,0],"sum_hessian":[1.31E3,5.08E2,8.02E2,9.5E1,4.13E2,2.14E2,1.99E2,5.9E1,1.55E2],"tree_param":{"num_deleted":"0","num_feature":"27","num_nodes":"9","size_leaf_vector":"1"}},{"base_weights":[2.806863E-3,-1.1259817E-1,3.230195E-3,-3.0920338E-2,-1.2825548E-3,-2.4243458E-3,4.7203025E-4],"categories":[],"categories_nodes":[],"categories_segments":[],"categories_sizes":[],"default_left":[0,0,0,0,0,0,0],"id":116,"left_children":[1,3,-1,5,-1,-1,-1],"loss_changes":[4.7805912E1,1.0387888E0,0E0,2.9585965E0,0E0,0E0,0E0],"parents":[2147483647,0,0,1,1,3,3],"right_children":[2,4,-1,6,-1,-1,-1],"split_conditions":[6.5194887E-1,1E0,3.230195E-3,1.15779154E-1,-1.2825548E-3,