{"learner":{"attributes":{"best_iteration":"1013","best_score":"0.14241867128201102"},"feature_names":[],"feature_types":[],"gradient_booster":{"model":{"cats":{"enc":[],"feature_segments":[],"sorted_idx":[]},"gbtree_model_param":{"num_parallel_tree":"1","num_trees":"1064"},"iteration_indptr":[0,1,2,3,4,5,6,7,8,9,10,11,12,13,14,15,16,17,18,19,20,21,22,23,24,25,26,27,28,29,30,31,32,33,34,35,36,37,38,39,40,41,42,43,44,45,46,47,48,49,50,51,52,53,54,55,56,57,58,59,60,61,62,63,64,65,66,67,68,69,70,71,72,73,74,75,76,77,78,79,80,81,82,83,84,85,86,87,88,89,90,91,92,93,94,95,96,97,98,99,100,101,102,103,104,105,106,107,108,109,110,111,112,113,114,115,116,117,118,119,120,121,122,123,124,125,126,127,128,129,130,131,132,133,134,135,136,137,138,139,140,141,142,143,144,145,146,147,148,149,150,151,152,153,154,155,156,157,158,159,160,161,162,163,164,165,166,167,168,169,170,171,172,173,174,175,176,177,178,179,180,181,182,183,184,185,186,187,188,189,190,191,192,193,194,195,196,197,198,199,200,201,202,203,204,205,206,207,208,209,210,211,212,213,214,215,216,217,218,219,220,221,222,223,224,225,226,227,228,229,230,231,232,233,234,235,236,237,238,239,240,241,242,243,244,245,246,247,248,249,250,251,252,253,254,255,256,257,258,259,260,261,262,263,264,265,266,267,268,269,270,271,272,273,274,275,276,277,278,279,280,281,282,283,284,285,286,287,288,289,290,291,292,293,294,295,296,297,298,299,300,301,302,303,304,305,306,307,308,309,310,311,312,313,314,315,316,317,318,319,320,321,322,323,324,325,326,327,328,329,330,331,332,333,334,335,336,337,338,339,340,341,342,343,344,345,346,347,348,349,350,351,352,353,354,355,356,357,358,359,360,361,362,363,364,365,366,367,368,369,370,371,372,373,374,375,376,377,378,379,380,381,382,383,384,385,386,387,388,389,390,391,392,393,394,395,396,397,398,399,400,401,402,403,404,405,406,407,408,409,410,411,412,413,414,415,416,417,418,419,420,421,422,423,424,425,426,427,428,429,430,431,432,433,434,435,436,437,438,439,440,441,442,443,444,445,446,447,448,449,450,451,452,453,454,455,456,457,458,459,460,461,462,463,464,465,466,467,468,469,470,471,472,473,474,475,476,477,478,479,480,481,482,483,484,485,486,487,488,489,490,491,492,493,494,495,496,497,498,499,500,501,502,503,504,505,506,507,508,509,510,511,512,513,514,515,516,517,518,519,520,521,522,523,524,525,526,527,528,529,530,531,532,533,534,535,536,537,538,539,540,541,542,543,544,545,546,547,548,549,550,551,552,553,554,555,556,557,558,559,560,561,562,563,564,565,566,567,568,569,570,571,572,573,574,575,576,577,578,579,580,581,582,583,584,585,586,587,588,589,590,591,592,593,594,595,596,597,598,599,600,601,602,603,604,605,606,607,608,609,610,611,612,613,614,615,616,617,618,619,620,621,622,623,624,625,626,627,628,629,630,631,632,633,634,635,636,637,638,639,640,641,642,643,644,645,646,647,648,649,650,651,652,653,654,655,656,657,658,659,660,661,662,663,664,665,666,667,668,669,670,671,672,673,674,675,676,677,678,679,680,681,682,683,684,685,686,687,688,689,690,691,692,693,694,695,696,697,698,699,700,701,702,703,704,705,706,707,708,709,710,711,712,713,714,715,716,717,718,719,720,721,722,723,724,725,726,727,728,729,730,731,732,733,734,735,736,737,738,739,740,741,742,743,744,745,746,747,748,749,750,751,752,753,754,755,756,757,758,759,760,761,762,763,764,765,766,767,768,769,770,771,772,773,774,775,776,777,778,779,780,781,782,783,784,785,786,787,788,789,790,791,792,793,794,795,796,797,798,799,800,801,802,803,804,805,806,807,808,809,810,811,812,813,814,815,816,817,818,819,820,821,822,823,824,825,826,827,828,829,830,831,832,833,834,835,836,837,838,839,840,841,842,843,844,845,846,847,848,849,850,851,852,853,854,855,856,857,858,859,860,861,862,863,864,865,866,867,868,869,870,871,872,873,874,875,876,877,878,879,880,881,882,883,884,885,886,887,888,889,890,891,892,893,894,895,896,897,898,899,900,901,902,903,904,905,906,907,908,909,910,911,912,913,914,915,916,917,918,919,920,921,922,923,924,925,926,927,928,929,930,931,932,933,934,935,936,937,938,939,940,941,942,943,944,945,946,947,948,949,950,951,952,953,954,955,956,957,958,959,960,961,962,963,964,965,966,967,968,969,970,971,972,973,974,975,976,977,978,979,980,981,982,983,984,985,986,987,988,989,990,991,992,993,994,995,996,997,998,999,1000,1001,1002,1003,1004,1005,1006,1007,1008,1009,1010,1011,1012,1013,1014,1015,1016,1017,1018,1019,1020,1021,1022,1023,1024,1025,1026,1027,1028,1029,1030,1031,1032,1033,1034,1035,1036,1037,1038,1039,1040,1041,1042,1043,1044,1045,1046,1047,1048,1049,1050,1051,1052,1053,1054,1055,1056,1057,1058,1059,1060,1061,1062,1063,1064],"tree_info":[0,0,0,0,0,0,0,0,0,0,0,0,0,0,0,0,0,0,0,0,0,0,0,0,0,0,0,0,0,0,0,0,0,0,0,0,0,0,0,0,0,0,0,0,0,0,0,0,0,0,0,0,0,0,0,0,0,0,0,0,0,0,0,0,0,0,0,0,0,0,0,0,0,0,0,0,0,0,0,0,0,0,0,0,0,0,0,0,0,0,0,0,0,0,0,0,0,0,0,0,0,0,0,0,0,0,0,0,0,0,0,0,0,0,0,0,0,0,0,0,0,0,0,0,0,0,0,0,0,0,0,0,0,0,0,0,0,0,0,0,0,0,0,0,0,0,0,0,0,0,0,0,0,0,0,0,0,0,0,0,0,0,0,0,0,0,0,0,0,0,0,0,0,0,0,0,0,0,0,0,0,0,0,0,0,0,0,0,0,0,0,0,0,0,0,0,0,0,0,0,0,0,0,0,0,0,0,0,0,0,0,0,0,0,0,0,0,0,0,0,0,0,0,0,0,0,0,0,0,0,0,0,0,0,0,0,0,0,0,0,0,0,0,0,0,0,0,0,0,0,0,0,0,0,0,0,0,0,0,0,0,0,0,0,0,0,0,0,0,0,0,0,0,0,0,0,0,0,0,0,0,0,0,0,0,0,0,0,0,0,0,0,0,0,0,0,0,0,0,0,0,0,0,0,0,0,0,0,0,0,0,0,0,0,0,0,0,0,0,0,0,0,0,0,0,0,0,0,0,0,0,0,0,0,0,0,0,0,0,0,0,0,0,0,0,0,0,0,0,0,0,0,0,0,0,0,0,0,0,0,0,0,0,0,0,0,0,0,0,0,0,0,0,0,0,0,0,0,0,0,0,0,0,0,0,0,0,0,0,0,0,0,0,0,0,0,0,0,0,0,0,0,0,0,0,0,0,0,0,0,0,0,0,0,0,0,0,0,0,0,0,0,0,0,0,0,0,0,0,0,0,0,0,0,0,0,0,0,0,0,0,0,0,0,0,0,0,0,0,0,0,0,0,0,0,0,0,0,0,0,0,0,0,0,0,0,0,0,0,0,0,0,0,0,0,0,0,0,0,0,0,0,0,0,0,0,0,0,0,0,0,0,0,0,0,0,0,0,0,0,0,0,0,0,0,0,0,0,0,0,0,0,0,0,0,0,0,0,0,0,0,0,0,0,0,0,0,0,0,0,0,0,0,0,0,0,0,0,0,0,0,0,0,0,0,0,0,0,0,0,0,0,0,0,0,0,0,0,0,0,0,0,0,0,0,0,0,0,0,0,0,0,0,0,0,0,0,0,0,0,0,0,0,0,0,0,0,0,0,0,0,0,0,0,0,0,0,0,0,0,0,0,0,0,0,0,0,0,0,0,0,0,0,0,0,0,0,0,0,0,0,0,0,0,0,0,0,0,0,0,0,0,0,0,0,0,0,0,0,0,0,0,0,0,0,0,0,0,0,0,0,0,0,0,0,0,0,0,0,0,0,0,0,0,0,0,0,0,0,0,0,0,0,0,0,0,0,0,0,0,0,0,0,0,0,0,0,0,0,0,0,0,0,0,0,0,0,0,0,0,0,0,0,0,0,0,0,0,0,0,0,0,0,0,0,0,0,0,0,0,0,0,0,0,0,0,0,0,0,0,0,0,0,0,0,0,0,0,0,0,0,0,0,0,0,0,0,0,0,0,0,0,0,0,0,0,0,0,0,0,0,0,0,0,0,0,0,0,0,0,0,0,0,0,0,0,0,0,0,0,0,0,0,0,0,0,0,0,0,0,0,0,0,0,0,0,0,0,0,0,0,0,0,0,0,0,0,0,0,0,0,0,0,0,0,0,0,0,0,0,0,0,0,0,0,0,0,0,0,0,0,0,0,0,0,0,0,0,0,0,0,0,0,0,0,0,0,0,0,0,0,0,0,0,0,0,0,0,0,0,0,0,0,0,0,0,0,0,0,0,0,0,0,0,0,0,0,0,0,0,0,0,0,0,0,0,0,0,0,0,0,0,0,0,0,0,0,0,0,0,0,0,0,0,0,0,0,0,0,0,0,0,0,0,0,0,0,0,0,0,0,0,0,0,0,0,0,0,0,0,0,0,0,0,0,0,0,0,0,0,0,0,0,0,0,0,0,0,0,0,0,0,0,0,0,0,0,0,0,0,0,0,0,0,0,0,0,0,0,0,0,0,0,0,0,0,0,0,0,0,0,0,0,0,0,0,0,0,0,0,0,0,0,0,0,0,0,0,0,0,0,0,0,0,0,0,0,0,0,0,0,0,0,0,0,0,0,0,0,0,0,0,0,0,0,0,0,0,0,0,0,0,0,0,0,0,0,0,0,0,0,0,0,0,0,0,0,0,0,0,0,0,0,0,0,0,0,0,0,0,0,0,0,0],"trees":[{"base_weights":[-1.3495912E-2,-7.198081E-1,9.262482E-1,-1.176282E0,-2.3208293E-3,4.9190335E-3,1.4201812E-2,-1.2489022E-2,-8.149437E-3],"categories":[],"categories_nodes":[],"categories_segments":[],"categories_sizes":[],"default_left":[0,0,0,0,0,0,0,0,0],"id":0,"left_children":[1,3,5,7,-1,-1,-1,-1,-1],"loss_changes":[8.367931E2,1.5831683E2,1.1229883E2,5.1137695E0,0E0,0E0,0E0,0E0,0E0],"parents":[2147483647,0,0,1,1,2,2,3,3],"right_children":[2,4,6,8,-1,-1,-1,-1,-1],"split_conditions":[4.0399885E-1,-7.31198E-2,8.0019933E-1,-8.050149E-1,-2.3208293E-3,4.9190335E-3,1.4201812E-2,-1.2489022E-2,-8.149437E-3],"split_indices":[22,22,22,21,0,0,0,0,0],"split_type":[0,0,0,0,0,0,0,0,0],"sum_hessian":[1.256E3,7.18E2,5.38E2,3.68E2,3.5E2,2.9E2,2.48E2,2.99E2,6.9E1],"tree_param":{"num_deleted":"0","num_feature":"27","num_nodes":"9","size_leaf_vector":"1"}},{"base_weights":[1.6340338E-2,-7.792695E-1,8.603141E-1,-1.2004182E0,-3.1066704E-1,4.4204566E-1,1.3851798E0,-1.2353993E-2,-8.012806E-3,-5.293387E-3,-1.180057E-1,1.8795952E-1,5.826305E-1,1.0909826E-2,1.6857572E-2,-2.029176E-3,-2.5519388E-4,5.986665E-4,2.4492675E-3,4.0116617E-3,6.44024E-3],"categories":[],"categories_nodes":[],"categories_segments":[],"categories_sizes":[],"default_left":[0,0,0,0,0,0,0,0,0,0,0,0,0,0,0,0,0,0,0,0,0],"id":1,"left_children":[1,3,5,7,9,11,13,-1,-1,-1,15,17,19,-1,-1,-1,-1,-1,-1,-1,-1],"loss_changes":[8.689655E2,1.2889389E2,1.3461966E2,3.5443115E-1,1.2656891E1,1.1618599E1,1.707605E1,0E0,0E0,0E0,1.136852E0,6.254139E-1,8.100052E-1,0E0,0E0,0E0,0E0,0E0,0E0,0E0,0E0],"parents":[2147483647,0,0,1,1,2,2,3,3,4,4,5,5,6,6,10,10,11,11,12,12],"right_children":[2,4,6,8,10,12,14,-1,-1,-1,16,18,20,-1,-1,-1,-1,-1,-1,-1,-1],"split_conditions":[3.4968197E-1,-1.1919446E-1,8.0019933E-1,-2.8960827E-1,1.3952447E-1,5.255272E-1,1.0421541E0,-1.2353993E-2,-8.012806E-3,-5.293387E-3,2.5542635E-1,4.0399885E-1,5.9484255E-1,1.0909826E-2,1.6857572E-2,-2.029176E-3,-2.5519388E-4,5.986665E-4,2.4492675E-3,4.0116617E-3,6.44024E-3],"split_indices":[22,22,22,22,22,22,22,0,0,0,22,22,22,0,0,0,0,0,0,0,0],"split_type":[0,0,0,0,0,0,0,0,0,0,0,0,0,0,0,0,0,0,0,0,0],"sum_hessian":[1.289E3,6.63E2,6.26E2,3.46E2,3.17E2,3.52E2,2.74E2,3.11E2,3.5E1,1.44E2,1.73E2,1.3E2,2.22E2,1.46E2,1.28E2,8.3E1,9E1,4.7E1,8.3E1,6.5E1,1.57E2],"tree_param":{"num_deleted":"0","num_feature":"27","num_nodes":"21","size_leaf_vector":"1"}},{"base_weights":[-2.9067768E-2,-8.0686665E-1,7.9955614E-1,-1.2043092E-2,-3.410468E-3,4.331422E-1,1.4211276E-2,1.2346611E-3,4.6036118E-1,1.9507411E-1,6.3937334E-3,2.8724968E-3,8.4891974E-4],"categories":[],"categories_nodes":[],"categories_segments":[],"categories_sizes":[],"default_left":[0,0,0,0,0,0,0,0,0,0,0,0,0],"id":2,"left_children":[1,3,5,-1,-1,7,-1,-1,9,11,-1,-1,-1],"loss_changes":[8.3206195E2,1.2082135E2,1.3883823E2,0E0,0E0,2.6246338E0,0E0,0E0,1.602124E1,1.1055446E0,0E0,0E0,0E0],"parents":[2147483647,0,0,1,1,2,2,5,5,8,8,9,9],"right_children":[2,4,6,-1,-1,8,-1,-1,10,12,-1,-1,-1],"split_conditions":[2.517959E-1,-4.5106667E-1,9.289376E-1,-1.2043092E-2,-3.410468E-3,-1.1274357E0,1.4211276E-2,1.2346611E-3,5.424531E-1,5.0253403E-1,6.3937334E-3,2.8724968E-3,8.4891974E-4],"split_indices":[20,20,20,0,0,26,0,0,20,21,0,0,0],"split_type":[0,0,0,0,0,0,0,0,0,0,0,0,0],"sum_hessian":[1.286E3,6.64E2,6.22E2,3.55E2,3.09E2,3.95E2,2.27E2,3.6E1,3.59E2,1.49E2,2.1E2,7.4E1,7.5E1],"tree_param":{"num_deleted":"0","num_feature":"27","num_nodes":"13","size_leaf_vector":"1"}},{"base_weights":[1.4668453E-2,-1.220524E-2,4.0206453E-1,-1.4365739E-1,1.1089104E0,-5.589761E-1,1.0940417E-1,8.1396115E-1,1.6115688E-2,-7.3845536E-3,-3.773686E-3,-3.064101E-2,2.995398E-3,6.270028E-3,1.0136747E-2,-9.10476E-4,4.639653E-4],"categories":[],"categories_nodes":[],"categories_segments":[],"categories_sizes":[],"default_left":[0,0,0,0,0,0,0,0,0,0,0,0,0,0,0,0,0],"id":3,"left_children":[1,-1,3,5,7,9,11,13,-1,-1,-1,15,-1,-1,-1,-1,-1],"loss_changes":[6.227089E2,0E0,3.8421176E2,5.961678E1,5.8565186E1,5.179077E0,9.598183E0,7.206375E0,0E0,0E0,0E0,9.882537E-1,0E0,0E0,0E0,0E0,0E0],"parents":[2147483647,0,0,2,2,3,3,4,4,5,5,6,6,7,7,11,11],"right_children":[2,-1,4,6,8,10,12,14,-1,-1,-1,16,-1,-1,-1,-1,-1],"split_conditions":[-8.050149E-1,-1.220524E-2,5.9484255E-1,1.8117578E-1,9.936386E-1,8.089291E-3,4.0399885E-1,7.7607703E-1,1.6115688E-2,-7.3845536E-3,-3.773686E-3,3.3019987E-1,2.995398E-3,6.270028E-3,1.0136747E-2,-9.10476E-4,4.639653E-4],"split_indices":[21,0,22,22,22,22,22,22,0,0,0,22,0,0,0,0,0],"split_type":[0,0,0,0,0,0,0,0,0,0,0,0,0,0,0,0,0],"sum_hessian":[1.298E3,3.08E2,9.9E2,5.59E2,4.31E2,2.12E2,3.47E2,2.77E2,1.54E2,1E2,1.12E2,1.98E2,1.49E2,1.51E2,1.26E2,1.18E2,8E1],"tree_param":{"num_deleted":"0","num_feature":"27","num_nodes":"17","size_leaf_vector":"1"}},{"base_weights":[9.0184E-3,-7.8670484E-1,7.975149E-1,-1.1765555E-2,-3.3404276E-1,4.0353984E-1,1.3533001E0,-5.341636E-3,-1.3370026E-3,1.6505986E-3,5.809425E-3,1.086284E-2,1.690019E-2],"categories":[],"categories_nodes":[],"categories_segments":[],"categories_sizes":[],"default_left":[0,0,0,0,0,0,0,0,0,0,0,0,0],"id":4,"left_children":[1,3,5,-1,7,9,11,-1,-1,-1,-1,-1,-1],"loss_changes":[7.93076E2,1.0841861E2,1.3603049E2,0E0,1.1000992E1,1.4942856E1,1.6145386E1,0E0,0E0,0E0,0E0,0E0,0E0],"parents":[2147483647,0,0,1,1,2,2,4,4,5,5,6,6],"right_children":[2,4,6,-1,8,10,12,-1,-1,-1,-1,-1,-1],"split_conditions":[3.3019987E-1,-1.1919446E-1,7.882818E-1,-1.1765555E-2,1.248431E-1,5.453914E-1,1.0682545E0,-5.341636E-3,-1.3370026E-3,1.6505986E-3,5.809425E-3,1.086284E-2,1.690019E-2],"split_indices":[22,22,22,0,22,22,22,0,0,0,0,0,0],"split_type":[0,0,0,0,0,0,0,0,0,0,0,0,0],"sum_hessian":[1.259E3,6.26E2,6.33E2,3.33E2,2.93E2,3.74E2,2.59E2,1.42E2,1.51E2,1.64E2,2.1E2,1.52E2,1.07E2],"tree_param":{"num_deleted":"0","num_feature":"27","num_nodes":"13","size_leaf_vector":"1"}},{"base_weights":[1.992692E-2,-7.494671E-1,8.3921057E-1,-1.1713196E-2,-3.2021838E-1,4.5925453E-1,1.3595035E0,-4.9441996E-1,-1.206887E-1,2.4827969E-1,6.4652187E-1,1.1656536E-2,1.7146468E-2,-5.944364E-3,-2.7185194E-3,-2.253455E-3,-4.2651145E-4,1.317972E-3,3.7212202E-3,5.117231E-3,7.85454E-3],"categories":[],"categories_nodes":[],"categories_segments":[],"categories_sizes":[],"default_left":[0,0,0,0,0,0,0,0,0,0,0,0,0,0,0,0,0,0,0,0,0],"id":5,"left_children":[1,3,5,-1,7,9,11,13,15,17,19,-1,-1,-1,-1,-1,-1,-1,-1,-1,-1],"loss_changes":[8.069367E2,1.169928E2,1.1928607E2,0E0,1.0758118E1,1.3065315E1,9.988129E0,2.5918999E0,1.0188048E0,1.9339895E0,1.2281952E0,0E0,0E0,0E0,0E0,0E0,0E0,0E0,0E0,0E0,0E0],"parents":[2147483647,0,0,1,1,2,2,4,4,5,5,6,6,7,7,8,8,9,9,10,10],"right_children":[2,4,6,-1,8,10,12,14,16,18,20,-1,-1,-1,-1,-1,-1,-1,-1,-1,-1],"split_conditions":[3.4968197E-1,-4.5106667E-1,8.913396E-1,-1.1713196E-2,-4.8152316E-2,5.8864987E-1,1.2655839E0,7.8058586E-2,2.437828E-1,4.7590283E-1,6.9109434E-1,1.1656536E-2,1.7146468E-2,-5.944364E-3,-2.7185194E-3,-2.253455E-3,-4.2651145E-4,1.317972E-3,3.7212202E-3,5.117231E-3,7.85454E-3],"split_indices":[22,20,20,0,20,20,20,22,22,22,22,0,0,0,0,0,0,0,0,0,0],"split_type":[0,0,0,0,0,0,0,0,0,0,0,0,0,0,0,0,0,0,0,0,0],"sum_hessian":[1.275E3,6.57E2,6.18E2,3.28E2,3.29E2,3.61E2,2.57E2,1.71E2,1.58E2,1.75E2,1.86E2,1.75E2,8.2E1,1.12E2,5.9E1,6E1,9.8E1,9.7E1,7.8E1,1.04E2,8.2E1],"tree_param":{"num_deleted":"0","num_feature":"27","num_nodes":"21","size_leaf_vector":"1"}},{"base_weights":[-1.2484118E-2,-7.800459E-1,7.843472E-1,-1.1511357E-2,-3.2766706E-1,3.8544023E-1,1.2894988E0,-5.012923E-1,-1.3199252E-1,1.6422038E-1,5.599281E-1,1.024108E-2,1.5676552E-2,-5.872372E-3,-3.5861474E-3,-1.5436147E-3,-0E0,6.033621E-4,2.3493343E-3,3.7406317E-3,6.128682E-3],"categories":[],"categories_nodes":[],"categories_segments":[],"categories_sizes":[],"default_left":[0,0,0,0,0,0,0,0,0,0,0,0,0,0,0,0,0,0,0,0,0],"id":6,"left_children":[1,3,5,-1,7,9,11,13,15,17,19,-1,-1,-1,-1,-1,-1,-1,-1,-1,-1],"loss_changes":[7.7675006E2,1.0627606E2,1.22521515E2,0E0,9.274599E0,1.2652542E1,1.351062E1,4.0994644E-1,4.0778732E-1,8.5566616E-1,3.4391785E-1,0E0,0E0,0E0,0E0,0E0,0E0,0E0,0E0,0E0,0E0],"parents":[2147483647,0,0,1,1,2,2,4,4,5,5,6,6,7,7,8,8,9,9,10,10],"right_children":[2,4,6,-1,8,10,12,14,16,18,20,-1,-1,-1,-1,-1,-1,-1,-1,-1,-1],"split_conditions":[3.3019987E-1,-1.1919446E-1,7.882818E-1,-1.1511357E-2,1.3952447E-1,5.453914E-1,1.0197512E0,4.4281267E-2,2.517959E-1,4.0399885E-1,5.9484255E-1,1.024108E-2,1.5676552E-2,-5.872372E-3,-3.5861474E-3,-1.5436147E-3,-0E0,6.033621E-4,2.3493343E-3,3.7406317E-3,6.128682E-3],"split_indices":[22,22,22,0,22,22,22,22,20,22,22,0,0,0,0,0,0,0,0,0,0],"split_type":[0,0,0,0,0,0,0,0,0,0,0,0,0,0,0,0,0,0,0,0,0],"sum_hessian":[1.265E3,6.45E2,6.2E2,3.51E2,2.94E2,3.5E2,2.7E2,1.51E2,1.43E2,1.59E2,1.91E2,1.46E2,1.24E2,8.5E1,6.6E1,1.21E2,2.2E1,7.2E1,8.7E1,5.1E1,1.4E2],"tree_param":{"num_deleted":"0","num_feature":"27","num_nodes":"21","size_leaf_vector":"1"}},{"base_weights":[2.511342E-2,-6.773736E-1,8.7397826E-1,-1.1261191E0,-2.3116423E-1,5.266522E-1,1.40199065E-2,-7.7151405E-3,-1.1708038E-2,-3.3737586E-3,-1.9543262E-3,3.4072436E-3,5.554258E-3],"categories":[],"categories_nodes":[],"categories_segments":[],"categories_sizes":[],"default_left":[0,0,0,0,0,0,0,0,0,0,0,0,0],"id":7,"left_children":[1,3,5,7,9,11,-1,-1,-1,-1,-1,-1,-1],"loss_changes":[7.5989307E2,1.3745523E2,1.0213455E2,1.2740173E0,6.439285E-1,5.2188873E-1,0E0,0E0,0E0,0E0,0E0,0E0,0E0],"parents":[2147483647,0,0,1,1,2,2,3,3,4,4,5,5],"right_children":[2,4,6,8,10,12,-1,-1,-1,-1,-1,-1,-1],"split_conditions":[4.0399885E-1,-9.563337E-2,8.765869E-1,1E0,-1.3784822E0,-5.973427E-1,1.40199065E-2,-7.7151405E-3,-1.1708038E-2,-3.3737586E-3,-1.9543262E-3,3.4072436E-3,5.554258E-3],"split_indices":[22,22,22,1,26,26,0,0,0,0,0,0,0],"split_type":[0,0,0,0,0,0,0,0,0,0,0,0,0],"sum_hessian":[1.269E3,6.94E2,5.75E2,3.43E2,3.51E2,3.51E2,2.24E2,4.6E1,2.97E2,7.6E1,2.75E2,5.6E1,2.95E2],"tree_param":{"num_deleted":"0","num_feature":"27","num_nodes":"13","size_leaf_vector":"1"}},{"base_weights":[-1.0177198E-2,-7.6939684E-1,7.522523E-1,-3.8176864E-1,-1.0318266E0,6.106783E-1,1.2356576E0,-6.2731374E-3,-1.6936049E-3,-1.1565729E-2,-3.308629E-3,3.1710954E-3,1.0717303E-2,7.3885024E-3,1.5564393E-2],"categories":[],"categories_nodes":[],"categories_segments":[],"categories_sizes":[],"default_left":[0,0,0,0,0,0,0,0,0,0,0,0,0,0,0],"id":8,"left_children":[1,3,5,7,9,11,13,-1,-1,-1,-1,-1,-1,-1,-1],"loss_changes":[7.4615643E2,6.3366943E1,4.0238342E1,1.2837238E1,3.1002686E1,6.591046E1,1.7380173E1,0E0,0E0,0E0,0E0,0E0,0E0,0E0,0E0],"parents":[2147483647,0,0,1,1,2,2,3,3,4,4,5,5,6,6],"right_children":[2,4,6,8,10,12,14,-1,-1,-1,-1,-1,-1,-1,-1],"split_conditions":[3.3019987E-1,-1.5230572E-1,1.2508934E0,7.8058586E-2,-9.563337E-2,7.102088E-1,9.6041536E-1,-6.2731374E-3,-1.6936049E-3,-1.1565729E-2,-3.308629E-3,3.1710954E-3,1.0717303E-2,7.3885024E-3,1.5564393E-2],"split_indices":[22,25,26,22,22,22,22,0,0,0,0,0,0,0,0],"split_type":[0,0,0,0,0,0,0,0,0,0,0,0,0,0,0],"sum_hessian":[1.284E3,6.44E2,6.4E2,2.64E2,3.8E2,5.01E2,1.39E2,1.18E2,1.46E2,3.2E2,6E1,3.1E2,1.91E2,5.9E1,8E1],"tree_param":{"num_deleted":"0","num_feature":"27","num_nodes":"15","size_leaf_vector":"1"}},{"base_weights":[-5.0389683E-3,-7.572677E-1,7.6120025E-1,-1.1166935E-2,-2.94184E-1,3.8285604E-1,1.2798232E0,-4.8870635E-3,-1.06225446E-1,1.695346E-1,5.800508E-3,1.0291768E-2,1.5974116E-2,-1.5048531E-3,6.905376E-4,2.7033384E-4,2.5688487E-3],"categories":[],"categories_nodes":[],"categories_segments":[],"categories_sizes":[],"default_left":[0,0,0,0,0,0,0,0,0,0,0,0,0,0,0,0,0],"id":9,"left_children":[1,3,5,-1,7,9,11,-1,13,15,-1,-1,-1,-1,-1,-1,-1],"loss_changes":[7.3085516E2,1.0437537E2,1.20239136E2,0E0,9.677219E0,1.4463776E1,1.4158997E1,0E0,1.274965E0,1.9703927E0,0E0,0E0,0E0,0E0,0E0,0E0,0E0],"parents":[2147483647,0,0,1,1,2,2,4,4,5,5,6,6,8,8,9,9],"right_children":[2,4,6,-1,8,10,12,-1,14,16,-1,-1,-1,-1,-1,-1,-1],"split_conditions":[2.517959E-1,-1.1919446E-1,7.882818E-1,-1.1166935E-2,1.3952447E-1,5.582141E-1,1.0682545E0,-4.8870635E-3,3.3019987E-1,4.0399885E-1,5.800508E-3,1.0291768E-2,1.5974116E-2,-1.5048531E-3,6.905376E-4,2.7033384E-4,2.5688487E-3],"split_indices":[20,22,22,0,22,22,22,0,22,22,0,0,0,0,0,0,0],"split_type":[0,0,0,0,0,0,0,0,0,0,0,0,0,0,0,0,0],"sum_hessian":[1.263E3,6.38E2,6.25E2,3.56E2,2.82E2,3.65E2,2.6E2,1.34E2,1.48E2,1.8E2,1.85E2,1.53E2,1.07E2,1.23E2,2.5E1,7.4E1,1.06E2],"tree_param":{"num_deleted":"0","num_feature":"27","num_nodes":"17","size_leaf_vector":"1"}},{"base_weights":[7.882265E-3,-7.390057E-1,7.447647E-1,-1.1096138E-2,-3.2009878E-3,3.7522067E-3,1.2540053E-2],"categories":[],"categories_nodes":[],"categories_segments":[],"categories_sizes":[],"default_left":[0,0,0,0,0,0,0],"id":10,"left_children":[1,3,5,-1,-1,-1,-1],"loss_changes":[7.0833014E2,9.680963E1,1.1923361E2,0E0,0E0,0E0,0E0],"parents":[2147483647,0,0,1,1,2,2],"right_children":[2,4,6,-1,-1,-1,-1],"split_conditions":[3.3019987E-1,-1.1919446E-1,7.882818E-1,-1.1096138E-2,-3.2009878E-3,3.7522067E-3,1.2540053E-2],"split_indices":[22,22,22,0,0,0,0],"split_type":[0,0,0,0,0,0,0],"sum_hessian":[1.282E3,6.36E2,6.46E2,3.34E2,3.02E2,3.78E2,2.68E2],"tree_param":{"num_deleted":"0","num_feature":"27","num_nodes":"7","size_leaf_vector":"1"}},{"base_weights":[1.2738337E-2,-8.040613E-1,6.7535675E-1,-1.0961062E-2,-3.6098376E-1,2.954674E-1,1.233608E-2,-7.277144E-2,-3.8072678E-1,1.07056715E-1,3.2126227E-1,-1.6422463E-3,1.9349385E-4,-4.9524615E-3,-1.8141862E-3,-0E0,2.782215E-3,4.3178674E-2,4.844393E-1,-9.601523E-5,1.1235538E-3,3.2244658E-3,5.633776E-3],"categories":[],"categories_nodes":[],"categories_segments":[],"categories_sizes":[],"default_left":[0,0,0,0,0,0,0,0,0,0,0,0,0,0,0,0,0,0,0,0,0,0,0],"id":11,"left_children":[1,3,5,-1,7,9,-1,11,13,15,17,-1,-1,-1,-1,-1,-1,19,21,-1,-1,-1,-1],"loss_changes":[7.045527E2,7.2928375E1,1.501467E2,0E0,8.229656E-1,1.5876617E0,0E0,3.3395132E-1,4.0630836E0,9.708557E-1,1.6413723E1,0E0,0E0,0E0,0E0,0E0,0E0,6.293924E-1,1.6458931E0,0E0,0E0,0E0,0E0],"parents":[2147483647,0,0,1,1,2,2,4,4,5,5,7,7,8,8,9,9,10,10,17,17,18,18],"right_children":[2,4,6,-1,8,10,-1,12,14,16,18,-1,-1,-1,-1,-1,-1,20,22,-1,-1,-1,-1],"split_conditions":[1.5732448E-1,-1.1919446E-1,7.5933266E-1,-1.0961062E-2,3.2404076E-2,-1.1103709E0,1.233608E-2,-3.5617713E-2,1.248431E-1,4.291183E-1,4.7590283E-1,-1.6422463E-3,1.9349385E-4,-4.9524615E-3,-1.8141862E-3,-0E0,2.782215E-3,3.59149E-1,5.889188E-1,-9.601523E-5,1.1235538E-3,3.2244658E-3,5.633776E-3],"split_indices":[20,22,22,0,21,26,0,20,22,22,22,0,0,0,0,0,0,22,22,0,0,0,0],"split_type":[0,0,0,0,0,0,0,0,0,0,0,0,0,0,0,0,0,0,0,0,0,0,0],"sum_hessian":[1.297E3,5.8E2,7.17E2,3.46E2,2.34E2,4.3E2,2.87E2,1.9E1,2.15E2,5.8E1,3.72E2,1.4E1,5E0,1.31E2,8.4E1,3.9E1,1.9E1,1.41E2,2.31E2,7.3E1,6.8E1,8.4E1,1.47E2],"tree_param":{"num_deleted":"0","num_feature":"27","num_nodes":"23","size_leaf_vector":"1"}},{"base_weights":[-1.2124902E-2,-1.1187507E-2,3.3526695E-1,3.156389E-1,1.2687662E-2,-1.6191027E-3,9.4964844E-1,5.819879E-3,9.746881E-1,6.6702687E-3,1.3409022E-2],"categories":[],"categories_nodes":[],"categories_segments":[],"categories_sizes":[],"default_left":[0,0,0,0,0,0,0,0,0,0,0],"id":12,"left_children":[1,-1,3,5,-1,-1,7,-1,9,-1,-1],"loss_changes":[5.0090714E2,0E0,1.5544792E1,2.9591943E2,0E0,0E0,8.87146E-1,0E0,3.9302917E1,0E0,0E0],"parents":[2147483647,0,0,2,2,3,3,6,6,8,8],"right_children":[2,-1,4,6,-1,-1,8,-1,10,-1,-1],"split_conditions":[-8.050149E-1,-1.1187507E-2,2.1827276E0,5.768594E-1,1.2687662E-2,-1.6191027E-3,-9.8597604E-1,5.819879E-3,1.0341935E0,6.6702687E-3,1.3409022E-2],"split_indices":[21,0,24,22,0,0,24,0,20,0,0],"split_type":[0,0,0,0,0,0,0,0,0,0,0],"sum_hessian":[1.296E3,3.09E2,9.87E2,9.71E2,1.6E1,5.54E2,4.17E2,3.3E1,3.84E2,2.14E2,1.7E2],"tree_param":{"num_deleted":"0","num_feature":"27","num_nodes":"11","size_leaf_vector":"1"}},{"base_weights":[6.199609E-3,-6.9396544E-1,7.5856054E-1,-1.0719084E-2,-2.8069748E-3,3.9600882E-1,1.2354026E-2,6.9784623E-4,4.0391713E-1,2.2433396E-1,5.8868667E-3,1.1108178E-3,3.14127E-3],"categories":[],"categories_nodes":[],"categories_segments":[],"categories_sizes":[],"default_left":[0,0,0,0,0,0,0,0,0,0,0,0,0],"id":13,"left_children":[1,3,5,-1,-1,7,-1,-1,9,11,-1,-1,-1],"loss_changes":[6.7960583E2,1.0215314E2,1.04763245E2,0E0,0E0,3.8071823E-1,0E0,0E0,1.0354218E1,1.3434458E0,0E0,0E0,0E0],"parents":[2147483647,0,0,1,1,2,2,5,5,8,8,9,9],"right_children":[2,4,6,-1,-1,8,-1,-1,10,12,-1,-1,-1],"split_conditions":[3.4968197E-1,-1.1919446E-1,8.0019933E-1,-1.0719084E-2,-2.8069748E-3,-1.3099749E0,1.2354026E-2,6.9784623E-4,5.889188E-1,4.7590283E-1,5.8868667E-3,1.1108178E-3,3.14127E-3],"split_indices":[22,22,22,0,0,26,0,0,22,22,0,0,0],"split_type":[0,0,0,0,0,0,0,0,0,0,0,0,0],"sum_hessian":[1.285E3,6.65E2,6.2E2,3.44E2,3.21E2,3.56E2,2.64E2,1.2E1,3.44E2,1.8E2,1.64E2,8.7E1,9.3E1],"tree_param":{"num_deleted":"0","num_feature":"27","num_nodes":"13","size_leaf_vector":"1"}},{"base_weights":[3.24685E-3,-7.406352E-1,6.998632E-1,-1.0628296E-2,-3.2374868E-1,3.4870258E-1,1.2167271E0,-4.8813415E-3,-1.3387816E-1,1.0409529E-1,5.069135E-1,1.003479E-2,1.562667E-2,-1.891321E-3,-4.1037216E-4,2.558083E-4,1.9133853E-3,3.441288E-3,5.8448E-3],"categories":[],"categories_nodes":[],"categories_segments":[],"categories_sizes":[],"default_left":[0,0,0,0,0,0,0,0,0,0,0,0,0,0,0,0,0,0,0],"id":14,"left_children":[1,3,5,-1,7,9,11,-1,13,15,17,-1,-1,-1,-1,-1,-1,-1,-1],"loss_changes":[6.731019E2,8.2038055E1,1.19252655E2,0E0,7.9071426E0,1.4911041E1,1.3394897E1,0E0,4.4551897E-1,8.976456E-1,1.6305122E0,0E0,0E0,0E0,0E0,0E0,0E0,0E0,0E0],"parents":[2147483647,0,0,1,1,2,2,4,4,5,5,6,6,8,8,9,9,10,10],"right_children":[2,4,6,-1,8,10,12,-1,14,16,18,-1,-1,-1,-1,-1,-1,-1,-1],"split_conditions":[3.0993828E-1,-1.1919446E-1,7.882818E-1,-1.0628296E-2,1.248431E-1,5.118379E-1,1.0930754E0,-4.8813415E-3,2.437828E-1,4.0399885E-1,6.0069776E-1,1.003479E-2,1.562667E-2,-1.891321E-3,-4.1037216E-4,2.558083E-4,1.9133853E-3,3.441288E-3,5.8448E-3],"split_indices":[22,22,22,0,22,22,22,0,22,22,22,0,0,0,0,0,0,0,0],"split_type":[0,0,0,0,0,0,0,0,0,0,0,0,0,0,0,0,0,0,0],"sum_hessian":[1.294E3,6.25E2,6.69E2,3.49E2,2.76E2,4.02E2,2.67E2,1.43E2,1.33E2,1.62E2,2.4E2,1.73E2,9.4E1,7.5E1,5.8E1,9.3E1,6.9E1,8.6E1,1.54E2],"tree_param":{"num_deleted":"0","num_feature":"27","num_nodes":"19","size_leaf_vector":"1"}},{"base_weights":[-1.2519574E-2,-6.758251E-1,3.3423042E-1,-1.0837608E-2,3.0815414E-1,4.427846E-1,1.563108E-1,-7.746878E-4,3.5686666E-1,1.4113751E-1,4.8427528E-1,-1.2898463E-1,2.0508218E-1,-8.417627E-2,6.299306E-1,-9.4964396E-4,2.9287064E-1,1.10665254E-1,9.6397716E-1,-2.6912177E-3,-0E0,-2.5504294E-1,5.178037E-1,4.943706E-4,-2.500165E-3,-0E0,6.5771895E-3,3.338385E-3,-0E0,2.6233976E-3,3.256169E-4,9.836227E-3,-0E0,1.3583E-3,-1.448816E-3,-1.3302768E-3,-4.197736E-3,-0E0,5.320196E-3],"categories":[],"categories_nodes":[],"categories_segments":[],"categories_sizes":[],"default_left":[0,0,0,0,0,0,0,0,0,0,0,0,0,0,0,0,0,0,0,0,0,0,0,0,0,0,0,0,0,0,0,0,0,0,0,0,0,0,0],"id":15,"left_children":[1,3,5,-1,7,9,11,-1,13,15,17,19,21,23,25,-1,27,29,31,-1,33,35,37,-1,-1,-1,-1,-1,-1,-1,-1,-1,-1,-1,-1,-1,-1,-1,-1],"loss_changes":[2.9749283E2,1.8003291E2,1.5596428E1,0E0,2.818697E0,5.7305603E0,4.7130623E0,0E0,1.5070054E1,2.7572384E0,8.011479E1,1.0732542E0,4.152992E1,1.2618484E0,1.4037266E0,0E0,6.1096835E-1,2.7578633E0,3.6866302E0,0E0,5.03833E-1,1.6291041E0,8.612213E-1,0E0,0E0,0E0,0E0,0E0,0E0,0E0,0E0,0E0,0E0,0E0,0E0,0E0,0E0,0E0,0E0],"parents":[2147483647,0,0,1,1,2,2,4,4,5,5,6,6,8,8,9,9,10,10,11,11,12,12,13,13,14,14,16,16,17,17,18,18,20,20,21,21,22,22],"right_children":[2,4,6,-1,8,10,12,-1,14,16,18,20,22,24,26,-1,28,30,32,-1,34,36,38,-1,-1,-1,-1,-1,-1,-1,-1,-1,-1,-1,-1,-1,-1,-1,-1],"split_conditions":[1E0,1E0,6.4944965E-1,-1.0837608E-2,-9.8597604E-1,-9.8597604E-1,-9.8597604E-1,-7.746878E-4,3.8189456E-1,-7.8206223E-1,2.7090967E-1,-6.847467E-1,-5.7247585E-1,6.5194887E-1,1.15779154E-1,-9.4964396E-4,1E0,-8.063219E-2,1.9923732E0,-2.6912177E-3,1E0,9.3593514E-1,6.6414124E-1,4.943706E-4,-2.500165E-3,-0E0,6.5771895E-3,3.338385E-3,-0E0,2.6233976E-3,3.256169E-4,9.836227E-3,-0E0,1.3583E-3,-1.448816E-3,-1.3302768E-3,-4.197736E-3,-0E0,5.320196E-3],"split_indices":[18,0,21,0,24,24,24,0,26,26,26,26,26,25,25,0,0,24,25,0,0,21,21,0,0,0,0,0,0,0,0,0,0,0,0,0,0,0,0],"split_type":[0,0,0,0,0,0,0,0,0,0,0,0,0,0,0,0,0,0,0,0,0,0,0,0,0,0,0,0,0,0,0,0,0,0,0,0,0,0,0],"sum_hessian":[1.287E3,4.42E2,8.45E2,3.13E2,1.29E2,5.19E2,3.26E2,1.2E1,1.17E2,6.7E1,4.52E2,4.4E1,2.82E2,4.4E1,7.3E1,2.4E1,4.3E1,2.57E2,1.95E2,2.3E1,2.1E1,1.13E2,1.69E2,2.2E1,2.2E1,3E0,7E1,3.8E1,5E0,8.1E1,1.76E2,1.91E2,4E0,1.4E1,7E0,7.1E1,4.2E1,6E0,1.63E2],"tree_param":{"num_deleted":"0","num_feature":"27","num_nodes":"39","size_leaf_vector":"1"}},{"base_weights":[5.9997807E-3,-6.982844E-1,7.183066E-1,-3.5678786E-1,-1.0716316E-2,5.6837404E-1,1.1910641E0,-6.1076074E-3,-2.0274961E-1,3.5670897E-1,1.0853751E0,6.5220445E-1,1.4437029E-2,-3.0376771E-3,-6.7319436E-4,9.292943E-4,4.88686E-1,7.996331E-3,1.20304655E-2,-0E0,6.8534547E-3,3.20567E-3,5.4992484E-3],"categories":[],"categories_nodes":[],"categories_segments":[],"categories_sizes":[],"default_left":[0,0,0,0,0,0,0,0,0,0,0,0,0,0,0,0,0,0,0,0,0,0,0],"id":16,"left_children":[1,3,5,7,-1,9,11,-1,13,15,17,19,-1,-1,-1,-1,21,-1,-1,-1,-1,-1,-1],"loss_changes":[6.5469446E2,8.118988E1,4.2585846E1,1.2471649E1,0E0,5.2250824E1,1.6310974E1,0E0,2.621789E0,1.1820065E1,3.8368225E-1,5.370712E-1,0E0,0E0,0E0,0E0,1.1236534E0,0E0,0E0,0E0,0E0,0E0,0E0],"parents":[2147483647,0,0,1,1,2,2,3,3,5,5,6,6,8,8,9,9,10,10,11,11,16,16],"right_children":[2,4,6,8,-1,10,12,-1,14,16,18,20,-1,-1,-1,-1,22,-1,-1,-1,-1,-1,-1],"split_conditions":[2.517959E-1,1E0,1.1869279E0,-1.8231168E-1,-1.0716316E-2,8.591945E-1,1.1013639E0,-6.1076074E-3,5.9430134E-2,4.1467753E-1,1.0247357E0,5.8864987E-1,1.4437029E-2,-3.0376771E-3,-6.7319436E-4,9.292943E-4,5.8864987E-1,7.996331E-3,1.20304655E-2,-0E0,6.8534547E-3,3.20567E-3,5.4992484E-3],"split_indices":[20,1,26,20,0,20,20,0,20,20,20,20,0,0,0,0,20,0,0,0,0,0,0],"split_type":[0,0,0,0,0,0,0,0,0,0,0,0,0,0,0,0,0,0,0,0,0,0,0],"sum_hessian":[1.3E3,6.53E2,6.47E2,3.45E2,3.08E2,4.97E2,1.5E2,1.25E2,2.2E2,3.57E2,1.4E2,5.2E1,9.8E1,1.2E2,1E2,1.23E2,2.34E2,4.9E1,9.1E1,4E0,4.8E1,7.1E1,1.63E2],"tree_param":{"num_deleted":"0","num_feature":"27","num_nodes":"23","size_leaf_vector":"1"}},{"base_weights":[1.7474206E-2,-6.948685E-1,6.972462E-1,-9.846426E-1,-2.3520967E-1,3.5434788E-1,1.185049E0,-1.0558724E-2,-6.401946E-3,-3.624714E-3,-7.8684743E-4,1.3527134E-1,4.8976132E-1,9.638261E-3,1.5230078E-2,4.5927014E-4,2.100309E-3,3.4480428E-3,5.6027398E-3],"categories":[],"categories_nodes":[],"categories_segments":[],"categories_sizes":[],"default_left":[0,0,0,0,0,0,0,0,0,0,0,0,0,0,0,0,0,0,0],"id":17,"left_children":[1,3,5,7,9,11,13,-1,-1,-1,-1,15,17,-1,-1,-1,-1,-1,-1],"loss_changes":[6.3386096E2,8.324759E1,1.0956317E2,6.1703796E0,4.497328E0,1.1031208E1,1.436615E1,0E0,0E0,0E0,0E0,7.786026E-1,1.0906258E0,0E0,0E0,0E0,0E0,0E0,0E0],"parents":[2147483647,0,0,1,1,2,2,3,3,4,4,5,5,6,6,11,11,12,12],"right_children":[2,4,6,8,10,12,14,-1,-1,-1,-1,16,18,-1,-1,-1,-1,-1,-1],"split_conditions":[3.3019987E-1,-1.1025134E-2,8.0019933E-1,-2.2621663E-1,1.8117578E-1,5.118379E-1,1.0930754E0,-1.0558724E-2,-6.401946E-3,-3.624714E-3,-7.8684743E-4,4.0399885E-1,6.0069776E-1,9.638261E-3,1.5230078E-2,4.5927014E-4,2.100309E-3,3.4480428E-3,5.6027398E-3],"split_indices":[22,22,22,22,22,22,22,0,0,0,0,22,22,0,0,0,0,0,0],"split_type":[0,0,0,0,0,0,0,0,0,0,0,0,0,0,0,0,0,0,0],"sum_hessian":[1.304E3,6.36E2,6.68E2,3.87E2,2.49E2,3.96E2,2.72E2,3.14E2,7.3E1,1.32E2,1.17E2,1.56E2,2.4E2,1.72E2,1E2,7.9E1,7.7E1,8.8E1,1.52E2],"tree_param":{"num_deleted":"0","num_feature":"27","num_nodes":"19","size_leaf_vector":"1"}},{"base_weights":[-0E0,-7.391203E-1,6.422844E-1,-1.0262137E-2,-3.4537044E-1,2.7117652E-1,1.1309564E0,-4.990434E-3,-2.6517832E-1,7.5755306E-2,4.3036354E-1,9.806883E-1,1.5191249E-2,-3.786808E-3,-1.5438239E-3,3.8581107E-5,1.8066968E-3,2.8795283E-3,5.1651704E-3,8.045117E-3,1.1121138E-2],"categories":[],"categories_nodes":[],"categories_segments":[],"categories_sizes":[],"default_left":[0,0,0,0,0,0,0,0,0,0,0,0,0,0,0,0,0,0,0,0,0],"id":18,"left_children":[1,3,5,-1,7,9,11,-1,13,15,17,19,-1,-1,-1,-1,-1,-1,-1,-1,-1],"loss_changes":[6.066046E2,6.483334E1,1.2196527E2,0E0,2.0535583E0,1.1653578E1,1.0895386E1,0E0,1.5529547E0,1.1903361E0,1.4431648E0,9.520874E-1,0E0,0E0,0E0,0E0,0E0,0E0,0E0,0E0,0E0],"parents":[2147483647,0,0,1,1,2,2,4,4,5,5,6,6,8,8,9,9,10,10,11,11],"right_children":[2,4,6,-1,8,10,12,-1,14,16,18,20,-1,-1,-1,-1,-1,-1,-1,-1,-1],"split_conditions":[2.7793995E-1,-1.1919446E-1,7.4201566E-1,-1.0262137E-2,-1.8231168E-1,4.1467753E-1,1.2655839E0,-4.990434E-3,1.3952447E-1,3.95341E-1,5.889188E-1,9.2791915E-1,1.5191249E-2,-3.786808E-3,-1.5438239E-3,3.8581107E-5,1.8066968E-3,2.8795283E-3,5.1651704E-3,8.045117E-3,1.1121138E-2],"split_indices":[22,22,22,0,20,20,20,0,22,22,22,22,0,0,0,0,0,0,0,0,0],"split_type":[0,0,0,0,0,0,0,0,0,0,0,0,0,0,0,0,0,0,0,0,0],"sum_hessian":[1.273E3,5.91E2,6.82E2,3.38E2,2.53E2,3.91E2,2.91E2,7.8E1,1.75E2,1.8E2,2.11E2,2.18E2,7.3E1,7.9E1,9.6E1,1.14E2,6.6E1,8.8E1,1.23E2,1.04E2,1.14E2],"tree_param":{"num_deleted":"0","num_feature":"27","num_nodes":"21","size_leaf_vector":"1"}},{"base_weights":[-1.4727066E-2,-6.9068116E-1,6.811097E-1,-3.5331666E-1,-1.0374916E-2,4.054252E-1,7.070575E-1,-6.0614822E-3,-2.0458333E-1,8.437645E-4,5.464404E-3,3.859528E-1,1.2153593E0,-2.803799E-1,-4.870215E-4,1.7238657E-1,5.50393E-1,1.0437289E-2,1.5177418E-2,-3.4078264E-3,-1.2637139E-3,4.3211557E-4,2.5087886E-3,4.429205E-3,6.733575E-3],"categories":[],"categories_nodes":[],"categories_segments":[],"categories_sizes":[],"default_left":[0,0,0,0,0,0,0,0,0,0,0,0,0,0,0,0,0,0,0,0,0,0,0,0,0],"id":19,"left_children":[1,3,5,7,-1,9,11,-1,13,-1,-1,15,17,19,-1,21,23,-1,-1,-1,-1,-1,-1,-1,-1],"loss_changes":[6.0347363E2,7.391928E1,2.6882324E0,1.1495552E1,0E0,2.1287365E0,9.034195E1,0E0,2.2065992E0,0E0,0E0,1.1489658E1,4.817993E0,7.414932E-1,0E0,1.3061557E0,7.349243E-1,0E0,0E0,0E0,0E0,0E0,0E0,0E0,0E0],"parents":[2147483647,0,0,1,1,2,2,3,3,5,5,6,6,8,8,11,11,12,12,13,13,15,15,16,16],"right_children":[2,4,6,8,-1,10,12,-1,14,-1,-1,16,18,20,-1,22,24,-1,-1,-1,-1,-1,-1,-1,-1],"split_conditions":[3.3019987E-1,1E0,-9.8597604E-1,-1.8231168E-1,-1.0374916E-2,4.823987E-1,9.3773395E-1,-6.0614822E-3,1.3201013E-1,8.437645E-4,5.464404E-3,5.424531E-1,1.2655839E0,1.8117578E-1,-4.870215E-4,4.0399885E-1,6.9109434E-1,1.0437289E-2,1.5177418E-2,-3.4078264E-3,-1.2637139E-3,4.3211557E-4,2.5087886E-3,4.429205E-3,6.733575E-3],"split_indices":[22,1,24,20,0,20,20,0,20,0,0,20,20,22,0,22,22,0,0,0,0,0,0,0,0],"split_type":[0,0,0,0,0,0,0,0,0,0,0,0,0,0,0,0,0,0,0,0,0,0,0,0,0],"sum_hessian":[1.278E3,6.49E2,6.29E2,3.33E2,3.16E2,6.1E1,5.68E2,1.18E2,2.15E2,2.2E1,3.9E1,3.52E2,2.16E2,1.39E2,7.6E1,1.58E2,1.94E2,1.47E2,6.9E1,9.3E1,4.6E1,6.6E1,9.2E1,1.14E2,8E1],"tree_param":{"num_deleted":"0","num_feature":"27","num_nodes":"25","size_leaf_vector":"1"}},{"base_weights":[-1.280424E-2,-6.4302874E-1,3.230886E-1,-9.9696434E-1,4.9686322E-1,-1.281609E-1,9.334725E-1,-1.0335032E-2,-4.4545233E-3,2.768254E-1,8.328255E-1,-3.6806196E-1,-5.835758E-2,8.117458E-1,1.1727206E0,-0E0,5.3353542E-3,1.1304936E-3,1.0031653E-2,-5.4832995E-3,-3.2929942E-2,-3.9408293E-1,1.4513572E-1,6.273216E-1,1.1784186E-2,7.549632E-3,1.484059E-2,-1.1010405E-3,4.9765984E-4,-5.3752856E-3,-2.014335E-3,-0E0,2.4985685E-3,4.8460066E-3,7.2684777E-3],"categories":[],"categories_nodes":[],"categories_segments":[],"categories_sizes":[],"default_left":[0,0,0,0,0,0,0,0,0,0,0,0,0,0,0,0,0,0,0,0,0,0,0,0,0,0,0,0,0,0,0,0,0,0,0],"id":20,"left_children":[1,3,5,7,9,11,13,-1,-1,15,17,19,21,23,25,-1,-1,-1,-1,-1,27,29,31,33,-1,-1,-1,-1,-1,-1,-1,-1,-1,-1,-1],"loss_changes":[2.7338745E2,1.8308852E2,2.3260785E2,4.312317E0,6.260853E0,7.6332655E0,6.076233E0,0E0,0E0,5.2721753E0,3.443224E0,5.7472315E0,2.64552E1,1.3150543E1,9.592148E0,0E0,0E0,0E0,0E0,0E0,3.3888906E-1,3.0388336E0,3.8308363E0,3.5823822E-1,0E0,0E0,0E0,0E0,0E0,0E0,0E0,0E0,0E0,0E0,0E0],"parents":[2147483647,0,0,1,1,2,2,3,3,4,4,5,5,6,6,9,9,10,10,11,11,12,12,13,13,14,14,20,20,21,21,22,22,23,23],"right_children":[2,4,6,8,10,12,14,-1,-1,16,18,20,22,24,26,-1,-1,-1,-1,-1,28,30,32,34,-1,-1,-1,-1,-1,-1,-1,-1,-1,-1,-1],"split_conditions":[1E0,1.3952447E-1,5.9484255E-1,1E0,9.028528E-1,-1.3255996E0,1.1869279E0,-1.0335032E-2,-4.4545233E-3,4.9058422E-1,6.558034E-1,1.09723404E-1,2.437828E-1,9.2791915E-1,1.0248159E0,-0E0,5.3353542E-3,1.1304936E-3,1.0031653E-2,-5.4832995E-3,3.0993828E-1,7.8058586E-2,3.8653257E-1,7.102088E-1,1.1784186E-2,7.549632E-3,1.484059E-2,-1.1010405E-3,4.9765984E-4,-5.3752856E-3,-2.014335E-3,-0E0,2.4985685E-3,4.8460066E-3,7.2684777E-3],"split_indices":[18,22,22,0,26,26,26,0,0,22,22,22,22,22,22,0,0,0,0,0,22,22,22,22,0,0,0,0,0,0,0,0,0,0,0],"split_type":[0,0,0,0,0,0,0,0,0,0,0,0,0,0,0,0,0,0,0,0,0,0,0,0,0,0,0,0,0,0,0,0,0,0,0],"sum_hessian":[1.285E3,4.47E2,8.38E2,3.42E2,1.05E2,4.82E2,3.56E2,3.17E2,2.5E1,6.8E1,3.7E1,1.03E2,3.79E2,2.46E2,1.1E2,3.3E1,3.5E1,9E0,2.8E1,6.4E1,3.9E1,1.44E2,2.35E2,1.7E2,7.6E1,5.2E1,5.8E1,2.6E1,1.3E1,7.7E1,6.7E1,9.6E1,1.39E2,8E1,9E1],"tree_param":{"num_deleted":"0","num_feature":"27","num_nodes":"35","size_leaf_vector":"1"}},{"base_weights":[-1.6610082E-2,-7.387435E-1,6.195233E-1,-1.0034069E-2,-3.5765302E-1,3.16236E-1,1.1664528E0,-5.4392973E-3,-2.1506871E-1,1.3971034E-1,5.658012E-3,9.537139E-3,1.4769619E-2,-2.585286E-3,-1.3819763E-5,6.0883765E-5,2.5201286E-3],"categories":[],"categories_nodes":[],"categories_segments":[],"categories_sizes":[],"default_left":[0,0,0,0,0,0,0,0,0,0,0,0,0,0,0,0,0],"id":21,"left_children":[1,3,5,-1,7,9,11,-1,13,15,-1,-1,-1,-1,-1,-1,-1],"loss_changes":[5.83519E2,5.780432E1,1.09479004E2,0E0,5.5753E0,1.841484E1,9.802551E0,0E0,1.1182871E0,3.6771603E0,0E0,0E0,0E0,0E0,0E0,0E0,0E0],"parents":[2147483647,0,0,1,1,2,2,4,4,5,5,6,6,8,8,9,9],"right_children":[2,4,6,-1,8,10,12,-1,14,16,-1,-1,-1,-1,-1,-1,-1],"split_conditions":[1.5732448E-1,-4.5106667E-1,9.14016E-1,-1.0034069E-2,4.4281267E-2,5.889188E-1,1.0996388E0,-5.4392973E-3,2.437828E-1,4.0399885E-1,5.658012E-3,9.537139E-3,1.4769619E-2,-2.585286E-3,-1.3819763E-5,6.0883765E-5,2.5201286E-3],"split_indices":[20,20,20,0,22,22,22,0,22,22,0,0,0,0,0,0,0],"split_type":[0,0,0,0,0,0,0,0,0,0,0,0,0,0,0,0,0],"sum_hessian":[1.265E3,5.93E2,6.72E2,3.46E2,2.47E2,4.36E2,2.36E2,1.01E2,1.46E2,2.6E2,1.76E2,1.48E2,8.8E1,1.17E2,2.9E1,1.24E2,1.36E2],"tree_param":{"num_deleted":"0","num_feature":"27","num_nodes":"17","size_leaf_vector":"1"}},{"base_weights":[1.16595365E-2,-6.645592E-1,6.840372E-1,-9.751475E-1,-2.8104132E-1,3.7845445E-1,1.1983554E0,-1.0104969E-2,-6.519204E-3,-4.331938E-3,-1.0670853E-1,1.9812243E-1,5.6366525E-3,1.02243405E-2,1.573096E-2,-1.5871074E-3,-1.8888226E-4,5.001209E-4,2.6485666E-3],"categories":[],"categories_nodes":[],"categories_segments":[],"categories_sizes":[],"default_left":[0,0,0,0,0,0,0,0,0,0,0,0,0,0,0,0,0,0,0],"id":22,"left_children":[1,3,5,7,9,11,13,-1,-1,-1,15,17,-1,-1,-1,-1,-1,-1,-1],"loss_changes":[5.6836224E2,7.2208466E1,9.591153E1,5.9262085E-1,6.86442E0,1.22687E1,8.645111E0,0E0,0E0,0E0,4.4741523E-1,1.7128363E0,0E0,0E0,0E0,0E0,0E0,0E0,0E0],"parents":[2147483647,0,0,1,1,2,2,3,3,4,4,5,5,6,6,10,10,11,11],"right_children":[2,4,6,8,10,12,14,-1,-1,-1,16,18,-1,-1,-1,-1,-1,-1,-1],"split_conditions":[3.3019987E-1,-9.563337E-2,8.663548E-1,-2.8960827E-1,1.3952447E-1,5.889188E-1,1.166725E0,-1.0104969E-2,-6.519204E-3,-4.331938E-3,2.5542635E-1,4.125112E-1,5.6366525E-3,1.02243405E-2,1.573096E-2,-1.5871074E-3,-1.8888226E-4,5.001209E-4,2.6485666E-3],"split_indices":[22,22,22,22,22,22,22,0,0,0,22,22,0,0,0,0,0,0,0],"split_type":[0,0,0,0,0,0,0,0,0,0,0,0,0,0,0,0,0,0,0],"sum_hessian":[1.245E3,6.2E2,6.25E2,3.39E2,2.81E2,3.96E2,2.29E2,2.98E2,4.1E1,1.45E2,1.36E2,2.06E2,1.9E2,1.64E2,6.5E1,7.7E1,5.9E1,7E1,1.36E2],"tree_param":{"num_deleted":"0","num_feature":"27","num_nodes":"19","size_leaf_vector":"1"}},{"base_weights":[-2.6873644E-3,-6.592311E-1,6.604647E-1,-9.694759E-3,-2.7046612E-1,3.1541705E-1,1.1249388E0,-4.3058936E-3,-8.9878164E-2,8.205211E-2,4.5760784E-1,9.556955E-3,1.561789E-2,-1.311534E-3,6.1288604E-4,1.012264E-4,1.5211214E-3,3.248199E-3,5.2596224E-3],"categories":[],"categories_nodes":[],"categories_segments":[],"categories_sizes":[],"default_left":[0,0,0,0,0,0,0,0,0,0,0,0,0,0,0,0,0,0,0],"id":23,"left_children":[1,3,5,-1,7,9,11,-1,13,15,17,-1,-1,-1,-1,-1,-1,-1,-1],"loss_changes":[5.646976E2,7.680405E1,1.0096384E2,0E0,7.8986397E0,1.1793255E1,1.3898041E1,0E0,9.915602E-1,5.772243E-1,8.052025E-1,0E0,0E0,0E0,0E0,0E0,0E0,0E0,0E0],"parents":[2147483647,0,0,1,1,2,2,4,4,5,5,6,6,8,8,9,9,10,10],"right_children":[2,4,6,-1,8,10,12,-1,14,16,18,-1,-1,-1,-1,-1,-1,-1,-1],"split_conditions":[2.4592526E-1,-9.563337E-2,7.882818E-1,-9.694759E-3,1.3952447E-1,4.9776834E-1,1.166725E0,-4.3058936E-3,3.3019987E-1,3.8653257E-1,6.0069776E-1,9.556955E-3,1.561789E-2,-1.311534E-3,6.1288604E-4,1.012264E-4,1.5211214E-3,3.248199E-3,5.2596224E-3],"split_indices":[20,22,22,0,22,22,22,0,22,22,22,0,0,0,0,0,0,0,0],"split_type":[0,0,0,0,0,0,0,0,0,0,0,0,0,0,0,0,0,0,0],"sum_hessian":[1.292E3,6.5E2,6.42E2,3.58E2,2.92E2,3.72E2,2.7E2,1.5E2,1.42E2,1.45E2,2.27E2,2.02E2,6.8E1,1.17E2,2.5E1,8E1,6.5E1,8.7E1,1.4E2],"tree_param":{"num_deleted":"0","num_feature":"27","num_nodes":"19","size_leaf_vector":"1"}},{"base_weights":[1.6889282E-3,-9.887755E-3,3.1024864E-1,1.3051909E-1,1.0014527E0,-2.7212867E-1,5.7537115E-1,4.7290626E-1,1.2803924E0,-5.004417E-1,-5.2885503E-2,3.8095307E-1,9.657274E-3,-0E0,5.7406896E-3,1.0217077E-2,1.5293392E-2,-6.1408035E-3,-3.5322504E-3,-1.6649447E-3,-0E0,2.5247254E-3,5.102769E-3],"categories":[],"categories_nodes":[],"categories_segments":[],"categories_sizes":[],"default_left":[0,0,0,0,0,0,0,0,0,0,0,0,0,0,0,0,0,0,0,0,0,0,0],"id":24,"left_children":[1,-1,3,5,7,9,11,13,15,17,19,21,-1,-1,-1,-1,-1,-1,-1,-1,-1,-1,-1],"loss_changes":[3.9723825E2,0E0,1.21963554E2,1.4264624E2,2.6735474E1,2.0228863E1,2.6458824E1,3.7123508E0,1.94664E0,1.8614197E0,1.4014089E0,3.2103043E0,0E0,0E0,0E0,0E0,0E0,0E0,0E0,0E0,0E0,0E0,0E0],"parents":[2147483647,0,0,2,2,3,3,4,4,5,5,6,6,7,7,8,8,9,9,10,10,11,11],"right_children":[2,-1,4,6,8,10,12,14,16,18,20,22,-1,-1,-1,-1,-1,-1,-1,-1,-1,-1,-1],"split_conditions":[-8.050149E-1,-9.887755E-3,9.7795427E-1,4.0399885E-1,8.799522E-1,1.3952447E-1,8.0019933E-1,4.9058422E-1,1.166725E0,8.089291E-3,2.437828E-1,5.9484255E-1,9.657274E-3,-0E0,5.7406896E-3,1.0217077E-2,1.5293392E-2,-6.1408035E-3,-3.5322504E-3,-1.6649447E-3,-0E0,2.5247254E-3,5.102769E-3],"split_indices":[21,0,26,22,22,22,22,22,22,22,22,22,0,0,0,0,0,0,0,0,0,0,0],"split_type":[0,0,0,0,0,0,0,0,0,0,0,0,0,0,0,0,0,0,0,0,0,0,0],"sum_hessian":[1.297E3,3.06E2,9.91E2,7.9E2,2.01E2,4.14E2,3.76E2,7.3E1,1.28E2,1.99E2,2.15E2,2.56E2,1.2E2,1.3E1,6E1,7.1E1,5.7E1,1.04E2,9.5E1,7E1,1.45E2,1.36E2,1.2E2],"tree_param":{"num_deleted":"0","num_feature":"27","num_nodes":"23","size_leaf_vector":"1"}},{"base_weights":[3.322476E-3,-6.4642817E-1,6.434775E-1,-9.456068E-3,-2.611285E-1,3.1842428E-1,1.0970517E0,-3.5784864E-1,-6.904639E-2,1.3089459E-1,4.5561606E-1,9.109135E-3,1.4044153E-2,-4.3281545E-3,-1.6335417E-3,-1.1080615E-3,3.0984517E-4,2.1341165E-4,2.1776736E-3,2.980722E-3,5.1243994E-3],"categories":[],"categories_nodes":[],"categories_segments":[],"categories_sizes":[],"default_left":[0,0,0,0,0,0,0,0,0,0,0,0,0,0,0,0,0,0,0,0,0],"id":25,"left_children":[1,3,5,-1,7,9,11,13,15,17,19,-1,-1,-1,-1,-1,-1,-1,-1,-1,-1],"loss_changes":[5.290742E2,7.0855896E1,9.229126E1,0E0,4.7225227E0,9.002266E0,9.676239E0,1.8880405E0,5.082202E-1,1.3338885E0,7.278862E-1,0E0,0E0,0E0,0E0,0E0,0E0,0E0,0E0,0E0,0E0],"parents":[2147483647,0,0,1,1,2,2,4,4,5,5,6,6,7,7,8,8,9,9,10,10],"right_children":[2,4,6,-1,8,10,12,14,16,18,20,-1,-1,-1,-1,-1,-1,-1,-1,-1,-1],"split_conditions":[2.4592526E-1,-9.563337E-2,7.882818E-1,-9.456068E-3,5.9430134E-2,4.997128E-1,1.2275884E0,1.248431E-1,3.3019987E-1,4.0399885E-1,5.9484255E-1,9.109135E-3,1.4044153E-2,-4.3281545E-3,-1.6335417E-3,-1.1080615E-3,3.0984517E-4,2.1341165E-4,2.1776736E-3,2.980722E-3,5.1243994E-3],"split_indices":[20,22,22,0,20,20,20,22,22,22,22,0,0,0,0,0,0,0,0,0,0],"split_type":[0,0,0,0,0,0,0,0,0,0,0,0,0,0,0,0,0,0,0,0,0],"sum_hessian":[1.267E3,6.28E2,6.39E2,3.5E2,2.78E2,3.76E2,2.63E2,1.8E2,9.8E1,1.64E2,2.12E2,1.72E2,9.1E1,1.24E2,5.6E1,7.6E1,2.2E1,7.9E1,8.5E1,6.5E1,1.47E2],"tree_param":{"num_deleted":"0","num_feature":"27","num_nodes":"21","size_leaf_vector":"1"}},{"base_weights":[-4.857418E-3,-6.94981E-1,5.8442855E-1,-9.392647E-3,-3.311501E-1,2.772258E-1,1.0762949E0,-4.3522106E-3,-1.6373311E-3,9.6534233E-4,4.6286774E-3,8.635932E-3,1.3712722E-2],"categories":[],"categories_nodes":[],"categories_segments":[],"categories_sizes":[],"default_left":[0,0,0,0,0,0,0,0,0,0,0,0,0],"id":26,"left_children":[1,3,5,-1,7,9,11,-1,-1,-1,-1,-1,-1],"loss_changes":[5.1374634E2,4.972342E1,1.0072594E2,0E0,3.3957615E0,1.3534752E1,1.1086151E1,0E0,0E0,0E0,0E0,0E0,0E0],"parents":[2147483647,0,0,1,1,2,2,4,4,5,5,6,6],"right_children":[2,4,6,-1,8,10,12,-1,-1,-1,-1,-1,-1],"split_conditions":[2.7793995E-1,-1.1919446E-1,7.882818E-1,-9.392647E-3,1.248431E-1,5.453914E-1,1.0682545E0,-4.3522106E-3,-1.6373311E-3,9.6534233E-4,4.6286774E-3,8.635932E-3,1.3712722E-2],"split_indices":[22,22,22,0,22,22,22,0,0,0,0,0,0],"split_type":[0,0,0,0,0,0,0,0,0,0,0,0,0],"sum_hessian":[1.258E3,5.8E2,6.78E2,3.43E2,2.37E2,4.21E2,2.57E2,1.4E2,9.7E1,2.18E2,2.03E2,1.57E2,1E2],"tree_param":{"num_deleted":"0","num_feature":"27","num_nodes":"13","size_leaf_vector":"1"}},{"base_weights":[3.6713688E-4,-6.401129E-1,6.3941824E-1,-9.418304E-3,-2.9205078E-1,3.3577585E-1,1.0898019E0,-3.8551205E-1,-7.760058E-4,9.39876E-2,4.4897175E-1,9.315592E-1,1.4206911E-2,-4.822342E-3,-2.2471473E-3,2.3322007E-4,1.6529686E-3,2.853133E-3,5.4719937E-3,-0E0,9.391012E-3],"categories":[],"categories_nodes":[],"categories_segments":[],"categories_sizes":[],"default_left":[0,0,0,0,0,0,0,0,0,0,0,0,0,0,0,0,0,0,0,0,0],"id":27,"left_children":[1,3,5,-1,7,9,11,13,-1,15,17,19,-1,-1,-1,-1,-1,-1,-1,-1,-1],"loss_changes":[5.2717694E2,6.555151E1,8.593536E1,0E0,5.545086E0,1.0039314E1,7.821991E0,2.2493134E0,0E0,4.593476E-1,2.9970741E0,8.250885E-1,0E0,0E0,0E0,0E0,0E0,0E0,0E0,0E0,0E0],"parents":[2147483647,0,0,1,1,2,2,4,4,5,5,6,6,7,7,9,9,10,10,11,11],"right_children":[2,4,6,-1,8,10,12,14,-1,16,18,20,-1,-1,-1,-1,-1,-1,-1,-1,-1],"split_conditions":[3.3019987E-1,-4.5106667E-1,8.67511E-1,-9.418304E-3,5.9430134E-2,4.1467753E-1,1.2655839E0,7.8058586E-2,-7.760058E-4,4.125112E-1,6.0069776E-1,6.762697E-1,1.4206911E-2,-4.822342E-3,-2.2471473E-3,2.3322007E-4,1.6529686E-3,2.853133E-3,5.4719937E-3,-0E0,9.391012E-3],"split_indices":[22,20,20,0,20,20,20,22,0,22,22,22,0,0,0,0,0,0,0,0,0],"split_type":[0,0,0,0,0,0,0,0,0,0,0,0,0,0,0,0,0,0,0,0,0],"sum_hessian":[1.283E3,6.4E2,6.43E2,3.39E2,3.01E2,3.88E2,2.55E2,2.05E2,9.6E1,1.28E2,2.6E2,1.81E2,7.4E1,1.21E2,8.4E1,7.3E1,5.5E1,1.05E2,1.55E2,2E0,1.79E2],"tree_param":{"num_deleted":"0","num_feature":"27","num_nodes":"21","size_leaf_vector":"1"}},{"base_weights":[5.3789974E-3,-5.5693775E-1,2.8718922E-1,-9.029172E-1,5.27352E-1,-1.5622354E-1,8.287259E-1,-9.546279E-3,-3.449186E-3,1.8804346E-1,6.550767E-1,-3.478935E-1,-9.1673635E-2,7.0506257E-1,1.0839136E0,-0E0,3.5100388E-3,3.230358E-3,9.780333E-3,-4.730495E-3,-4.36942E-5,-3.2601455E-1,1.033673E-1,4.983638E-3,9.766563E-1,6.383909E-3,1.2810261E-2,-3.87921E-4,-3.5518005E-3,2.0221116E-3,2.975374E-4,9.918971E-3,4.4702314E-4],"categories":[],"categories_nodes":[],"categories_segments":[],"categories_sizes":[],"default_left":[0,0,0,0,0,0,0,0,0,0,0,0,0,0,0,0,0,0,0,0,0,0,0,0,0,0,0,0,0,0,0,0,0],"id":28,"left_children":[1,3,5,7,9,11,13,-1,-1,15,17,19,21,23,25,-1,-1,-1,-1,-1,-1,27,29,-1,31,-1,-1,-1,-1,-1,-1,-1,-1],"loss_changes":[2.0558206E2,1.6381487E2,2.0906386E2,7.3848267E0,3.4210873E0,5.388465E0,8.655151E0,0E0,0E0,1.0593369E0,5.790842E0,4.4832315E0,1.6966759E1,1.2661926E1,6.6181793E0,0E0,0E0,0E0,0E0,0E0,0E0,9.831066E-1,1.197329E0,0E0,4.6466827E-1,0E0,0E0,0E0,0E0,0E0,0E0,0E0,0E0],"parents":[2147483647,0,0,1,1,2,2,3,3,4,4,5,5,6,6,9,9,10,10,11,11,12,12,13,13,14,14,21,21,22,22,24,24],"right_children":[2,4,6,8,10,12,14,-1,-1,16,18,20,22,24,26,-1,-1,-1,-1,-1,-1,28,30,-1,32,-1,-1,-1,-1,-1,-1,-1,-1],"split_conditions":[1E0,5.2205544E-2,5.424531E-1,1E0,4.528118E-1,-1.3255996E0,1.1869279E0,-9.546279E-3,-3.449186E-3,3.788144E-1,7.8461677E-1,-5.928212E-3,1.655548E-1,9.14016E-1,1.1013639E0,-0E0,3.5100388E-3,3.230358E-3,9.780333E-3,-4.730495E-3,-4.36942E-5,3.2404076E-2,4.437678E-1,4.983638E-3,1.2958784E0,6.383909E-3,1.2810261E-2,-3.87921E-4,-3.5518005E-3,2.0221116E-3,2.975374E-4,9.918971E-3,4.4702314E-4],"split_indices":[18,20,20,0,26,26,26,0,0,20,20,20,20,20,20,0,0,0,0,0,0,21,21,0,21,0,0,0,0,0,0,0,0],"split_type":[0,0,0,0,0,0,0,0,0,0,0,0,0,0,0,0,0,0,0,0,0,0,0,0,0,0,0,0,0,0,0,0,0],"sum_hessian":[1.294E3,4.3E2,8.64E2,3.27E2,1.03E2,4.75E2,3.89E2,2.96E2,3.1E1,3.2E1,7.1E1,1.13E2,3.62E2,2.71E2,1.18E2,1.6E1,1.6E1,3.9E1,3.2E1,8E1,3.3E1,1.66E2,1.96E2,1.6E2,1.11E2,4.1E1,7.7E1,1.9E1,1.47E2,7.6E1,1.2E2,1.08E2,3E0],"tree_param":{"num_deleted":"0","num_feature":"27","num_nodes":"33","size_leaf_vector":"1"}},{"base_weights":[-1.9386057E-2,-6.465532E-1,6.053354E-1,-9.225767E-3,-2.901035E-1,2.928178E-1,1.0461062E0,-3.5798012E-3,-9.2866964E-4,8.8620995E-4,4.1648336E-3,8.977841E-3,1.3701379E-2],"categories":[],"categories_nodes":[],"categories_segments":[],"categories_sizes":[],"default_left":[0,0,0,0,0,0,0,0,0,0,0,0,0],"id":29,"left_children":[1,3,5,-1,7,9,11,-1,-1,-1,-1,-1,-1],"loss_changes":[5.0546835E2,6.152957E1,8.681206E1,0E0,3.301632E0,9.061558E0,7.417053E0,0E0,0E0,0E0,0E0,0E0,0E0],"parents":[2147483647,0,0,1,1,2,2,4,4,5,5,6,6],"right_children":[2,4,6,-1,8,10,12,-1,-1,-1,-1,-1,-1],"split_conditions":[3.0993828E-1,-1.1919446E-1,7.7194256E-1,-9.225767E-3,6.835288E-2,4.303664E-1,1.2655839E0,-3.5798012E-3,-9.2866964E-4,8.8620995E-4,4.1648336E-3,8.977841E-3,1.3701379E-2],"split_indices":[22,22,22,0,20,20,20,0,0,0,0,0,0],"split_type":[0,0,0,0,0,0,0,0,0,0,0,0,0],"sum_hessian":[1.285E3,6.42E2,6.43E2,3.58E2,2.84E2,3.8E2,2.63E2,2.06E2,7.8E1,1.48E2,2.32E2,1.89E2,7.4E1],"tree_param":{"num_deleted":"0","num_feature":"27","num_nodes":"13","size_leaf_vector":"1"}},{"base_weights":[7.4763247E-4,-4.512872E-1,2.8879043E-1,-8.457624E-1,5.707169E-1,-1.4475702E-3,8.1783056E-1,-3.3705535E-3,-9.338449E-3,8.6351484E-4,5.9109277E-1,4.8431787E-3,8.476326E-1,2.5205478E-1,1.0062905E-2,5.4694474E-1,1.1534661E0,1.0258689E-4,3.7808507E-3,4.039653E-3,6.502496E-3,9.804857E-3,1.4568009E-2],"categories":[],"categories_nodes":[],"categories_segments":[],"categories_sizes":[],"default_left":[0,0,0,0,0,0,0,0,0,0,0,0,0,0,0,0,0,0,0,0,0,0,0],"id":30,"left_children":[1,3,5,7,9,-1,11,-1,-1,-1,13,-1,15,17,-1,19,21,-1,-1,-1,-1,-1,-1],"loss_changes":[1.6571947E2,2.0084206E2,1.7975827E2,1.400592E1,5.618553E-1,0E0,1.1453705E0,0E0,0E0,0E0,1.6477753E1,0E0,2.591983E1,1.9331923E0,0E0,7.483711E-1,2.0460663E0,0E0,0E0,0E0,0E0,0E0,0E0],"parents":[2147483647,0,0,1,1,2,2,3,3,4,4,6,6,10,10,12,12,13,13,15,15,16,16],"right_children":[2,4,6,8,10,-1,12,-1,-1,-1,14,-1,16,18,-1,20,22,-1,-1,-1,-1,-1,-1],"split_conditions":[1E0,2.004213E-1,5.424531E-1,1E0,-9.8597604E-1,-1.4475702E-3,-9.8597604E-1,-3.3705535E-3,-9.338449E-3,8.6351484E-4,7.935026E-1,4.8431787E-3,1.0247357E0,4.7663385E-1,1.0062905E-2,7.315462E-1,1.3741777E0,1.0258689E-4,3.7808507E-3,4.039653E-3,6.502496E-3,9.804857E-3,1.4568009E-2],"split_indices":[2,20,20,1,24,0,24,0,0,0,20,0,20,20,0,20,20,0,0,0,0,0,0],"split_type":[0,0,0,0,0,0,0,0,0,0,0,0,0,0,0,0,0,0,0,0,0,0,0],"sum_hessian":[1.269E3,4.92E2,7.77E2,3.56E2,1.36E2,4.27E2,3.5E2,5.6E1,3E2,8E0,1.28E2,3.5E1,3.15E2,7.4E1,5.4E1,1.64E2,1.51E2,2.9E1,4.5E1,7.8E1,8.6E1,1.05E2,4.6E1],"tree_param":{"num_deleted":"0","num_feature":"27","num_nodes":"23","size_leaf_vector":"1"}},{"base_weights":[-4.8993323E-3,-5.5585843E-1,6.829101E-1,-8.530035E-1,-1.5527593E-1,4.125998E-1,1.113015E0,-9.1947075E-3,-5.563856E-3,-3.1418924E-3,-3.816027E-2,2.333266E-3,5.291215E-3,9.373841E-3,1.429308E-2,-7.950077E-4,1.4081768E-4],"categories":[],"categories_nodes":[],"categories_segments":[],"categories_sizes":[],"default_left":[0,0,0,0,0,0,0,0,0,0,0,0,0,0,0,0,0],"id":31,"left_children":[1,3,5,7,9,11,13,-1,-1,-1,15,-1,-1,-1,-1,-1,-1],"loss_changes":[4.849368E2,8.335123E1,6.3421112E1,5.2594604E0,5.3406334E0,6.3341293E0,6.310547E0,0E0,0E0,0E0,4.6452492E-1,0E0,0E0,0E0,0E0,0E0,0E0],"parents":[2147483647,0,0,1,1,2,2,3,3,4,4,5,5,6,6,10,10],"right_children":[2,4,6,8,10,12,14,-1,-1,-1,16,-1,-1,-1,-1,-1,-1],"split_conditions":[4.0399885E-1,-1.1025134E-2,8.765869E-1,-2.2621663E-1,1.8117578E-1,5.889188E-1,1.166725E0,-9.1947075E-3,-5.563856E-3,-3.1418924E-3,3.3019987E-1,2.333266E-3,5.291215E-3,9.373841E-3,1.429308E-2,-7.950077E-4,1.4081768E-4],"split_indices":[22,22,22,22,22,22,22,0,0,0,22,0,0,0,0,0,0],"split_type":[0,0,0,0,0,0,0,0,0,0,0,0,0,0,0,0,0],"sum_hessian":[1.275E3,7.09E2,5.66E2,4.04E2,3.05E2,3.52E2,2.14E2,3.23E2,8.1E1,1.24E2,1.81E2,1.45E2,2.07E2,1.46E2,6.8E1,1.11E2,7E1],"tree_param":{"num_deleted":"0","num_feature":"27","num_nodes":"17","size_leaf_vector":"1"}},{"base_weights":[2.6237958E-3,-6.0097694E-1,6.0589993E-1,-3.0196753E-1,-9.16643E-3,4.805029E-1,1.0217332E0,-5.1873154E-3,-1.7318526E-1,2.515933E-1,8.173008E-1,5.5311196E-3,1.2424193E-2,-2.5315964E-1,-5.674113E-2,7.646875E-2,3.61643E-1,6.204254E-3,1.0194725E-2,-0E0,-2.74084E-3,1.0731409E-4,-9.966965E-4,1.7465276E-3,1.6288075E-4,3.6845445E-3,-0E0],"categories":[],"categories_nodes":[],"categories_segments":[],"categories_sizes":[],"default_left":[0,0,0,0,0,0,0,0,0,0,0,0,0,0,0,0,0,0,0,0,0,0,0,0,0,0,0],"id":32,"left_children":[1,3,5,7,-1,9,11,-1,13,15,17,-1,-1,19,21,23,25,-1,-1,-1,-1,-1,-1,-1,-1,-1,-1],"loss_changes":[4.788463E2,6.0054535E1,3.1607376E1,8.644499E0,0E0,3.792887E1,1.184407E1,0E0,1.7169166E0,5.4768333E0,4.9184875E0,0E0,0E0,5.582037E-1,3.769171E-1,5.49408E-1,3.8443375E-1,0E0,0E0,0E0,0E0,0E0,0E0,0E0,0E0,0E0,0E0],"parents":[2147483647,0,0,1,1,2,2,3,3,5,5,6,6,8,8,9,9,10,10,13,13,14,14,15,15,16,16],"right_children":[2,4,6,8,-1,10,12,-1,14,16,18,-1,-1,20,22,24,26,-1,-1,-1,-1,-1,-1,-1,-1,-1,-1],"split_conditions":[2.517959E-1,1E0,1.2508934E0,-1.8231168E-1,-9.16643E-3,7.341813E-1,1.1013639E0,-5.1873154E-3,5.9430134E-2,4.1467753E-1,1.0247357E0,5.5311196E-3,1.2424193E-2,-4.839951E-2,4.2173046E-1,3.7765577E-1,1.2150748E0,6.204254E-3,1.0194725E-2,-0E0,-2.74084E-3,1.0731409E-4,-9.966965E-4,1.7465276E-3,1.6288075E-4,3.6845445E-3,-0E0],"split_indices":[20,1,26,20,0,20,20,0,20,20,20,0,0,21,21,21,21,0,0,0,0,0,0,0,0,0,0],"split_type":[0,0,0,0,0,0,0,0,0,0,0,0,0,0,0,0,0,0,0,0,0,0,0,0,0,0,0],"sum_hessian":[1.31E3,6.54E2,6.56E2,3.4E2,3.14E2,5.1E2,1.46E2,1.21E2,2.19E2,3.08E2,2.02E2,5.1E1,9.5E1,1.23E2,9.6E1,1.24E2,1.84E2,1.1E2,9.2E1,1.1E1,1.12E2,2.9E1,6.7E1,3.9E1,8.5E1,1.8E2,4E0],"tree_param":{"num_deleted":"0","num_feature":"27","num_nodes":"27","size_leaf_vector":"1"}},{"base_weights":[-8.057107E-4,-5.991433E-1,5.9877247E-1,-8.62178E-1,-2.3214401E-1,3.3131692E-1,1.0563143E0,-9.034239E-3,-5.410184E-3,-3.7352769E-3,-9.54141E-4,1.6787918E-1,5.200051E-3,8.40597E-3,1.3226701E-2,4.2937283E-4,2.2728979E-3],"categories":[],"categories_nodes":[],"categories_segments":[],"categories_sizes":[],"default_left":[0,0,0,0,0,0,0,0,0,0,0,0,0,0,0,0,0],"id":33,"left_children":[1,3,5,7,9,11,13,-1,-1,-1,-1,15,-1,-1,-1,-1,-1],"loss_changes":[4.620706E2,6.0717728E1,7.636148E1,2.2812195E0,4.7484226E0,1.1753189E1,8.530975E0,0E0,0E0,0E0,0E0,1.3866563E0,0E0,0E0,0E0,0E0,0E0],"parents":[2147483647,0,0,1,1,2,2,3,3,4,4,5,5,6,6,11,11],"right_children":[2,4,6,8,10,12,14,-1,-1,-1,-1,16,-1,-1,-1,-1,-1],"split_conditions":[3.3019987E-1,-2.6925594E-1,9.14016E-1,-2.2621663E-1,1.3952447E-1,5.889188E-1,1.0930754E0,-9.034239E-3,-5.410184E-3,-3.7352769E-3,-9.54141E-4,4.0399885E-1,5.200051E-3,8.40597E-3,1.3226701E-2,4.2937283E-4,2.2728979E-3],"split_indices":[22,20,20,22,22,22,22,0,0,0,0,22,0,0,0,0,0],"split_type":[0,0,0,0,0,0,0,0,0,0,0,0,0,0,0,0,0],"sum_hessian":[1.283E3,6.43E2,6.4E2,3.71E2,2.72E2,4.08E2,2.32E2,3.22E2,4.9E1,1.28E2,1.44E2,2.24E2,1.84E2,1.36E2,9.6E1,7.9E1,1.45E2],"tree_param":{"num_deleted":"0","num_feature":"27","num_nodes":"17","size_leaf_vector":"1"}},{"base_weights":[-5.774976E-3,2.7562848E-1,-8.9666145E-3,2.2789132E-2,6.5106726E-1,-3.691379E-2,5.721632E-2,7.4208325E-1,4.3950292E-1,-2.4530443E-3,1.4774561E-1,-1.3631222E-1,2.1286494E-1,5.4717814E-3,1.0016911E-2,2.193115E-3,8.90859E-3,2.0128323E-3,-1.9220122E-3,-1.5008184E-3,-0E0,3.0069042E-3,-1.0476698E-3],"categories":[],"categories_nodes":[],"categories_segments":[],"categories_sizes":[],"default_left":[0,0,0,0,0,0,0,0,0,0,0,0,0,0,0,0,0,0,0,0,0,0,0],"id":34,"left_children":[1,3,-1,5,7,9,11,13,15,-1,17,19,21,-1,-1,-1,-1,-1,-1,-1,-1,-1,-1],"loss_changes":[3.2401324E2,9.226877E1,0E0,1.2372432E0,5.5609283E0,8.134552E0,1.1761295E1,1.0616074E1,1.1072947E1,0E0,2.0804932E0,3.3450532E-1,6.342099E0,0E0,0E0,0E0,0E0,0E0,0E0,0E0,0E0,0E0,0E0],"parents":[2147483647,0,0,1,1,3,3,4,4,5,5,6,6,7,7,8,8,10,10,11,11,12,12],"right_children":[2,4,-1,6,8,10,12,14,16,-1,18,20,22,-1,-1,-1,-1,-1,-1,-1,-1,-1,-1],"split_conditions":[1E0,3.385072E-1,-8.9666145E-3,1E0,1E0,-5.7247585E-1,-7.5775623E-1,1.1654682E0,1.3766083E0,-2.4530443E-3,1.15779154E-1,1E0,3.8386402E-1,5.4717814E-3,1.0016911E-2,2.193115E-3,8.90859E-3,2.0128323E-3,-1.9220122E-3,-1.5008184E-3,-0E0,3.0069042E-3,-1.0476698E-3],"split_indices":[1,26,0,15,0,26,26,26,26,0,25,7,25,0,0,0,0,0,0,0,0,0,0],"split_type":[0,0,0,0,0,0,0,0,0,0,0,0,0,0,0,0,0,0,0,0,0,0,0],"sum_hessian":[1.285E3,9.77E2,3.08E2,5.87E2,3.9E2,2.04E2,3.83E2,2.65E2,1.25E2,9.8E1,1.06E2,1.68E2,2.15E2,1.58E2,1.07E2,8.8E1,3.7E1,9.5E1,1.1E1,1.53E2,1.5E1,1.71E2,4.4E1],"tree_param":{"num_deleted":"0","num_feature":"27","num_nodes":"23","size_leaf_vector":"1"}},{"base_weights":[1.5004627E-4,-5.9094757E-1,5.863329E-1,-8.2999206E-1,-1.8685392E-1,2.889323E-1,1.0112661E0,-8.834312E-3,-5.5295066E-3,-2.5767267E-3,-4.25828E-4,8.7467884E-4,3.922701E-3,8.578565E-3,1.3329346E-2],"categories":[],"categories_nodes":[],"categories_segments":[],"categories_sizes":[],"default_left":[0,0,0,0,0,0,0,0,0,0,0,0,0,0,0],"id":35,"left_children":[1,3,5,7,9,11,13,-1,-1,-1,-1,-1,-1,-1,-1],"loss_changes":[4.4003934E2,5.9596054E1,7.8660034E1,3.1828918E0,2.1193085E0,7.3560677E0,7.8054504E0,0E0,0E0,0E0,0E0,0E0,0E0,0E0,0E0],"parents":[2147483647,0,0,1,1,2,2,3,3,4,4,5,5,6,6],"right_children":[2,4,6,8,10,12,14,-1,-1,-1,-1,-1,-1,-1,-1],"split_conditions":[3.3019987E-1,-1.1025134E-2,7.882818E-1,-5.744808E-1,1.0849248E-1,4.1467753E-1,1.2655839E0,-8.834312E-3,-5.5295066E-3,-2.5767267E-3,-4.25828E-4,8.7467884E-4,3.922701E-3,8.578565E-3,1.3329346E-2],"split_indices":[22,22,22,20,20,20,20,0,0,0,0,0,0,0,0],"split_type":[0,0,0,0,0,0,0,0,0,0,0,0,0,0,0],"sum_hessian":[1.265E3,6.29E2,6.36E2,3.92E2,2.37E2,3.78E2,2.58E2,3.21E2,7.1E1,1.53E2,8.4E1,1.33E2,2.45E2,1.83E2,7.5E1],"tree_param":{"num_deleted":"0","num_feature":"27","num_nodes":"15","size_leaf_vector":"1"}},{"base_weights":[1.2433259E-2,-5.859859E-1,5.9766346E-1,-8.216106E-1,-2.0331095E-1,3.077387E-1,1.0083239E0,-8.737516E-3,-5.2415812E-3,-3.0312191E-3,-6.9985195E-4,1.4937794E-1,4.5160134E-3,8.5091675E-3,1.3741266E-2,3.879905E-4,2.027081E-3],"categories":[],"categories_nodes":[],"categories_segments":[],"categories_sizes":[],"default_left":[0,0,0,0,0,0,0,0,0,0,0,0,0,0,0,0,0],"id":36,"left_children":[1,3,5,7,9,11,13,-1,-1,-1,-1,15,-1,-1,-1,-1,-1],"loss_changes":[4.514362E2,5.5949203E1,7.5595245E1,3.5290833E0,2.8674316E0,8.058472E0,1.0254456E1,0E0,0E0,0E0,0E0,8.681426E-1,0E0,0E0,0E0,0E0,0E0],"parents":[2147483647,0,0,1,1,2,2,3,3,4,4,5,5,6,6,11,11],"right_children":[2,4,6,8,10,12,14,-1,-1,-1,-1,16,-1,-1,-1,-1,-1],"split_conditions":[3.3019987E-1,-1.1025134E-2,8.0019933E-1,-1.9726749E-1,1.8117578E-1,5.7072026E-1,1.166725E0,-8.737516E-3,-5.2415812E-3,-3.0312191E-3,-6.9985195E-4,4.0399885E-1,4.5160134E-3,8.5091675E-3,1.3741266E-2,3.879905E-4,2.027081E-3],"split_indices":[22,22,22,22,22,22,22,0,0,0,0,22,0,0,0,0,0],"split_type":[0,0,0,0,0,0,0,0,0,0,0,0,0,0,0,0,0],"sum_hessian":[1.284E3,6.34E2,6.5E2,3.89E2,2.45E2,3.85E2,2.65E2,3.24E2,6.5E1,1.34E2,1.11E2,1.89E2,1.96E2,1.93E2,7.2E1,6.9E1,1.2E2],"tree_param":{"num_deleted":"0","num_feature":"27","num_nodes":"17","size_leaf_vector":"1"}},{"base_weights":[1.20553095E-2,-5.8464855E-1,5.767528E-1,-8.57197E-3,-2.6234525E-1,3.256034E-1,1.0124756E0,-4.150009E-3,-1.1282524E-1,1.7329745E-1,5.0966186E-3,8.177961E-3,1.2868401E-2,-1.6441018E-3,-3.9184483E-4,2.7034344E-4,2.3513383E-3],"categories":[],"categories_nodes":[],"categories_segments":[],"categories_sizes":[],"default_left":[0,0,0,0,0,0,0,0,0,0,0,0,0,0,0,0,0],"id":37,"left_children":[1,3,5,-1,7,9,11,-1,13,15,-1,-1,-1,-1,-1,-1,-1],"loss_changes":[4.3197177E2,5.30007E1,7.000784E1,0E0,5.9858E0,1.0968292E1,8.003464E0,0E0,3.6340845E-1,1.8790245E0,0E0,0E0,0E0,0E0,0E0,0E0,0E0],"parents":[2147483647,0,0,1,1,2,2,4,4,5,5,6,6,8,8,9,9],"right_children":[2,4,6,-1,8,10,12,-1,14,16,-1,-1,-1,-1,-1,-1,-1],"split_conditions":[3.3019987E-1,-4.5106667E-1,9.289376E-1,-8.57197E-3,1.09723404E-1,6.0069776E-1,1.0996388E0,-4.150009E-3,2.437828E-1,4.0399885E-1,5.0966186E-3,8.177961E-3,1.2868401E-2,-1.6441018E-3,-3.9184483E-4,2.7034344E-4,2.3513383E-3],"split_indices":[22,20,20,0,22,22,22,0,22,22,0,0,0,0,0,0,0],"split_type":[0,0,0,0,0,0,0,0,0,0,0,0,0,0,0,0,0],"sum_hessian":[1.277E3,6.2E2,6.57E2,3.32E2,2.88E2,4.21E2,2.36E2,1.37E2,1.51E2,2.36E2,1.85E2,1.46E2,9E1,7.9E1,7.2E1,7.6E1,1.6E2],"tree_param":{"num_deleted":"0","num_feature":"27","num_nodes":"17","size_leaf_vector":"1"}},{"base_weights":[2.0363727E-3,-5.751271E-1,5.6655264E-1,-8.044257E-1,-1.8856525E-1,2.7705482E-1,9.918356E-1,-8.600959E-3,-5.303775E-3,-2.4179746E-1,-5.7592697E-4,1.0571232E-1,4.0362498E-1,8.265669E-3,1.3074211E-2,-2.8798834E-3,-7.2711136E-4,2.4640354E-4,1.6994074E-3,2.7564263E-3,4.5761517E-3],"categories":[],"categories_nodes":[],"categories_segments":[],"categories_sizes":[],"default_left":[0,0,0,0,0,0,0,0,0,0,0,0,0,0,0,0,0,0,0,0,0],"id":38,"left_children":[1,3,5,7,9,11,13,-1,-1,15,-1,17,19,-1,-1,-1,-1,-1,-1,-1,-1],"loss_changes":[4.1931946E2,5.495729E1,7.8255844E1,3.518219E0,1.3495235E0,7.896076E0,8.803192E0,0E0,0E0,8.795452E-1,0E0,6.9838655E-1,4.8191833E-1,0E0,0E0,0E0,0E0,0E0,0E0,0E0,0E0],"parents":[2147483647,0,0,1,1,2,2,3,3,4,4,5,5,6,6,9,9,11,11,12,12],"right_children":[2,4,6,8,10,12,14,-1,-1,16,-1,18,20,-1,-1,-1,-1,-1,-1,-1,-1],"split_conditions":[3.201704E-1,-1.1025134E-2,7.882818E-1,-5.744808E-1,1.22810684E-1,4.9597308E-1,1.2494029E0,-8.600959E-3,-5.303775E-3,1.8117578E-1,-5.7592697E-4,4.0399885E-1,6.0069776E-1,8.265669E-3,1.3074211E-2,-2.8798834E-3,-7.2711136E-4,2.4640354E-4,1.6994074E-3,2.7564263E-3,4.5761517E-3],"split_indices":[22,22,22,20,20,20,20,0,0,22,0,22,22,0,0,0,0,0,0,0,0],"split_type":[0,0,0,0,0,0,0,0,0,0,0,0,0,0,0,0,0,0,0,0,0],"sum_hessian":[1.282E3,6.33E2,6.49E2,3.94E2,2.39E2,3.9E2,2.59E2,3.2E2,7.4E1,1.63E2,7.6E1,1.71E2,2.19E2,1.78E2,8.1E1,1.22E2,4.1E1,8.4E1,8.7E1,7.5E1,1.44E2],"tree_param":{"num_deleted":"0","num_feature":"27","num_nodes":"21","size_leaf_vector":"1"}},{"base_weights":[1.0197342E-2,-6.122693E-1,5.3734165E-1,-8.297705E-3,-2.7494642E-1,2.4970719E-1,9.6523374E-1,-4.272363E-3,-1.4954052E-3,8.283103E-2,4.0574753E-1,7.838734E-3,1.2544637E-2,1.3577186E-4,1.6093884E-3,2.7533711E-3,4.5453063E-3],"categories":[],"categories_nodes":[],"categories_segments":[],"categories_sizes":[],"default_left":[0,0,0,0,0,0,0,0,0,0,0,0,0,0,0,0,0],"id":39,"left_children":[1,3,5,-1,7,9,11,-1,-1,13,15,-1,-1,-1,-1,-1,-1],"loss_changes":[4.16652E2,4.0988495E1,8.292064E1,0E0,3.7228947E0,1.0272816E1,9.902176E0,0E0,0E0,9.424442E-1,3.0278397E-1,0E0,0E0,0E0,0E0,0E0,0E0],"parents":[2147483647,0,0,1,1,2,2,4,4,5,5,6,6,9,9,10,10],"right_children":[2,4,6,-1,8,10,12,-1,-1,14,16,-1,-1,-1,-1,-1,-1],"split_conditions":[2.7793995E-1,-1.1919446E-1,7.882818E-1,-8.297705E-3,7.8058586E-2,5.453914E-1,1.0930754E0,-4.272363E-3,-1.4954052E-3,4.0399885E-1,6.0069776E-1,7.838734E-3,1.2544637E-2,1.3577186E-4,1.6093884E-3,2.7533711E-3,4.5453063E-3],"split_indices":[22,22,22,0,22,22,22,0,0,22,22,0,0,0,0,0,0],"split_type":[0,0,0,0,0,0,0,0,0,0,0,0,0,0,0,0,0],"sum_hessian":[1.265E3,5.79E2,6.86E2,3.48E2,2.31E2,4.14E2,2.72E2,9.8E1,1.33E2,2.05E2,2.09E2,1.75E2,9.7E1,1.17E2,8.8E1,6.7E1,1.42E2],"tree_param":{"num_deleted":"0","num_feature":"27","num_nodes":"17","size_leaf_vector":"1"}},{"base_weights":[8.675922E-4,-5.4582167E-1,5.559039E-1,-8.325433E-3,-2.4193515E-1,2.9652843E-1,9.7205734E-1,-3.6217037E-3,-9.0858986E-4,7.639557E-4,4.011343E-1,8.232056E-3,1.2830157E-2,3.0518915E-3,4.9194633E-3],"categories":[],"categories_nodes":[],"categories_segments":[],"categories_sizes":[],"default_left":[0,0,0,0,0,0,0,0,0,0,0,0,0,0,0],"id":40,"left_children":[1,3,5,-1,7,9,11,-1,-1,-1,13,-1,-1,-1,-1],"loss_changes":[3.9295502E2,5.5187714E1,6.74702E1,0E0,5.3046474E0,8.691277E0,6.5704193E0,0E0,0E0,0E0,1.166954E0,0E0,0E0,0E0,0E0],"parents":[2147483647,0,0,1,1,2,2,4,4,5,5,6,6,10,10],"right_children":[2,4,6,-1,8,10,12,-1,-1,-1,14,-1,-1,-1,-1],"split_conditions":[2.517959E-1,-4.5106667E-1,8.913396E-1,-8.325433E-3,-6.307812E-2,4.1467753E-1,1.2655839E0,-3.6217037E-3,-9.0858986E-4,7.639557E-4,6.736772E-1,8.232056E-3,1.2830157E-2,3.0518915E-3,4.9194633E-3],"split_indices":[20,20,20,0,20,20,20,0,0,0,20,0,0,0,0],"split_type":[0,0,0,0,0,0,0,0,0,0,0,0,0,0,0],"sum_hessian":[1.29E3,6.49E2,6.41E2,3.3E2,3.19E2,3.99E2,2.42E2,1.72E2,1.47E2,1.33E2,2.66E2,1.72E2,7E1,1.4E2,1.26E2],"tree_param":{"num_deleted":"0","num_feature":"27","num_nodes":"15","size_leaf_vector":"1"}},{"base_weights":[-7.937308E-3,2.7179644E-1,-8.389524E-3,-1.3711499E-1,7.1684426E-1,-3.5735872E-1,8.31428E-2,4.7231638E-1,1.0326649E0,-5.3086737E-3,-2.4587282E-3,2.8261222E-2,2.0311892E-3,3.6732224E-3,5.6402134E-3,9.134876E-3,1.3790922E-2,-4.0684335E-4,6.3119375E-4],"categories":[],"categories_nodes":[],"categories_segments":[],"categories_sizes":[],"default_left":[0,0,0,0,0,0,0,0,0,0,0,0,0,0,0,0,0,0,0],"id":41,"left_children":[1,3,-1,5,7,9,11,13,15,-1,-1,17,-1,-1,-1,-1,-1,-1,-1],"loss_changes":[2.9927094E2,1.756222E2,0E0,2.467646E1,3.2915894E1,3.8005905E0,1.4036808E0,1.1166992E0,2.7119904E0,0E0,0E0,4.6265328E-1,0E0,0E0,0E0,0E0,0E0,0E0,0E0],"parents":[2147483647,0,0,1,1,3,3,4,4,5,5,6,6,7,7,8,8,11,11],"right_children":[2,4,-1,6,8,10,12,14,16,-1,-1,18,-1,-1,-1,-1,-1,-1,-1],"split_conditions":[1E0,5.424531E-1,-8.389524E-3,1.22810684E-1,1.0247357E0,-2.3311609E-1,3.788144E-1,7.280167E-1,1.4549395E0,-5.3086737E-3,-2.4587282E-3,2.0814279E-1,2.0311892E-3,3.6732224E-3,5.6402134E-3,9.134876E-3,1.3790922E-2,-4.0684335E-4,6.3119375E-4],"split_indices":[1,20,0,20,20,20,20,20,20,0,0,20,0,0,0,0,0,0,0],"split_type":[0,0,0,0,0,0,0,0,0,0,0,0,0,0,0,0,0,0,0],"sum_hessian":[1.28E3,9.58E2,3.22E2,4.99E2,4.59E2,2.51E2,2.48E2,2.64E2,1.95E2,9.1E1,1.6E2,1.78E2,7E1,1.34E2,1.3E2,1.54E2,4.1E1,5E1,1.28E2],"tree_param":{"num_deleted":"0","num_feature":"27","num_nodes":"19","size_leaf_vector":"1"}},{"base_weights":[-5.901908E-3,-5.5570734E-1,5.2806914E-1,-7.6960284E-1,-1.9224489E-1,2.5445887E-1,9.309199E-1,-8.188973E-3,-4.8836E-3,-3.0252563E-3,-8.747746E-4,9.6927196E-2,3.9253007E-3,7.027728E-3,1.1598294E-2,1.67674E-4,1.4670823E-3],"categories":[],"categories_nodes":[],"categories_segments":[],"categories_sizes":[],"default_left":[0,0,0,0,0,0,0,0,0,0,0,0,0,0,0,0,0],"id":42,"left_children":[1,3,5,7,9,11,13,-1,-1,-1,-1,15,-1,-1,-1,-1,-1],"loss_changes":[3.781586E2,4.8073944E1,7.014363E1,3.2037659E0,2.3225336E0,7.9742813E0,9.7565155E0,0E0,0E0,0E0,0E0,5.9055316E-1,0E0,0E0,0E0,0E0,0E0],"parents":[2147483647,0,0,1,1,2,2,3,3,4,4,5,5,6,6,11,11],"right_children":[2,4,6,8,10,12,14,-1,-1,-1,-1,16,-1,-1,-1,-1,-1],"split_conditions":[3.0993828E-1,-1.1025134E-2,7.882818E-1,-1.9726749E-1,1.3952447E-1,5.453914E-1,1.0197512E0,-8.188973E-3,-4.8836E-3,-3.0252563E-3,-8.747746E-4,3.8653257E-1,3.9253007E-3,7.027728E-3,1.1598294E-2,1.67674E-4,1.4670823E-3],"split_indices":[22,22,22,22,22,22,22,0,0,0,0,22,0,0,0,0,0],"split_type":[0,0,0,0,0,0,0,0,0,0,0,0,0,0,0,0,0],"sum_hessian":[1.283E3,6.33E2,6.5E2,3.95E2,2.38E2,3.91E2,2.59E2,3.29E2,6.6E1,1.09E2,1.29E2,1.88E2,2.03E2,1.37E2,1.22E2,8.1E1,1.07E2],"tree_param":{"num_deleted":"0","num_feature":"27","num_nodes":"17","size_leaf_vector":"1"}},{"base_weights":[9.99445E-3,-4.7306138E-1,6.264119E-1,-7.524642E-1,-1.3409941E-1,4.152699E-1,1.0643957E0,-8.100439E-3,-4.898876E-3,-2.8109865E-3,-2.2163585E-2,2.2454015E-3,5.242238E-1,9.089785E-3,1.36925755E-2,-7.298092E-4,1.6220966E-4,3.8321498E-3,5.864966E-3],"categories":[],"categories_nodes":[],"categories_segments":[],"categories_sizes":[],"default_left":[0,0,0,0,0,0,0,0,0,0,0,0,0,0,0,0,0,0,0],"id":43,"left_children":[1,3,5,7,9,11,13,-1,-1,-1,15,-1,17,-1,-1,-1,-1,-1,-1],"loss_changes":[3.800967E2,6.652928E1,4.934102E1,3.5968628E0,5.0700054E0,6.947174E0,3.115036E0,0E0,0E0,0E0,4.352102E-1,0E0,5.714493E-1,0E0,0E0,0E0,0E0,0E0,0E0],"parents":[2147483647,0,0,1,1,2,2,3,3,4,4,5,5,6,6,10,10,12,12],"right_children":[2,4,6,8,10,12,14,-1,-1,-1,16,-1,18,-1,-1,-1,-1,-1,-1],"split_conditions":[4.0399885E-1,-1.1025134E-2,9.2791915E-1,-2.2621663E-1,1.9433165E-1,6.0069776E-1,1.2326862E0,-8.100439E-3,-4.898876E-3,-2.8109865E-3,3.0993828E-1,2.2454015E-3,6.9109434E-1,9.089785E-3,1.36925755E-2,-7.298092E-4,1.6220966E-4,3.8321498E-3,5.864966E-3],"split_indices":[22,22,22,22,22,22,22,0,0,0,22,0,22,0,0,0,0,0,0],"split_type":[0,0,0,0,0,0,0,0,0,0,0,0,0,0,0,0,0,0,0],"sum_hessian":[1.271E3,7.12E2,5.59E2,3.87E2,3.25E2,3.82E2,1.77E2,3.1E2,7.7E1,1.35E2,1.9E2,1.45E2,2.37E2,1.26E2,5.1E1,9.2E1,9.8E1,8.3E1,1.54E2],"tree_param":{"num_deleted":"0","num_feature":"27","num_nodes":"19","size_leaf_vector":"1"}},{"base_weights":[-1.4887305E-2,-5.8667314E-1,4.862825E-1,-8.037453E-3,-2.8794128E-1,2.095748E-1,8.9132565E-1,-4.194048E-3,-1.4833571E-1,2.7076682E-2,3.4951678E-1,6.898833E-3,1.1287259E-2,-1.8275158E-3,-0E0,-0E0,9.070342E-4,2.1925573E-3,3.9736163E-3],"categories":[],"categories_nodes":[],"categories_segments":[],"categories_sizes":[],"default_left":[0,0,0,0,0,0,0,0,0,0,0,0,0,0,0,0,0,0,0],"id":44,"left_children":[1,3,5,-1,7,9,11,-1,13,15,17,-1,-1,-1,-1,-1,-1,-1,-1],"loss_changes":[3.6059192E2,3.649182E1,7.346869E1,0E0,3.929224E0,9.879255E0,9.122803E0,0E0,6.520498E-1,3.7363434E-1,5.647297E-1,0E0,0E0,0E0,0E0,0E0,0E0,0E0,0E0],"parents":[2147483647,0,0,1,1,2,2,4,4,5,5,6,6,8,8,9,9,10,10],"right_children":[2,4,6,-1,8,10,12,-1,14,16,18,-1,-1,-1,-1,-1,-1,-1,-1],"split_conditions":[1.655548E-1,-1.6988395E-1,7.550586E-1,-8.037453E-3,7.8058586E-2,4.7590283E-1,1.0421541E0,-4.194048E-3,2.5542635E-1,3.8653257E-1,5.768594E-1,6.898833E-3,1.1287259E-2,-1.8275158E-3,-0E0,-0E0,9.070342E-4,2.1925573E-3,3.9736163E-3],"split_indices":[20,22,22,0,22,22,22,0,22,22,22,0,0,0,0,0,0,0,0],"split_type":[0,0,0,0,0,0,0,0,0,0,0,0,0,0,0,0,0,0,0],"sum_hessian":[1.253E3,5.86E2,6.67E2,3.35E2,2.51E2,4E2,2.67E2,1.23E2,1.28E2,1.78E2,2.22E2,1.52E2,1.15E2,1.03E2,2.5E1,1.19E2,5.9E1,6.9E1,1.53E2],"tree_param":{"num_deleted":"0","num_feature":"27","num_nodes":"19","size_leaf_vector":"1"}},{"base_weights":[-1.22974655E-2,2.4860096E-1,-8.064431E-3,2.401552E-2,5.804798E-1,-1.8909903E-1,4.731192E-1,2.2758408E-1,9.837543E-1,-3.6966643E-1,-0E0,3.1024904E-3,6.508094E-3,-1.0046966E-1,3.8261274E-1,8.17083E-3,1.2979656E-2,-5.1083374E-3,-2.6828423E-3,7.145331E-4,-6.527295E-4,-2.2855182E-3,5.9074042E-5,3.914207E-3,-0E0],"categories":[],"categories_nodes":[],"categories_segments":[],"categories_sizes":[],"default_left":[0,0,0,0,0,0,0,0,0,0,0,0,0,0,0,0,0,0,0,0,0,0,0,0,0],"id":45,"left_children":[1,3,-1,5,7,9,11,13,15,17,19,-1,-1,21,23,-1,-1,-1,-1,-1,-1,-1,-1,-1,-1],"loss_changes":[2.6160217E2,6.998272E1,0E0,5.5014828E1,5.2379364E1,1.3441689E1,3.9026108E0,1.0931225E1,4.424515E0,1.7334747E0,8.995713E-1,0E0,0E0,1.1320827E0,3.6549377E-1,0E0,0E0,0E0,0E0,0E0,0E0,0E0,0E0,0E0,0E0],"parents":[2147483647,0,0,1,1,3,3,4,4,5,5,6,6,7,7,8,8,9,9,10,10,13,13,14,14],"right_children":[2,4,-1,6,8,10,12,14,16,18,20,-1,-1,22,24,-1,-1,-1,-1,-1,-1,-1,-1,-1,-1],"split_conditions":[1E0,3.5398528E-1,-8.064431E-3,3.8326487E-1,9.14016E-1,3.9003408E-3,7.121263E-1,4.3619916E-1,1.3741777E0,-2.4526203E-1,5.686461E-1,3.1024904E-3,6.508094E-3,2.0332728E-1,1.2371122E0,8.17083E-3,1.2979656E-2,-5.1083374E-3,-2.6828423E-3,7.145331E-4,-6.527295E-4,-2.2855182E-3,5.9074042E-5,3.914207E-3,-0E0],"split_indices":[1,26,0,20,20,20,20,20,20,20,21,0,0,20,21,0,0,0,0,0,0,0,0,0,0],"split_type":[0,0,0,0,0,0,0,0,0,0,0,0,0,0,0,0,0,0,0,0,0,0,0,0,0],"sum_hessian":[1.255E3,9.45E2,3.1E2,5.67E2,3.78E2,3.84E2,1.83E2,2.05E2,1.73E2,1.97E2,1.87E2,1.02E2,8.1E1,6.4E1,1.41E2,1.21E2,5.2E1,7.4E1,1.23E2,9.4E1,9.3E1,3.2E1,3.2E1,1.37E2,4E0],"tree_param":{"num_deleted":"0","num_feature":"27","num_nodes":"25","size_leaf_vector":"1"}},{"base_weights":[9.04827E-3,-5.379411E-1,5.107927E-1,-7.72717E-3,-2.3988473E-1,2.485165E-1,9.0427476E-1,-3.3265683E-1,-1.09819405E-1,6.967064E-2,3.446141E-1,7.711883E-1,1.271551E-2,-3.6713537E-3,-8.30266E-4,-2.4094381E-3,-5.788578E-4,1.6002273E-4,1.5056045E-3,2.2438967E-3,4.102032E-3,6.4585446E-3,9.184948E-3],"categories":[],"categories_nodes":[],"categories_segments":[],"categories_sizes":[],"default_left":[0,0,0,0,0,0,0,0,0,0,0,0,0,0,0,0,0,0,0,0,0,0,0],"id":46,"left_children":[1,3,5,-1,7,9,11,13,15,17,19,21,-1,-1,-1,-1,-1,-1,-1,-1,-1,-1,-1],"loss_changes":[3.5071933E2,4.124463E1,6.717206E1,0E0,2.778428E0,6.494879E0,8.434357E0,8.033962E-1,5.0049853E-1,4.7208565E-1,1.1815586E0,6.912689E-1,0E0,0E0,0E0,0E0,0E0,0E0,0E0,0E0,0E0,0E0,0E0],"parents":[2147483647,0,0,1,1,2,2,4,4,5,5,6,6,7,7,8,8,9,9,10,10,11,11],"right_children":[2,4,6,-1,8,10,12,14,16,18,20,22,-1,-1,-1,-1,-1,-1,-1,-1,-1,-1,-1],"split_conditions":[3.0993828E-1,-1.1919446E-1,7.882818E-1,-7.72717E-3,-6.307812E-2,4.1467753E-1,1.3741777E0,1.09723404E-1,1.6766906E-1,4.125112E-1,5.889188E-1,9.936386E-1,1.271551E-2,-3.6713537E-3,-8.30266E-4,-2.4094381E-3,-5.788578E-4,1.6002273E-4,1.5056045E-3,2.2438967E-3,4.102032E-3,6.4585446E-3,9.184948E-3],"split_indices":[22,22,22,0,20,20,20,22,22,22,22,22,0,0,0,0,0,0,0,0,0,0,0],"split_type":[0,0,0,0,0,0,0,0,0,0,0,0,0,0,0,0,0,0,0,0,0,0,0],"sum_hessian":[1.273E3,6.08E2,6.65E2,3.36E2,2.72E2,4.03E2,2.62E2,1.52E2,1.2E2,1.46E2,2.57E2,2E2,6.2E1,1.29E2,2.3E1,2.6E1,9.4E1,9.7E1,4.9E1,1E2,1.57E2,1.19E2,8.1E1],"tree_param":{"num_deleted":"0","num_feature":"27","num_nodes":"23","size_leaf_vector":"1"}},{"base_weights":[9.035535E-3,-5.2571476E-1,5.3879625E-1,-7.3200166E-1,-1.803443E-1,2.604713E-1,9.156267E-1,-7.827246E-3,-4.745458E-3,-2.7154733E-3,-6.1813166E-4,1.0496792E-1,3.8112856E-3,7.667832E-3,1.2771931E-2,3.0191828E-4,1.5503871E-3],"categories":[],"categories_nodes":[],"categories_segments":[],"categories_sizes":[],"default_left":[0,0,0,0,0,0,0,0,0,0,0,0,0,0,0,0,0],"id":47,"left_children":[1,3,5,7,9,11,13,-1,-1,-1,-1,15,-1,-1,-1,-1,-1],"loss_changes":[3.7253894E2,4.5316513E1,6.7606674E1,3.1225739E0,2.3218727E0,6.6468735E0,1.0495682E1,0E0,0E0,0E0,0E0,4.6015668E-1,0E0,0E0,0E0,0E0,0E0],"parents":[2147483647,0,0,1,1,2,2,3,3,4,4,5,5,6,6,11,11],"right_children":[2,4,6,8,10,12,14,-1,-1,-1,-1,16,-1,-1,-1,-1,-1],"split_conditions":[3.3019987E-1,-1.1025134E-2,8.0019933E-1,-2.2621663E-1,1.8117578E-1,5.453914E-1,1.166725E0,-7.827246E-3,-4.745458E-3,-2.7154733E-3,-6.1813166E-4,4.0399885E-1,3.8112856E-3,7.667832E-3,1.2771931E-2,3.0191828E-4,1.5503871E-3],"split_indices":[22,22,22,22,22,22,22,0,0,0,0,22,0,0,0,0,0],"split_type":[0,0,0,0,0,0,0,0,0,0,0,0,0,0,0,0,0],"sum_hessian":[1.31E3,6.51E2,6.59E2,4.04E2,2.47E2,3.83E2,2.76E2,3.3E2,7.4E1,1.33E2,1.14E2,1.73E2,2.1E2,2.03E2,7.3E1,7.9E1,9.4E1],"tree_param":{"num_deleted":"0","num_feature":"27","num_nodes":"17","size_leaf_vector":"1"}},{"base_weights":[7.401392E-3,-7.7977884E-3,2.56494E-1,3.488427E-1,1.4505675E-1,5.658625E-2,3.8195142E-1,-1.9302653E-2,1.7243397E-1,-1.2501773E-3,3.0654664E-3,-2.8282374E-3,8.504714E-1,-2.1852679E-3,2.3422134E-3,-1.6023102E-1,5.902876E-1,-2.493178E-3,2.0703056E-3,5.5974745E-3,1.0794244E-2,-3.909521E-3,4.2067486E-4,3.7251683E-3,8.045728E-3],"categories":[],"categories_nodes":[],"categories_segments":[],"categories_sizes":[],"default_left":[0,0,0,0,0,0,0,0,0,0,0,0,0,0,0,0,0,0,0,0,0,0,0,0,0],"id":48,"left_children":[1,-1,3,5,7,9,11,13,15,-1,-1,17,19,-1,-1,21,23,-1,-1,-1,-1,-1,-1,-1,-1],"loss_changes":[2.5517586E2,0E0,9.583206E0,4.6890564E0,2.2245655E0,3.0236635E0,8.693588E1,3.2690206E0,5.6060116E1,0E0,0E0,1.3801659E1,1.1261032E1,0E0,0E0,1.07750845E1,6.4033318E0,0E0,0E0,0E0,0E0,0E0,0E0,0E0,0E0],"parents":[2147483647,0,0,2,2,3,3,4,4,5,5,6,6,7,7,8,8,11,11,12,12,15,15,16,16],"right_children":[2,-1,4,6,8,10,12,14,16,-1,-1,18,20,-1,-1,22,24,-1,-1,-1,-1,-1,-1,-1,-1],"split_conditions":[-8.050149E-1,-7.7977884E-3,5.8333766E-1,-9.8597604E-1,-9.8597604E-1,4.0399885E-1,6.8620086E-1,3.4968197E-1,5.255272E-1,-1.2501773E-3,3.0654664E-3,3.3019987E-1,9.661061E-1,-2.1852679E-3,2.3422134E-3,1.9433165E-1,8.416439E-1,-2.493178E-3,2.0703056E-3,5.5974745E-3,1.0794244E-2,-3.909521E-3,4.2067486E-4,3.7251683E-3,8.045728E-3],"split_indices":[21,0,21,24,24,22,22,22,22,0,0,22,22,0,0,22,22,0,0,0,0,0,0,0,0],"split_type":[0,0,0,0,0,0,0,0,0,0,0,0,0,0,0,0,0,0,0,0,0,0,0,0,0],"sum_hessian":[1.299E3,3.1E2,9.89E2,5.33E2,4.56E2,5.8E1,4.75E2,6E1,3.96E2,3.2E1,2.6E1,2.61E2,2.14E2,3.6E1,2.4E1,2.2E2,1.76E2,1.22E2,1.39E2,1E2,1.14E2,1.04E2,1.16E2,9.3E1,8.3E1],"tree_param":{"num_deleted":"0","num_feature":"27","num_nodes":"25","size_leaf_vector":"1"}},{"base_weights":[-0E0,-5.260855E-1,4.9656135E-1,-7.239001E-1,-1.7984252E-1,2.3248994E-1,8.9192617E-1,-7.704282E-3,-4.6489015E-3,-2.6209366E-3,-5.1978184E-4,4.6216752E-4,3.450936E-1,7.4927416E-3,1.246727E-2,2.4401639E-3,4.1108085E-3],"categories":[],"categories_nodes":[],"categories_segments":[],"categories_sizes":[],"default_left":[0,0,0,0,0,0,0,0,0,0,0,0,0,0,0,0,0],"id":49,"left_children":[1,3,5,7,9,11,13,-1,-1,-1,-1,-1,15,-1,-1,-1,-1],"loss_changes":[3.3539496E2,4.1407013E1,6.742079E1,2.611435E0,2.0865536E0,7.9902973E0,8.954559E0,0E0,0E0,0E0,0E0,0E0,7.3823357E-1,0E0,0E0,0E0,0E0],"parents":[2147483647,0,0,1,1,2,2,3,3,4,4,5,5,6,6,12,12],"right_children":[2,4,6,8,10,12,14,-1,-1,-1,-1,-1,16,-1,-1,-1,-1],"split_conditions":[2.0814279E-1,-1.1025134E-2,7.882818E-1,-2.2621663E-1,1.8117578E-1,4.8329672E-1,1.166725E0,-7.704282E-3,-4.6489015E-3,-2.6209366E-3,-5.1978184E-4,4.6216752E-4,6.0069776E-1,7.4927416E-3,1.246727E-2,2.4401639E-3,4.1108085E-3],"split_indices":[20,22,22,22,22,22,22,0,0,0,0,0,22,0,0,0,0],"split_type":[0,0,0,0,0,0,0,0,0,0,0,0,0,0,0,0,0],"sum_hessian":[1.279E3,6.2E2,6.59E2,3.91E2,2.29E2,3.99E2,2.6E2,3.24E2,6.7E1,1.33E2,9.6E1,1.55E2,2.44E2,1.93E2,6.7E1,1.07E2,1.37E2],"tree_param":{"num_deleted":"0","num_feature":"27","num_nodes":"17","size_leaf_vector":"1"}},{"base_weights":[-4.3721204E-3,-5.064127E-1,4.8992616E-1,-7.091326E-1,-1.7278579E-1,2.458795E-1,8.523318E-1,-7.6351804E-3,-4.8185512E-3,-2.5897606E-3,-6.739996E-4,1.0205597E-3,3.673657E-3,6.6808197E-3,1.0884963E-2],"categories":[],"categories_nodes":[],"categories_segments":[],"categories_sizes":[],"default_left":[0,0,0,0,0,0,0,0,0,0,0,0,0,0,0],"id":50,"left_children":[1,3,5,7,9,11,13,-1,-1,-1,-1,-1,-1,-1,-1],"loss_changes":[3.1889914E2,4.19953E1,5.555684E1,2.7111206E0,1.8690042E0,6.277361E0,7.630066E0,0E0,0E0,0E0,0E0,0E0,0E0,0E0,0E0],"parents":[2147483647,0,0,1,1,2,2,3,3,4,4,5,5,6,6],"right_children":[2,4,6,8,10,12,14,-1,-1,-1,-1,-1,-1,-1,-1],"split_conditions":[3.3019987E-1,-1.1025134E-2,7.882818E-1,-2.8960827E-1,1.8117578E-1,5.453914E-1,1.0682545E0,-7.6351804E-3,-4.8185512E-3,-2.5897606E-3,-6.739996E-4,1.0205597E-3,3.673657E-3,6.6808197E-3,1.0884963E-2],"split_indices":[22,22,22,22,22,22,22,0,0,0,0,0,0,0,0],"split_type":[0,0,0,0,0,0,0,0,0,0,0,0,0,0,0],"sum_hessian":[1.28E3,6.36E2,6.44E2,3.92E2,2.44E2,3.89E2,2.55E2,3.08E2,8.4E1,1.27E2,1.17E2,1.84E2,2.05E2,1.51E2,1.04E2],"tree_param":{"num_deleted":"0","num_feature":"27","num_nodes":"15","size_leaf_vector":"1"}},{"base_weights":[9.873296E-3,-4.654121E-1,5.3779364E-1,-6.946922E-1,-1.405497E-1,3.3784956E-1,9.764828E-1,-7.492999E-3,-4.657714E-3,-2.2734776E-1,-3.6474038E-2,1.8899466E-1,4.6104273E-1,8.403599E-3,1.2282981E-2,-2.7353466E-3,-9.90909E-4,-9.87308E-4,-0E0,7.5888E-4,2.493922E-3,3.2238232E-3,5.2632736E-3],"categories":[],"categories_nodes":[],"categories_segments":[],"categories_sizes":[],"default_left":[0,0,0,0,0,0,0,0,0,0,0,0,0,0,0,0,0,0,0,0,0,0,0],"id":51,"left_children":[1,3,5,7,9,11,13,-1,-1,15,17,19,21,-1,-1,-1,-1,-1,-1,-1,-1,-1,-1],"loss_changes":[3.2500296E2,4.9607315E1,5.176071E1,2.8690186E0,2.303564E0,6.9715843E0,1.8464508E0,0E0,0E0,4.511428E-1,3.1775594E-1,1.0039253E0,7.9556274E-1,0E0,0E0,0E0,0E0,0E0,0E0,0E0,0E0,0E0,0E0],"parents":[2147483647,0,0,1,1,2,2,3,3,4,4,5,5,6,6,9,9,10,10,11,11,12,12],"right_children":[2,4,6,8,10,12,14,-1,-1,16,18,20,22,-1,-1,-1,-1,-1,-1,-1,-1,-1,-1],"split_conditions":[3.59149E-1,-1.1025134E-2,9.2791915E-1,-5.744808E-1,5.9430134E-2,6.27261E-1,1.3741777E0,-7.492999E-3,-4.657714E-3,1.3952447E-1,2.6680824E-1,4.5305058E-1,6.9109434E-1,8.403599E-3,1.2282981E-2,-2.7353466E-3,-9.90909E-4,-9.87308E-4,-0E0,7.5888E-4,2.493922E-3,3.2238232E-3,5.2632736E-3],"split_indices":[22,22,22,20,20,20,20,0,0,22,22,22,22,0,0,0,0,0,0,0,0,0,0],"split_type":[0,0,0,0,0,0,0,0,0,0,0,0,0,0,0,0,0,0,0,0,0,0,0],"sum_hessian":[1.29E3,6.78E2,6.12E2,3.94E2,2.84E2,4.25E2,1.87E2,3.1E2,8.4E1,1.48E2,1.36E2,1.99E2,2.26E2,1.31E2,5.6E1,1.01E2,4.7E1,4.9E1,8.7E1,7.7E1,1.22E2,8.2E1,1.44E2],"tree_param":{"num_deleted":"0","num_feature":"27","num_nodes":"23","size_leaf_vector":"1"}},{"base_weights":[2.6191426E-3,-4.9719894E-1,4.93897E-1,-6.944021E-1,-2.5325897E-1,3.9871582E-1,8.094249E-1,-7.438518E-3,-1.1069227E-3,-4.208111E-3,-1.10713705E-1,2.0260808E-1,6.9393784E-1,4.7624046E-1,1.0692024E-2,-1.4083752E-3,-0E0,6.192896E-4,2.9263583E-3,5.7100425E-3,9.097929E-3,1.3437321E-4,5.115369E-3],"categories":[],"categories_nodes":[],"categories_segments":[],"categories_sizes":[],"default_left":[0,0,0,0,0,0,0,0,0,0,0,0,0,0,0,0,0,0,0,0,0,0,0],"id":52,"left_children":[1,3,5,7,9,11,13,-1,-1,-1,15,17,19,21,-1,-1,-1,-1,-1,-1,-1,-1,-1],"loss_changes":[3.1331796E2,2.8991455E1,1.734085E1,8.912231E0,6.24247E0,2.7844368E1,9.688591E0,0E0,0E0,0E0,4.379655E-1,3.4946232E0,2.4612885E0,5.931444E-1,0E0,0E0,0E0,0E0,0E0,0E0,0E0,0E0,0E0],"parents":[2147483647,0,0,1,1,2,2,3,3,4,4,5,5,6,6,10,10,11,11,12,12,13,13],"right_children":[2,4,6,8,10,12,14,-1,-1,-1,16,18,20,22,-1,-1,-1,-1,-1,-1,-1,-1,-1],"split_conditions":[3.3019987E-1,1E0,1.1869279E0,2.650849E-2,7.8058586E-2,7.102088E-1,1.0016147E0,-7.438518E-3,-1.1069227E-3,-4.208111E-3,2.0332728E-1,4.8329672E-1,9.936386E-1,5.255272E-1,1.0692024E-2,-1.4083752E-3,-0E0,6.192896E-4,2.9263583E-3,5.7100425E-3,9.097929E-3,1.3437321E-4,5.115369E-3],"split_indices":[22,18,26,22,22,22,22,0,0,0,20,22,22,22,0,0,0,0,0,0,0,0,0],"split_type":[0,0,0,0,0,0,0,0,0,0,0,0,0,0,0,0,0,0,0,0,0,0,0],"sum_hessian":[1.271E3,6.29E2,6.42E2,3.43E2,2.86E2,5E2,1.42E2,3.14E2,2.9E1,1.26E2,1.6E2,3.05E2,1.95E2,6.7E1,7.5E1,1.2E2,4E1,1.25E2,1.8E2,1.33E2,6.2E1,7E0,6E1],"tree_param":{"num_deleted":"0","num_feature":"27","num_nodes":"23","size_leaf_vector":"1"}},{"base_weights":[7.435795E-3,-5.320774E-1,4.5849115E-1,-7.2626825E-3,-2.6299015E-1,2.4550165E-1,9.077449E-1,-3.7560295E-3,-1.454803E-3,6.217231E-4,3.7724515E-3,7.706748E-3,1.2140105E-2],"categories":[],"categories_nodes":[],"categories_segments":[],"categories_sizes":[],"default_left":[0,0,0,0,0,0,0,0,0,0,0,0,0],"id":53,"left_children":[1,3,5,-1,7,9,11,-1,-1,-1,-1,-1,-1],"loss_changes":[3.1336313E2,2.9128128E1,6.550928E1,0E0,2.6704369E0,1.1131351E1,5.058792E0,0E0,0E0,0E0,0E0,0E0,0E0],"parents":[2147483647,0,0,1,1,2,2,4,4,5,5,6,6],"right_children":[2,4,6,-1,8,10,12,-1,-1,-1,-1,-1,-1],"split_conditions":[2.7793995E-1,-1.4390533E-1,8.765869E-1,-7.2626825E-3,7.8058586E-2,5.118379E-1,1.1854162E0,-3.7560295E-3,-1.454803E-3,6.217231E-4,3.7724515E-3,7.706748E-3,1.2140105E-2],"split_indices":[22,22,22,0,22,22,22,0,0,0,0,0,0],"split_type":[0,0,0,0,0,0,0,0,0,0,0,0,0],"sum_hessian":[1.283E3,5.83E2,7E2,3.34E2,2.49E2,4.79E2,2.21E2,1.2E2,1.29E2,2.05E2,2.74E2,1.61E2,6E1],"tree_param":{"num_deleted":"0","num_feature":"27","num_nodes":"13","size_leaf_vector":"1"}},{"base_weights":[-6.777789E-4,-5.2821887E-1,4.434702E-1,-7.2552185E-3,-2.5327015E-1,2.2892006E-1,8.4819084E-1,-3.806524E-3,-1.786286E-3,4.0295048E-4,3.447993E-1,7.2632567E-3,1.1870691E-2,2.4817765E-3,4.0022363E-3],"categories":[],"categories_nodes":[],"categories_segments":[],"categories_sizes":[],"default_left":[0,0,0,0,0,0,0,0,0,0,0,0,0,0,0],"id":54,"left_children":[1,3,5,-1,7,9,11,-1,-1,-1,13,-1,-1,-1,-1],"loss_changes":[3.03277E2,3.0703873E1,5.935074E1,0E0,1.6810112E0,9.7112255E0,5.863144E0,0E0,0E0,0E0,6.214752E-1,0E0,0E0,0E0,0E0],"parents":[2147483647,0,0,1,1,2,2,4,4,5,5,6,6,10,10],"right_children":[2,4,6,-1,8,10,12,-1,-1,-1,14,-1,-1,-1,-1],"split_conditions":[1.655548E-1,-4.5106667E-1,8.913396E-1,-7.2552185E-3,-1.8231168E-1,4.1467753E-1,1.3741777E0,-3.806524E-3,-1.786286E-3,4.0295048E-4,6.27261E-1,7.2632567E-3,1.1870691E-2,2.4817765E-3,4.0022363E-3],"split_indices":[20,20,20,0,20,20,20,0,0,0,20,0,0,0,0],"split_type":[0,0,0,0,0,0,0,0,0,0,0,0,0,0,0],"sum_hessian":[1.289E3,5.9E2,6.99E2,3.39E2,2.51E2,4.61E2,2.38E2,8.4E1,1.67E2,1.8E2,2.81E2,1.83E2,5.5E1,1.14E2,1.67E2],"tree_param":{"num_deleted":"0","num_feature":"27","num_nodes":"15","size_leaf_vector":"1"}},{"base_weights":[-2.6559466E-3,-4.3414736E-1,5.474273E-1,-6.71762E-1,-1.1230215E-1,3.2991838E-1,8.804581E-1,-7.2563468E-3,-4.3494883E-3,-2.128412E-3,-0E0,1.7723766E-3,4.29141E-3,7.503238E-3,1.1770807E-2],"categories":[],"categories_nodes":[],"categories_segments":[],"categories_sizes":[],"default_left":[0,0,0,0,0,0,0,0,0,0,0,0,0,0,0],"id":55,"left_children":[1,3,5,7,9,11,13,-1,-1,-1,-1,-1,-1,-1,-1],"loss_changes":[3.0631433E2,5.4433563E1,3.909906E1,3.3384705E0,3.329692E0,4.4830284E0,4.3760986E0,0E0,0E0,0E0,0E0,0E0,0E0,0E0,0E0],"parents":[2147483647,0,0,1,1,2,2,3,3,4,4,5,5,6,6],"right_children":[2,4,6,8,10,12,14,-1,-1,-1,-1,-1,-1,-1,-1],"split_conditions":[4.0399885E-1,8.089291E-3,8.765869E-1,-2.2621663E-1,2.437828E-1,5.9484255E-1,1.1854162E0,-7.2563468E-3,-4.3494883E-3,-2.128412E-3,-0E0,1.7723766E-3,4.29141E-3,7.503238E-3,1.1770807E-2],"split_indices":[22,22,22,22,22,22,22,0,0,0,0,0,0,0,0],"split_type":[0,0,0,0,0,0,0,0,0,0,0,0,0,0,0],"sum_hessian":[1.286E3,7.22E2,5.64E2,4.12E2,3.1E2,3.46E2,2.18E2,3.28E2,8.4E1,1.58E2,1.52E2,1.43E2,2.03E2,1.6E2,5.8E1],"tree_param":{"num_deleted":"0","num_feature":"27","num_nodes":"15","size_leaf_vector":"1"}},{"base_weights":[2.0917743E-3,2.4000393E-1,-7.203906E-3,-9.4189055E-2,6.6806287E-1,-3.3328137E-1,5.3481072E-2,4.789201E-1,9.9969256E-1,-4.2251307E-3,-2.5160413E-3,-0E0,2.0474067E-3,3.5561125E-3,5.426335E-3,8.71325E-3,1.2664511E-2,-5.8695034E-4,5.56502E-4],"categories":[],"categories_nodes":[],"categories_segments":[],"categories_sizes":[],"default_left":[0,0,0,0,0,0,0,0,0,0,0,0,0,0,0,0,0,0,0],"id":56,"left_children":[1,3,-1,5,7,9,11,13,15,-1,-1,17,-1,-1,-1,-1,-1,-1,-1],"loss_changes":[2.2331946E2,1.4099591E2,0E0,1.9796057E1,2.4390427E1,6.161499E-1,2.9035769E0,8.30925E-1,3.2557678E-1,0E0,0E0,8.286141E-1,0E0,0E0,0E0,0E0,0E0,0E0,0E0],"parents":[2147483647,0,0,1,1,3,3,4,4,5,5,6,6,7,7,8,8,11,11],"right_children":[2,4,-1,6,8,10,12,14,16,-1,-1,18,-1,-1,-1,-1,-1,-1,-1],"split_conditions":[1E0,5.889188E-1,-7.203906E-3,1.8117578E-1,9.936386E-1,-2.3311609E-1,4.1467753E-1,7.280167E-1,1.4862524E0,-4.2251307E-3,-2.5160413E-3,3.3019987E-1,2.0474067E-3,3.5561125E-3,5.426335E-3,8.71325E-3,1.2664511E-2,-5.8695034E-4,5.56502E-4],"split_indices":[1,22,0,22,22,20,20,20,20,0,0,22,0,0,0,0,0,0,0],"split_type":[0,0,0,0,0,0,0,0,0,0,0,0,0,0,0,0,0,0,0],"sum_hessian":[1.297E3,9.78E2,3.19E2,5.49E2,4.29E2,2.11E2,3.38E2,2.79E2,1.5E2,9E1,1.21E2,2.48E2,9E1,1.06E2,1.73E2,1.11E2,3.9E1,1.27E2,1.21E2],"tree_param":{"num_deleted":"0","num_feature":"27","num_nodes":"19","size_leaf_vector":"1"}},{"base_weights":[6.029118E-3,-5.13464E-1,4.4196007E-1,-2.8566623E-1,-7.139526E-3,4.9963778E-1,3.5599065E-1,-4.3436587E-3,-1.6195973E-3,2.7622312E-1,9.686004E-3,1.7461073E-1,7.169847E-3,7.412604E-4,4.132372E-3,3.566799E-4,2.8917002E-3],"categories":[],"categories_nodes":[],"categories_segments":[],"categories_sizes":[],"default_left":[0,0,0,0,0,0,0,0,0,0,0,0,0,0,0,0,0],"id":57,"left_children":[1,3,5,7,-1,9,11,-1,-1,13,-1,15,-1,-1,-1,-1,-1],"loss_changes":[2.845938E2,2.4637054E1,2.093811E0,4.277258E0,0E0,3.9628845E1,1.7816513E1,0E0,0E0,7.0093117E0,0E0,2.8089366E0,0E0,0E0,0E0,0E0,0E0],"parents":[2147483647,0,0,1,1,2,2,3,3,5,5,6,6,9,9,11,11],"right_children":[2,4,6,8,-1,10,12,-1,-1,14,-1,16,-1,-1,-1,-1,-1],"split_conditions":[2.7793995E-1,1E0,5.8333766E-1,4.4281267E-2,-7.139526E-3,9.2791915E-1,7.5933266E-1,-4.3436587E-3,-1.6195973E-3,4.1467753E-1,9.686004E-3,5.2860576E-1,7.169847E-3,7.412604E-4,4.132372E-3,3.566799E-4,2.8917002E-3],"split_indices":[22,1,21,22,0,22,22,0,0,20,0,20,0,0,0,0,0],"split_type":[0,0,0,0,0,0,0,0,0,0,0,0,0,0,0,0,0],"sum_hessian":[1.252E3,5.7E2,6.82E2,2.72E2,2.98E2,3.94E2,2.88E2,1.17E2,1.55E2,2.71E2,1.23E2,1.96E2,9.2E1,1.14E2,1.57E2,9.4E1,1.02E2],"tree_param":{"num_deleted":"0","num_feature":"27","num_nodes":"17","size_leaf_vector":"1"}},{"base_weights":[1.4219448E-2,-4.1173062E-1,5.3772444E-1,-6.8549984E-3,-1.5823682E-1,3.2285652E-1,8.4430254E-1,-2.651738E-1,-2.1789865E-4,2.106419E-3,4.0512513E-3,7.2386353E-3,1.130796E-2,-0E0,-2.877415E-1,-3.714933E-3,-1.9418682E-3],"categories":[],"categories_nodes":[],"categories_segments":[],"categories_sizes":[],"default_left":[0,0,0,0,0,0,0,0,0,0,0,0,0,0,0,0,0],"id":58,"left_children":[1,3,5,-1,7,9,11,13,-1,-1,-1,-1,-1,-1,15,-1,-1],"loss_changes":[2.866603E2,4.798474E1,3.619348E1,0E0,5.1338215E0,2.3604622E0,4.190399E0,9.786501E-1,0E0,0E0,0E0,0E0,0E0,0E0,7.0743465E-1,0E0,0E0],"parents":[2147483647,0,0,1,1,2,2,4,4,5,5,6,6,7,7,14,14],"right_children":[2,4,6,-1,8,10,12,14,-1,-1,-1,-1,-1,-1,16,-1,-1],"split_conditions":[4.0399885E-1,-4.321206E-1,9.502396E-1,-6.8549984E-3,6.835288E-2,6.233949E-1,1.3741777E0,1.7712515E-2,-2.1789865E-4,2.106419E-3,4.0512513E-3,7.2386353E-3,1.130796E-2,-0E0,4.4281267E-2,-3.714933E-3,-1.9418682E-3],"split_indices":[22,20,20,0,20,20,20,21,0,0,0,0,0,0,22,0,0],"split_type":[0,0,0,0,0,0,0,0,0,0,0,0,0,0,0,0,0],"sum_hessian":[1.28E3,7.05E2,5.75E2,3.35E2,3.7E2,3.43E2,2.32E2,2.02E2,1.68E2,1.54E2,1.89E2,1.72E2,6E1,1.9E1,1.83E2,8.7E1,9.6E1],"tree_param":{"num_deleted":"0","num_feature":"27","num_nodes":"17","size_leaf_vector":"1"}},{"base_weights":[6.2399795E-3,-4.690861E-1,4.668172E-1,-6.50651E-1,-1.5202776E-1,2.2284205E-1,8.0813515E-1,-6.9629187E-3,-4.2893817E-3,-2.003673E-1,-2.751424E-4,1.0034913E-1,3.3756888E-3,6.9499156E-3,1.1212585E-2,-0E0,-2.184572E-3,1.7881863E-3,4.300691E-4],"categories":[],"categories_nodes":[],"categories_segments":[],"categories_sizes":[],"default_left":[0,0,0,0,0,0,0,0,0,0,0,0,0,0,0,0,0,0,0],"id":59,"left_children":[1,3,5,7,9,11,13,-1,-1,15,-1,17,-1,-1,-1,-1,-1,-1,-1],"loss_changes":[2.902916E2,3.6454697E1,5.468651E1,2.2921448E0,1.2179255E0,5.0776043E0,6.102249E0,0E0,0E0,4.6533966E-1,0E0,6.6112137E-1,0E0,0E0,0E0,0E0,0E0,0E0,0E0],"parents":[2147483647,0,0,1,1,2,2,3,3,4,4,5,5,6,6,9,9,11,11],"right_children":[2,4,6,8,10,12,14,-1,-1,16,-1,18,-1,-1,-1,-1,-1,-1,-1],"split_conditions":[2.4000286E-1,-1.1025134E-2,7.882818E-1,-5.744808E-1,1.0849248E-1,5.424531E-1,1.3741777E0,-6.9629187E-3,-4.2893817E-3,1.7712515E-2,-2.751424E-4,4.437678E-1,3.3756888E-3,6.9499156E-3,1.1212585E-2,-0E0,-2.184572E-3,1.7881863E-3,4.300691E-4],"split_indices":[20,22,22,20,20,20,20,0,0,21,0,21,0,0,0,0,0,0,0],"split_type":[0,0,0,0,0,0,0,0,0,0,0,0,0,0,0,0,0,0,0],"sum_hessian":[1.321E3,6.49E2,6.72E2,4.09E2,2.4E2,3.96E2,2.76E2,3.31E2,7.8E1,1.66E2,7.4E1,1.98E2,1.98E2,2.11E2,6.5E1,1.7E1,1.49E2,7.4E1,1.24E2],"tree_param":{"num_deleted":"0","num_feature":"27","num_nodes":"19","size_leaf_vector":"1"}},{"base_weights":[-0E0,-4.5599428E-1,4.6933582E-1,-6.4088666E-1,-1.4643797E-1,2.851424E-1,8.688377E-3,-6.935727E-3,-4.3902947E-3,-0E0,-1.7351808E-1,3.7084898E-1,2.276515E-1,-2.1795372E-3,-5.38599E-4,1.9188918E-3,4.754319E-3,6.958604E-4,3.4975104E-3],"categories":[],"categories_nodes":[],"categories_segments":[],"categories_sizes":[],"default_left":[0,0,0,0,0,0,0,0,0,0,0,0,0,0,0,0,0,0,0],"id":60,"left_children":[1,3,5,7,9,11,-1,-1,-1,-1,13,15,17,-1,-1,-1,-1,-1,-1],"loss_changes":[2.7822955E2,3.6667023E1,4.5431854E1,2.4612122E0,1.0650916E0,1.3806458E0,0E0,0E0,0E0,0E0,8.393545E-1,2.2395554E0,4.914091E0,0E0,0E0,0E0,0E0,0E0,0E0],"parents":[2147483647,0,0,1,1,2,2,3,3,4,4,5,5,10,10,11,11,12,12],"right_children":[2,4,6,8,10,12,-1,-1,-1,-1,14,16,18,-1,-1,-1,-1,-1,-1],"split_conditions":[2.517959E-1,-2.3311609E-1,1.0247357E0,-8.050149E-1,1.4993657E-1,4.2907622E-1,8.688377E-3,-6.935727E-3,-4.3902947E-3,-0E0,1.3201013E-1,5.424531E-1,5.8864987E-1,-2.1795372E-3,-5.38599E-4,1.9188918E-3,4.754319E-3,6.958604E-4,3.4975104E-3],"split_indices":[20,20,20,21,21,21,0,0,0,0,20,20,20,0,0,0,0,0,0],"split_type":[0,0,0,0,0,0,0,0,0,0,0,0,0,0,0,0,0,0,0],"sum_hessian":[1.295E3,6.56E2,6.39E2,4.07E2,2.49E2,4.42E2,1.97E2,3.14E2,9.3E1,3.7E1,2.12E2,1.65E2,2.77E2,1.47E2,6.5E1,6.7E1,9.8E1,1.26E2,1.51E2],"tree_param":{"num_deleted":"0","num_feature":"27","num_nodes":"19","size_leaf_vector":"1"}},{"base_weights":[1.1870268E-2,-4.023291E-1,5.2563775E-1,-1.9249405E-3,-6.876914E-3,5.5383337E-3,4.1230363E-3],"categories":[],"categories_nodes":[],"categories_segments":[],"categories_sizes":[],"default_left":[0,0,0,0,0,0,0],"id":61,"left_children":[1,3,5,-1,-1,-1,-1],"loss_changes":[2.7399637E2,4.13928E1,3.0200195E-1,0E0,0E0,0E0,0E0],"parents":[2147483647,0,0,1,1,2,2],"right_children":[2,4,6,-1,-1,-1,-1],"split_conditions":[4.0399885E-1,1E0,7.449448E-1,-1.9249405E-3,-6.876914E-3,5.5383337E-3,4.1230363E-3],"split_indices":[22,1,21,0,0,0,0],"split_type":[0,0,0,0,0,0,0],"sum_hessian":[1.282E3,7.09E2,5.73E2,4.13E2,2.96E2,4.44E2,1.29E2],"tree_param":{"num_deleted":"0","num_feature":"27","num_nodes":"7","size_leaf_vector":"1"}},{"base_weights":[1.2894381E-3,-4.5279416E-1,4.5126408E-1,-6.6872463E-3,-2.0920648E-1,2.5588408E-1,8.06871E-1,-2.928897E-3,-9.2667685E-4,1.1670478E-3,3.7920573E-3,6.893725E-3,1.1007633E-2],"categories":[],"categories_nodes":[],"categories_segments":[],"categories_sizes":[],"default_left":[0,0,0,0,0,0,0,0,0,0,0,0,0],"id":62,"left_children":[1,3,5,-1,7,9,11,-1,-1,-1,-1,-1,-1],"loss_changes":[2.6051428E2,3.2093155E1,4.2991547E1,0E0,2.506425E0,6.5936756E0,4.0651703E0,0E0,0E0,0E0,0E0,0E0,0E0],"parents":[2147483647,0,0,1,1,2,2,4,4,5,5,6,6],"right_children":[2,4,6,-1,8,10,12,-1,-1,-1,-1,-1,-1],"split_conditions":[3.3019987E-1,-4.5106667E-1,9.502396E-1,-6.6872463E-3,-4.8152316E-2,5.8864987E-1,1.3741777E0,-2.928897E-3,-9.2667685E-4,1.1670478E-3,3.7920573E-3,6.893725E-3,1.1007633E-2],"split_indices":[22,20,20,0,20,20,20,0,0,0,0,0,0],"split_type":[0,0,0,0,0,0,0,0,0,0,0,0,0],"sum_hessian":[1.27E3,6.31E2,6.39E2,3.3E2,3.01E2,4.17E2,2.22E2,1.68E2,1.33E2,2.02E2,2.15E2,1.67E2,5.5E1],"tree_param":{"num_deleted":"0","num_feature":"27","num_nodes":"13","size_leaf_vector":"1"}},{"base_weights":[-2.6520437E-3,-4.864116E-1,4.0998068E-1,-2.5649634E-1,-6.7445654E-3,4.6472752E-1,2.8010437E-1,-4.0101465E-3,-1.3690007E-1,2.0587578E-1,7.81493E-1,1.1890527E-1,5.886747E-3,-1.7187787E-3,-0E0,8.370169E-2,3.366292E-3,5.5697346E-3,9.589634E-3,-0E0,2.2612847E-3,-0E0,1.3435086E-3],"categories":[],"categories_nodes":[],"categories_segments":[],"categories_sizes":[],"default_left":[0,0,0,0,0,0,0,0,0,0,0,0,0,0,0,0,0,0,0,0,0,0,0],"id":63,"left_children":[1,3,5,7,-1,9,11,-1,13,15,17,19,-1,-1,-1,21,-1,-1,-1,-1,-1,-1,-1],"loss_changes":[2.5218973E2,2.3820572E1,3.7683105E0,3.9655552E0,0E0,3.710721E1,9.737188E0,0E0,7.2331405E-1,3.7185564E0,5.4565735E0,1.8546121E0,0E0,0E0,0E0,5.740315E-1,0E0,0E0,0E0,0E0,0E0,0E0,0E0],"parents":[2147483647,0,0,1,1,2,2,3,3,5,5,6,6,8,8,9,9,10,10,11,11,15,15],"right_children":[2,4,6,8,-1,10,12,-1,14,16,18,20,-1,-1,-1,22,-1,-1,-1,-1,-1,-1,-1],"split_conditions":[1.655548E-1,1E0,7.082159E-1,4.4281267E-2,-6.7445654E-3,7.7607703E-1,6.762697E-1,-4.0101465E-3,2.437828E-1,5.768594E-1,1.0197512E0,4.0399885E-1,5.886747E-3,-1.7187787E-3,-0E0,4.125112E-1,3.366292E-3,5.5697346E-3,9.589634E-3,-0E0,2.2612847E-3,-0E0,1.3435086E-3],"split_indices":[20,1,21,22,0,22,22,0,22,22,22,22,0,0,0,22,0,0,0,0,0,0,0],"split_type":[0,0,0,0,0,0,0,0,0,0,0,0,0,0,0,0,0,0,0,0,0,0,0],"sum_hessian":[1.258E3,5.8E2,6.78E2,2.66E2,3.14E2,4.67E2,2.11E2,1.14E2,1.52E2,2.61E2,2.06E2,1.43E2,6.8E1,1.2E2,3.2E1,1.41E2,1.2E2,9.8E1,1.08E2,6.9E1,7.4E1,5.6E1,8.5E1],"tree_param":{"num_deleted":"0","num_feature":"27","num_nodes":"23","size_leaf_vector":"1"}},{"base_weights":[6.257768E-3,-4.391305E-1,4.5109418E-1,-6.557511E-3,-1.9112371E-1,2.3726235E-1,7.8828335E-1,-3.167285E-3,-6.806602E-4,8.2950876E-4,3.4361673E-3,6.091321E-3,9.967344E-3],"categories":[],"categories_nodes":[],"categories_segments":[],"categories_sizes":[],"default_left":[0,0,0,0,0,0,0,0,0,0,0,0,0],"id":64,"left_children":[1,3,5,-1,7,9,11,-1,-1,-1,-1,-1,-1],"loss_changes":[2.520268E2,3.2927284E1,4.4471756E1,0E0,4.221485E0,5.993E0,6.006958E0,0E0,0E0,0E0,0E0,0E0,0E0],"parents":[2147483647,0,0,1,1,2,2,4,4,5,5,6,6],"right_children":[2,4,6,-1,8,10,12,-1,-1,-1,-1,-1,-1],"split_conditions":[2.517959E-1,-4.5106667E-1,9.289376E-1,-6.557511E-3,1.248431E-1,5.453914E-1,1.0774215E0,-3.167285E-3,-6.806602E-4,8.2950876E-4,3.4361673E-3,6.091321E-3,9.967344E-3],"split_indices":[20,20,20,0,22,22,22,0,0,0,0,0,0],"split_type":[0,0,0,0,0,0,0,0,0,0,0,0,0],"sum_hessian":[1.267E3,6.32E2,6.35E2,3.33E2,2.99E2,3.93E2,2.42E2,1.42E2,1.57E2,1.66E2,2.27E2,1.38E2,1.04E2],"tree_param":{"num_deleted":"0","num_feature":"27","num_nodes":"13","size_leaf_vector":"1"}},{"base_weights":[-3.5108058E-3,-4.9434513E-1,3.9004004E-1,-6.6623446E-3,-2.7972493E-1,1.8186766E-1,4.133751E-1,-4.0662508E-3,-1.6469411E-3,4.1758182E-4,3.366688E-3,1.7398271E-1,7.484383E-1,4.625174E-4,3.170901E-3,5.7622306E-3,9.9586565E-3],"categories":[],"categories_nodes":[],"categories_segments":[],"categories_sizes":[],"default_left":[0,0,0,0,0,0,0,0,0,0,0,0,0,0,0,0,0],"id":65,"left_children":[1,3,5,-1,7,9,11,-1,-1,-1,-1,13,15,-1,-1,-1,-1],"loss_changes":[2.4813148E2,1.970819E1,2.6730728E0,0E0,3.0784874E0,1.3323991E0,4.956608E1,0E0,0E0,0E0,0E0,6.445571E0,8.136017E0,0E0,0E0,0E0,0E0],"parents":[2147483647,0,0,1,1,2,2,4,4,5,5,6,6,11,11,12,12],"right_children":[2,4,6,-1,8,10,12,-1,-1,-1,-1,14,16,-1,-1,-1,-1],"split_conditions":[2.5542635E-1,-8.050149E-1,-9.8597604E-1,-6.6623446E-3,2.650849E-2,5.889188E-1,7.550586E-1,-4.0662508E-3,-1.6469411E-3,4.1758182E-4,3.366688E-3,5.453914E-1,1.0682545E0,4.625174E-4,3.170901E-3,5.7622306E-3,9.9586565E-3],"split_indices":[22,21,24,0,22,22,22,0,0,0,0,22,22,0,0,0,0],"split_type":[0,0,0,0,0,0,0,0,0,0,0,0,0,0,0,0,0],"sum_hessian":[1.279E3,5.7E2,7.09E2,3.11E2,2.59E2,7.8E1,6.31E2,1.16E2,1.43E2,4.6E1,3.2E1,3.72E2,2.59E2,2.02E2,1.7E2,1.6E2,9.9E1],"tree_param":{"num_deleted":"0","num_feature":"27","num_nodes":"17","size_leaf_vector":"1"}},{"base_weights":[6.7400364E-3,-4.299541E-1,4.3891755E-1,-6.417762E-3,-1.8855609E-1,2.4074222E-1,7.8766966E-1,-2.8102468E-3,-7.7335257E-4,1.14296876E-1,3.5564709E-3,6.641842E-3,1.0829583E-2,5.486515E-4,1.7523255E-3],"categories":[],"categories_nodes":[],"categories_segments":[],"categories_sizes":[],"default_left":[0,0,0,0,0,0,0,0,0,0,0,0,0,0,0],"id":66,"left_children":[1,3,5,-1,7,9,11,-1,-1,13,-1,-1,-1,-1,-1],"loss_changes":[2.4460222E2,3.1771515E1,4.359446E1,0E0,2.7394867E0,5.5524826E0,4.9689484E0,0E0,0E0,5.0095224E-1,0E0,0E0,0E0,0E0,0E0],"parents":[2147483647,0,0,1,1,2,2,4,4,5,5,6,6,9,9],"right_children":[2,4,6,-1,8,10,12,-1,-1,14,-1,-1,-1,-1,-1],"split_conditions":[3.3019987E-1,-4.5106667E-1,9.502396E-1,-6.417762E-3,-5.4508496E-2,5.8864987E-1,1.3741777E0,-2.8102468E-3,-7.7335257E-4,3.8326487E-1,3.5564709E-3,6.641842E-3,1.0829583E-2,5.486515E-4,1.7523255E-3],"split_indices":[22,20,20,0,20,20,20,0,0,20,0,0,0,0,0],"split_type":[0,0,0,0,0,0,0,0,0,0,0,0,0,0,0],"sum_hessian":[1.291E3,6.41E2,6.5E2,3.37E2,3.04E2,4.19E2,2.31E2,1.59E2,1.45E2,2.06E2,2.13E2,1.71E2,6E1,1.15E2,9.1E1],"tree_param":{"num_deleted":"0","num_feature":"27","num_nodes":"15","size_leaf_vector":"1"}},{"base_weights":[-4.765121E-3,-4.3920827E-1,4.2336765E-3,-2.302644E-3,-6.514999E-3],"categories":[],"categories_nodes":[],"categories_segments":[],"categories_sizes":[],"default_left":[0,0,0,0,0],"id":67,"left_children":[1,3,-1,-1,-1],"loss_changes":[2.362349E2,2.6754662E1,0E0,0E0,0E0],"parents":[2147483647,0,0,1,1],"right_children":[2,4,-1,-1,-1],"split_conditions":[3.201704E-1,1E0,4.2336765E-3,-2.302644E-3,-6.514999E-3],"split_indices":[22,1,0,0,0],"split_type":[0,0,0,0,0],"sum_hessian":[1.265E3,6.29E2,6.36E2,3.22E2,3.07E2],"tree_param":{"num_deleted":"0","num_feature":"27","num_nodes":"5","size_leaf_vector":"1"}},{"base_weights":[2.6663917E-3,2.1966931E-1,-6.425347E-3,1.002448E-1,6.178574E-1,1.9008486E-1,-2.0063365E-2,1.0162124E-3,6.315193E-3,2.1123253E-1,-0E0,1.0250638E-3,-1.0285077E-1,-3.8597733E-4,4.823472E-3,-5.584235E-4,1.009702E-3,-2.0677405E-3,1.2203364E-3,-2.2323374E-3,-4.155159E-5],"categories":[],"categories_nodes":[],"categories_segments":[],"categories_sizes":[],"default_left":[0,0,0,0,0,0,0,0,0,0,0,0,0,0,0,0,0,0,0,0,0],"id":68,"left_children":[1,3,-1,5,7,9,11,-1,-1,13,15,17,19,-1,-1,-1,-1,-1,-1,-1,-1],"loss_changes":[1.7851343E2,4.4659454E1,0E0,8.194053E0,6.474457E-1,1.6372719E0,6.5116113E-1,0E0,0E0,2.65335E1,3.00989E-1,6.101267E0,6.435656E-1,0E0,0E0,0E0,0E0,0E0,0E0,0E0,0E0],"parents":[2147483647,0,0,1,1,3,3,4,4,5,5,6,6,9,9,10,10,11,11,12,12],"right_children":[2,4,-1,6,8,10,12,-1,-1,14,16,18,20,-1,-1,-1,-1,-1,-1,-1,-1],"split_conditions":[1E0,9.028528E-1,-6.425347E-3,1.8960787E-1,-9.8597604E-1,6.5194887E-1,1.9823579E0,1.0162124E-3,6.315193E-3,-5.9148777E-1,6.005333E-1,-3.2872322E-1,4.151921E-2,-3.8597733E-4,4.823472E-3,-5.584235E-4,1.009702E-3,-2.0677405E-3,1.2203364E-3,-2.2323374E-3,-4.155159E-5],"split_indices":[1,26,0,19,24,25,19,0,0,26,26,26,26,0,0,0,0,0,0,0,0],"split_type":[0,0,0,0,0,0,0,0,0,0,0,0,0,0,0,0,0,0,0,0,0],